<?xml version="1.0"?>
<opencv_storage>
<opencv_ml_svm>
  <format>3</format>
  <svmType>C_SVC</svmType>
  <kernel>
    <type>LINEAR</type></kernel>
  <C>1.</C>
  <term_criteria><iterations>100</iterations></term_criteria>
  <var_count>2500</var_count>
  <class_count>2</class_count>
  <class_labels type_id="opencv-matrix">
    <rows>2</rows>
    <cols>1</cols>
    <dt>i</dt>
    <data>
      0 1</data></class_labels>
  <sv_total>1</sv_total>
  <support_vectors>
    <_>
      3.67106149e-05 2.75037874e-05 2.02631600e-05 9.20497405e-06
      2.82299811e-06 5.69849772e-06 4.83800477e-06 5.74140449e-06
      1.75445148e-05 2.20919355e-05 3.29534232e-05 3.56061209e-05
      3.38139616e-05 3.51171184e-05 4.37376184e-05 5.45823750e-05
      5.95976126e-05 5.70900265e-05 5.06719553e-05 4.80878989e-05
      5.44799113e-05 6.37576668e-05 6.44087631e-05 5.28815799e-05
      6.47929774e-05 7.65162767e-05 8.82398599e-05 1.04987339e-04
      1.21258621e-04 1.35757626e-04 1.38748786e-04 1.36023038e-04
      1.46197242e-04 1.39044394e-04 1.36649149e-04 1.43302212e-04
      1.24284445e-04 5.85302150e-05 6.40845683e-05 6.11974028e-05
      5.37254200e-05 5.56038394e-05 5.33780403e-05 9.36035431e-05
      3.99576966e-05 3.59633450e-05 5.09874844e-05 5.99777413e-05
      6.92613103e-05 7.27295192e-05 4.04175262e-05 2.95672507e-05
      1.96892597e-05 1.34727043e-05 4.81138704e-06 5.40317751e-06
      6.88751970e-06 9.92996138e-06 1.60322124e-05 2.78673506e-05
      4.42951678e-05 4.58858922e-05 4.28267740e-05 4.29265492e-05
      5.40481742e-05 6.36275217e-05 6.36159530e-05 5.80110318e-05
      5.28639866e-05 5.48054559e-05 6.03465851e-05 6.66916530e-05
      5.93108416e-05 4.91357532e-05 6.36258992e-05 8.02598952e-05
      1.04745486e-04 1.16418203e-04 1.29942942e-04 1.47201645e-04
      1.47869316e-04 1.45322745e-04 1.49712039e-04 1.39749827e-04
      1.33117122e-04 1.33265625e-04 6.40644503e-05 5.76978528e-05
      6.02566688e-05 5.49768301e-05 4.89529884e-05 5.57081912e-05
      1.20333061e-04 5.55347397e-05 3.64540138e-05 4.20000142e-05
      3.99669843e-05 5.72739809e-05 4.85141391e-05 4.76337482e-05
      4.27973282e-05 3.66314853e-05 2.46822237e-05 1.73700464e-05
      9.75397688e-06 1.18465250e-05 1.55465641e-05 2.06621662e-05
      2.51687616e-05 3.68938126e-05 5.16608088e-05 5.16561631e-05
      5.36994194e-05 5.30164507e-05 6.04843190e-05 6.88501605e-05
      7.27262450e-05 6.75882038e-05 6.26724068e-05 6.10230018e-05
      6.65424595e-05 6.70420413e-05 6.19145940e-05 5.70119664e-05
      6.40599974e-05 8.46289986e-05 1.06593492e-04 1.14566144e-04
      1.28038650e-04 1.47728264e-04 1.57178743e-04 1.62045602e-04
      1.39458061e-04 1.28411950e-04 1.23435762e-04 7.46112055e-05
      4.27794075e-05 4.71663006e-05 4.25086400e-05 3.89728011e-05
      5.15291322e-05 5.35862200e-05 6.24851309e-05 4.65464145e-05
      4.75408233e-05 3.52511961e-05 4.82899086e-05 3.73533549e-05
      3.04981932e-05 3.30679759e-05 4.62934695e-05 3.87669897e-05
      2.73991354e-05 2.44681814e-05 2.02552237e-05 2.03924392e-05
      2.21218979e-05 3.15340949e-05 3.54838376e-05 4.09431887e-05
      4.92886975e-05 5.45192452e-05 6.88997752e-05 7.24148267e-05
      7.63220742e-05 7.91245620e-05 8.33819649e-05 8.00351263e-05
      7.81276685e-05 7.61648553e-05 7.66342491e-05 7.34489731e-05
      7.27775478e-05 7.34303030e-05 6.96245188e-05 8.33726008e-05
      9.10708550e-05 9.29793532e-05 9.75563889e-05 1.04828927e-04
      1.21534242e-04 1.25689607e-04 1.11877082e-04 1.02837366e-04
      7.79334950e-05 3.17750164e-05 2.69811335e-05 3.15580401e-05
      3.02540939e-05 2.41493763e-05 4.63490032e-05 6.37101984e-05
      4.76282657e-05 5.51413505e-05 4.47918646e-05 5.26790500e-05
      3.63434374e-05 2.86635022e-05 2.37981403e-05 2.38610137e-05
      4.09565000e-05 3.61575512e-05 2.53472808e-05 2.16079061e-05
      2.03771433e-05 2.28812896e-05 2.57784068e-05 2.84299258e-05
      3.91718495e-05 4.45876940e-05 5.58479769e-05 6.48122441e-05
      8.39278146e-05 9.56355943e-05 1.01841149e-04 9.84185317e-05
      9.74352588e-05 9.86334417e-05 1.00411649e-04 1.01828155e-04
      9.83677892e-05 8.92349854e-05 8.66123155e-05 8.57805717e-05
      7.15450442e-05 8.09457561e-05 8.47987030e-05 7.17991061e-05
      6.07718102e-05 5.24206844e-05 5.47738746e-05 4.94768501e-05
      5.61972738e-05 3.91870199e-05 -1.83488082e-05 -1.28351339e-05
      -6.32685783e-07 1.46330340e-05 3.11667318e-05 2.70362325e-05
      5.18268243e-05 4.34370813e-05 4.76358291e-05 4.00190147e-05
      5.49955876e-05 4.06670115e-05 2.64737773e-05 1.73884182e-05
      1.12707176e-05 3.18006278e-05 3.33065836e-05 2.24641590e-05
      1.27841267e-05 1.43433272e-05 1.48175013e-05 2.10834514e-05
      2.25409312e-05 3.05448484e-05 4.42453202e-05 4.75613851e-05
      5.94554585e-05 7.12456094e-05 9.14843404e-05 1.08036736e-04
      1.19623415e-04 1.16487608e-04 1.13581445e-04 1.12469970e-04
      1.14709430e-04 1.20027194e-04 1.13463488e-04 9.80692857e-05
      8.45664690e-05 8.20940622e-05 7.05169805e-05 7.82137286e-05
      7.31703258e-05 6.03868430e-05 3.20987274e-05 9.93769117e-06
      -1.00460356e-05 -2.48932683e-05 -2.58277432e-05 -8.67022100e-05
      -9.73671558e-05 -7.31378896e-05 -5.18466695e-05 -6.55437407e-06
      1.92132520e-05 3.74664342e-05 4.56532434e-05 4.49321160e-05
      4.08809719e-05 4.88910046e-05 3.37573692e-05 2.94256843e-05
      1.63299756e-05 4.17522551e-06 4.02118785e-05 4.62770840e-05
      2.55598097e-05 1.41083865e-05 3.72175555e-06 9.46941691e-06
      1.09313705e-05 2.09836653e-05 2.60104425e-05 3.07925111e-05
      4.18864620e-05 5.15013489e-05 6.48535570e-05 6.96431453e-05
      9.15634810e-05 1.10507106e-04 1.19998491e-04 1.20403587e-04
      1.22523139e-04 1.18151678e-04 1.17211472e-04 1.22610814e-04
      1.28369706e-04 1.05078223e-04 8.77211132e-05 7.95043379e-05
      7.32781918e-05 6.68205612e-05 5.17416411e-05 2.51961756e-05
      -4.60990759e-06 -3.41137966e-05 -5.76022903e-05 -6.99720185e-05
      -1.16225165e-04 -1.63193021e-04 -1.52780805e-04 -1.25776103e-04
      -8.33565136e-05 -2.35646912e-05 2.92920613e-05 3.67193534e-05
      4.55823902e-05 4.11859546e-05 5.37113629e-05 3.83157530e-05
      3.13525888e-05 2.06266832e-05 1.91967392e-05 3.22696578e-05
      4.53172179e-05 5.24297830e-05 3.39013932e-05 1.83861775e-05
      1.07210763e-05 1.00670677e-05 1.29526697e-05 2.21073205e-05
      3.04094719e-05 3.40975675e-05 3.23345012e-05 4.62592143e-05
      6.23005544e-05 7.42542907e-05 9.24299020e-05 1.13643553e-04
      1.24480590e-04 1.17669013e-04 1.26936808e-04 1.17188960e-04
      1.16418487e-04 1.27391133e-04 1.26097162e-04 1.14648297e-04
      9.49831228e-05 9.02888933e-05 6.98385193e-05 4.94810738e-05
      2.38728680e-05 -1.05452882e-05 -3.45554108e-05 -6.64857580e-05
      -7.21486067e-05 -8.47154151e-05 -1.71131236e-04 -1.70074854e-04
      -1.67417660e-04 -1.40678836e-04 -8.72489691e-05 -2.30122168e-05
      3.95973402e-05 6.67729837e-05 4.77176509e-05 5.97522230e-05
      4.93104199e-05 3.96639589e-05 2.78030002e-05 3.03288343e-05
      3.79889643e-05 4.04443344e-05 5.13173072e-05 4.26477091e-05
      4.14809001e-05 2.39003857e-05 1.30410444e-05 9.09836672e-06
      2.13685726e-05 3.04412606e-05 3.16246296e-05 4.09612694e-05
      4.61161908e-05 5.23676863e-05 6.77608623e-05 8.16566389e-05
      1.02200451e-04 1.15531126e-04 1.25440551e-04 1.26549232e-04
      1.25604900e-04 1.28750660e-04 1.29946144e-04 1.22812402e-04
      1.20217243e-04 1.22801721e-04 9.71835107e-05 7.94988518e-05
      6.71114103e-05 5.01922332e-05 1.43762500e-05 -2.34624076e-05
      -4.16209623e-05 -6.08818373e-05 -7.07510480e-05 -1.45184575e-04
      -1.46691804e-04 -1.47158236e-04 -1.59488322e-04 -1.36801900e-04
      -6.22094594e-05 -2.56666517e-05 3.67355315e-05 4.43776480e-05
      5.49922952e-05 5.24972202e-05 4.86790559e-05 3.09660463e-05
      3.60558806e-05 5.07909717e-05 4.86875069e-05 6.06054746e-05
      4.69250299e-05 3.92447291e-05 3.76269636e-05 2.85358456e-05
      2.46613290e-05 2.26472894e-05 2.78466796e-05 3.21023545e-05
      3.54539698e-05 4.73059808e-05 5.35928848e-05 6.31553194e-05
      7.46367077e-05 9.39640813e-05 1.05645711e-04 1.17997522e-04
      1.23205158e-04 1.24750499e-04 1.24069760e-04 1.17373354e-04
      1.20201519e-04 1.13096445e-04 1.13059767e-04 1.10537781e-04
      9.56030635e-05 8.28358316e-05 6.11896030e-05 4.18956915e-05
      1.32097205e-06 -2.62666708e-05 -4.55916925e-05 -4.89144004e-05
      -9.38421726e-05 -1.20229372e-04 -1.34984468e-04 -1.29266147e-04
      -1.36791903e-04 -6.26063120e-05 -7.43652854e-05 -1.44756468e-05
      2.61909299e-05 4.91514620e-05 3.81670288e-05 4.79131013e-05
      4.08735286e-05 4.61751515e-05 6.24433087e-05 6.08442715e-05
      5.75443155e-05 4.74278204e-05 4.68135186e-05 4.49102517e-05
      3.35936602e-05 2.54246479e-05 3.13159580e-05 3.02053268e-05
      2.84855505e-05 3.70907183e-05 3.95115785e-05 5.93329460e-05
      5.79544503e-05 7.34954738e-05 8.40948924e-05 9.61561673e-05
      1.06991800e-04 1.19170960e-04 1.24785875e-04 1.24204395e-04
      1.18723168e-04 1.12346570e-04 1.02968494e-04 1.01380087e-04
      9.73307324e-05 9.37538571e-05 7.38460221e-05 6.68075736e-05
      2.42881633e-05 6.07905122e-06 -2.01845050e-05 -3.22103915e-05
      -2.93800422e-05 -4.95622844e-05 -1.03763079e-04 -9.90737753e-05
      -1.17230236e-04 -1.14975323e-04 -1.18583397e-04 -9.95230803e-05
      -6.55844779e-05 -1.93583364e-05 3.47158966e-05 4.00139506e-05
      3.78515506e-05 3.44431610e-05 4.79716000e-05 6.22973021e-05
      6.53950046e-05 6.92665853e-05 7.43438504e-05 7.63510616e-05
      7.07826111e-05 7.22144032e-05 3.52154275e-05 2.50296926e-05
      2.66853276e-05 2.44812072e-05 2.49611385e-05 3.85493731e-05
      4.80723975e-05 6.26937617e-05 5.76823550e-05 7.50015606e-05
      9.14701377e-05 9.29358575e-05 1.05087849e-04 1.20427190e-04
      1.26950690e-04 1.21838049e-04 1.17549156e-04 1.06728628e-04
      9.60102116e-05 7.89280239e-05 7.57028029e-05 7.60732582e-05
      4.78351249e-05 3.22286360e-05 -1.04359742e-05 -2.69788907e-05
      -5.25983232e-05 -4.09571003e-05 -4.24762984e-05 -9.58882010e-05
      -8.32778242e-05 -8.02046488e-05 -1.01675083e-04 -1.02687969e-04
      -1.00508303e-04 -8.29201163e-05 -6.23688393e-05 1.70956196e-06
      3.72579234e-05 4.64917066e-05 2.72164707e-05 4.51513515e-05
      7.22211335e-05 9.57388474e-05 9.77767995e-05 9.58898745e-05
      9.87796884e-05 1.04012550e-04 9.81362900e-05 9.69797766e-05
      5.48736389e-05 3.16304468e-05 1.93466058e-05 1.42474391e-05
      1.79022372e-05 2.84605539e-05 3.83434599e-05 4.86442623e-05
      4.85492819e-05 7.37062874e-05 8.79656582e-05 9.16804711e-05
      1.01471102e-04 1.19023338e-04 1.26408282e-04 1.23707534e-04
      1.07924272e-04 1.01898200e-04 8.98195067e-05 6.33662639e-05
      6.18331615e-05 6.30856593e-05 2.65761246e-05 -7.46037722e-06
      -4.21456680e-05 -4.62077805e-05 -6.58241333e-05 -5.49423166e-05
      -1.16225783e-04 -1.09804329e-04 -9.80419791e-05 -8.41117799e-05
      -9.18635633e-05 -8.66456467e-05 -8.08494515e-05 -9.68323584e-05
      -4.74960325e-05 -4.37569952e-06 5.37238266e-05 4.71828789e-05
      5.46435876e-05 6.90850429e-05 1.01404250e-04 1.14639573e-04
      1.20213088e-04 1.13421513e-04 1.07214444e-04 9.71108311e-05
      1.08793392e-04 1.02203958e-04 6.92985050e-05 3.12439333e-05
      1.32695041e-05 6.61143440e-06 7.62071932e-06 1.61856169e-05
      2.20472102e-05 2.95517784e-05 3.85197927e-05 5.83450164e-05
      7.93498402e-05 8.86082926e-05 1.07477776e-04 1.18439340e-04
      1.24986676e-04 1.25308419e-04 9.63487109e-05 9.06634814e-05
      7.57948292e-05 5.25299511e-05 5.16346809e-05 4.34867397e-05
      1.65324593e-06 -4.01510006e-05 -6.15297249e-05 -6.81707243e-05
      -7.06697465e-05 -1.03399201e-04 -1.44501188e-04 -1.23542108e-04
      -1.19652446e-04 -1.14410832e-04 -9.71237678e-05 -1.13856804e-04
      -1.21595869e-04 -9.57725861e-05 -6.38452620e-05 8.61338140e-06
      5.31443402e-05 8.43711096e-05 6.59635625e-05 6.74071125e-05
      6.71880189e-05 8.43114758e-05 8.86073758e-05 9.59708996e-05
      8.96776546e-05 9.46404180e-05 9.59757817e-05 8.95035337e-05
      6.75003830e-05 2.76311948e-05 1.19313054e-05 6.16441821e-06
      9.37384073e-08 9.35291609e-06 1.54301397e-05 2.17484903e-05
      3.95607676e-05 5.42520429e-05 7.37337905e-05 8.72476448e-05
      1.04732819e-04 1.12758389e-04 1.18723889e-04 1.15907926e-04
      8.83019165e-05 7.56692389e-05 6.34308308e-05 5.08961712e-05
      3.68372494e-05 6.99248767e-06 -3.18555794e-05 -6.18746344e-05
      -7.20434618e-05 -7.39031311e-05 -8.93014512e-05 -1.48126826e-04
      -1.65554549e-04 -1.41049924e-04 -1.30781104e-04 -1.17865013e-04
      -1.20516430e-04 -1.22387850e-04 -1.22268699e-04 -1.16294657e-04
      -6.42216546e-05 -9.85503175e-06 7.57480302e-05 9.14491102e-05
      7.37462469e-05 3.99076162e-05 4.51783671e-05 4.52669228e-05
      5.75315207e-05 7.32607004e-05 8.55632461e-05 9.96116505e-05
      9.50193789e-05 9.30700771e-05 5.55168808e-05 2.18248297e-05
      1.00307507e-05 6.16712305e-06 4.01324286e-07 1.26742525e-05
      2.90647549e-05 4.31257431e-05 5.00102869e-05 5.93395562e-05
      7.52519554e-05 8.51472651e-05 9.95345617e-05 1.07061962e-04
      1.10571651e-04 1.05270978e-04 8.98326616e-05 6.54133619e-05
      5.66700874e-05 4.91571409e-05 2.42536444e-05 -2.02310439e-05
      -6.55700278e-05 -7.85881130e-05 -7.72993662e-05 -7.63825665e-05
      -1.59138493e-04 -1.54391877e-04 -1.72834683e-04 -1.42863049e-04
      -1.25166480e-04 -1.28587242e-04 -1.23567123e-04 -1.21665209e-04
      -1.38280942e-04 -1.09247681e-04 -7.00680175e-05 1.00937914e-05
      7.44145291e-05 7.82859061e-05 6.45942491e-05 3.05534486e-05
      1.42453109e-05 1.25725583e-05 1.20109626e-05 2.56002822e-05
      5.52144193e-05 7.99903137e-05 9.45858628e-05 1.00433193e-04
      3.81778736e-05 1.63018394e-05 3.37645215e-05 1.71877605e-06
      1.27323237e-05 1.27579406e-05 2.70633318e-05 4.23542624e-05
      4.52828936e-05 6.95368217e-05 7.90181221e-05 8.70362637e-05
      9.40885948e-05 1.07631946e-04 9.66669759e-05 8.07867327e-05
      6.58829449e-05 6.00653802e-05 4.53619468e-05 2.42505957e-05
      -1.65195015e-05 -6.00812855e-05 -7.92671344e-05 -7.59770483e-05
      -8.62466040e-05 -1.29142252e-04 -1.46353879e-04 -1.57659393e-04
      -1.47731771e-04 -1.27552659e-04 -1.40570861e-04 -1.39767464e-04
      -1.28797808e-04 -1.45980783e-04 -1.59086427e-04 -1.31415218e-04
      -6.20465507e-05 2.56629082e-05 7.26579092e-05 7.71109408e-05
      4.53535613e-05 3.13926212e-05 4.54809469e-06 6.18523700e-06
      1.55015859e-05 2.88741103e-06 2.32850707e-05 2.09912141e-05
      2.49699515e-05 5.40425535e-05 4.55557602e-05 2.31386821e-06
      1.60354175e-05 8.33117440e-07 2.76350074e-05 3.07264490e-05
      1.54682912e-05 3.26845002e-05 4.85758937e-05 6.78591168e-05
      7.23092890e-05 7.40919932e-05 9.40738464e-05 1.03623432e-04
      9.21861647e-05 6.90269371e-05 4.61084310e-05 5.27973643e-05
      3.68663350e-05 -1.96898236e-06 -4.24389073e-05 -6.33508389e-05
      -7.39972602e-05 -7.82602656e-05 -1.09060580e-04 -1.42018165e-04
      -1.30271626e-04 -1.33031470e-04 -6.94243572e-05 -1.12281188e-04
      -1.14204813e-04 -1.15324830e-04 -1.29419277e-04 -1.46772800e-04
      -1.33391237e-04 -1.02052218e-04 -3.95428542e-05 2.22737308e-05
      6.38617785e-05 6.14396922e-05 4.88816440e-05 3.86551437e-05
      4.51987398e-05 2.76161445e-05 6.65139169e-06 1.23137934e-05
      3.53961987e-05 4.12267182e-05 5.06269998e-06 2.76708906e-05
      5.27472585e-05 1.69543466e-06 7.49142100e-06 -1.16028878e-06
      2.79862088e-05 3.66093154e-05 6.42062651e-06 2.65607214e-05
      4.93400148e-05 6.43776293e-05 6.50246438e-05 6.31611983e-05
      7.97799366e-05 8.71883312e-05 7.32767294e-05 5.54716062e-05
      3.71968308e-05 2.92757868e-05 6.88607815e-06 -4.01565449e-05
      -6.78691795e-05 -7.22502155e-05 -7.18051742e-05 -7.90674894e-05
      -1.41260796e-04 -1.15049763e-04 -9.41731705e-05 -8.44614115e-05
      -8.32012665e-05 -9.38949888e-05 -1.08628657e-04 -1.22993908e-04
      -1.31285604e-04 -1.29024542e-04 -1.19034739e-04 -8.75253245e-05
      -4.57106507e-05 2.82780111e-05 4.93527077e-05 5.67003008e-05
      5.18208653e-05 4.48336905e-05 3.47119530e-05 4.56487578e-05
      6.55278272e-05 7.06840074e-05 4.95439344e-05 3.10295982e-05
      4.86857880e-06 3.50631235e-05 2.74901304e-05 1.58011358e-06
      1.39484409e-05 2.57558554e-06 1.86558718e-05 2.19456779e-05
      6.09878634e-06 2.44021139e-05 4.22748890e-05 6.61447921e-05
      5.48894932e-05 6.09499875e-05 6.72417955e-05 7.75157314e-05
      6.46158151e-05 4.76425630e-05 3.04855639e-05 1.14493923e-05
      -2.85152601e-05 -6.28022535e-05 -7.61742194e-05 -7.36585789e-05
      -6.40122962e-05 -1.30935819e-04 -1.16728552e-04 -7.91955827e-05
      -5.03561387e-05 -4.73095643e-05 -5.89825904e-05 -9.16288409e-05
      -1.33886962e-04 -1.34299800e-04 -1.06850181e-04 -1.04323968e-04
      -1.10348650e-04 -1.04741848e-04 -6.36145487e-05 7.97536723e-06
      5.36080333e-05 5.19093155e-05 6.01070242e-05 3.11318363e-05
      3.00587781e-05 1.94070890e-05 5.68830837e-05 6.98456424e-05
      9.11716706e-05 7.96500390e-05 1.89345210e-05 4.12533154e-05
      -4.53380198e-06 1.03836992e-05 2.44417533e-05 7.59302748e-06
      1.16831347e-06 4.02067462e-06 1.14966770e-05 1.30389990e-05
      3.97702206e-05 6.64594045e-05 4.59377334e-05 4.99153575e-05
      6.04430898e-05 6.48474233e-05 6.02372529e-05 4.28336498e-05
      3.87359032e-05 -1.65791280e-05 -5.85852031e-05 -6.36031327e-05
      -6.52487579e-05 -6.77082789e-05 -9.25971108e-05 -1.04549210e-04
      -8.06872558e-05 -4.01385660e-05 -2.29485795e-06 -8.19078923e-06
      -3.93146765e-05 -1.03692808e-04 -1.40782373e-04 -1.06835410e-04
      -7.49739993e-05 -9.05435954e-05 -1.06714397e-04 -1.11341185e-04
      -7.01019308e-05 -6.44062038e-06 4.09265340e-05 5.03694973e-05
      3.64149382e-05 3.32678646e-05 1.81602099e-05 8.44781971e-06
      1.35601695e-05 2.37868753e-05 4.93690713e-05 4.77696340e-05
      5.07220102e-05 7.62314376e-05 -2.34301151e-05 1.02659205e-05
      1.42318386e-05 6.36811365e-06 -6.73820341e-06 -6.63948470e-07
      1.41030223e-05 5.35681556e-06 3.17286576e-05 6.59685538e-05
      4.64474797e-05 3.91693975e-05 4.47658967e-05 4.52561908e-05
      4.17975825e-05 2.69554803e-05 1.83973170e-05 -3.93608570e-05
      -6.87008724e-05 -4.89081249e-05 -5.18493798e-05 -6.08394876e-05
      -1.09203880e-04 -8.10035490e-05 -3.21479711e-05 1.56597926e-05
      3.12392185e-05 1.43727584e-05 -4.29795982e-05 -1.03314109e-04
      -1.03247032e-04 -8.11283026e-05 -7.77801179e-05 -9.36960714e-05
      -1.01966973e-04 -1.00968849e-04 -6.86873973e-05 -1.63214361e-06
      4.30744876e-05 4.18817108e-05 3.66587337e-05 4.37700146e-05
      3.47072964e-05 -2.58320597e-06 9.42802217e-06 1.77171005e-05
      3.75356058e-06 2.79221640e-05 1.72095843e-05 9.41461476e-05
      -3.26064401e-05 -3.66947529e-06 5.59914952e-06 -7.27418592e-06
      -1.17564059e-05 -2.04315938e-06 7.66865651e-06 5.93274217e-06
      2.65591098e-05 5.48695825e-05 3.62498395e-05 3.02598546e-05
      3.31883966e-05 4.47585480e-05 1.40971697e-05 4.78096354e-06
      -2.79264295e-05 -5.67629104e-05 -5.62676323e-05 -3.91618232e-05
      -2.30450805e-05 -9.53590934e-05 -6.87914071e-05 -3.80832644e-05
      2.43602826e-05 5.35129693e-05 6.50602306e-05 1.34355596e-05
      -4.75820380e-05 -6.88059372e-05 -8.67249255e-05 -1.06828636e-04
      -1.19627432e-04 -1.02458383e-04 -8.73046811e-05 -7.57327070e-05
      -5.32284394e-05 3.57355248e-06 6.52673698e-05 5.58128231e-05
      3.17671838e-05 6.24433742e-05 4.41217562e-05 5.08451512e-06
      4.53567873e-06 9.54598272e-06 9.36229480e-06 -6.26430665e-06
      5.11738051e-07 8.07889810e-05 -2.09032114e-05 -8.61658918e-06
      -1.94240897e-06 -2.53530161e-05 -2.48958004e-05 -7.13007876e-06
      -1.59808212e-06 5.35915615e-06 3.39787075e-05 4.89264276e-05
      2.03277068e-05 3.04793812e-05 3.25919427e-05 7.03247642e-05
      1.19119863e-06 -1.79488852e-05 -6.52905801e-05 -4.74265289e-05
      -3.23838867e-05 -2.20659495e-05 -7.30665124e-05 -6.48643181e-05
      -3.15756370e-05 1.30617973e-05 4.80780982e-05 7.59240429e-05
      5.88155235e-05 1.22093263e-06 -8.34917773e-06 -5.10325735e-05
      -1.13091650e-04 -1.35013310e-04 -1.38083458e-04 -1.12909933e-04
      -7.14955240e-05 -5.52335296e-05 -1.10175770e-05 4.23166739e-06
      4.29983447e-05 1.00927464e-04 1.09156354e-04 7.00673991e-05
      3.94569797e-05 9.57046086e-06 6.81915753e-06 -5.40701376e-06
      -1.34764214e-05 1.43718053e-05 -2.65877079e-05 1.82262502e-05
      -3.72698742e-05 -1.65135480e-05 1.21917828e-05 -4.54978226e-06
      1.71732518e-06 5.25983978e-07 6.11522591e-06 2.40522513e-06
      1.56026817e-05 3.20638210e-05 6.60927572e-06 2.62146364e-06
      1.24204525e-05 1.00885438e-04 -2.75594703e-05 -8.20740534e-05
      -8.05600212e-05 -4.73950677e-05 -3.32157288e-05 -2.82090732e-05
      -5.63753383e-05 -2.30271762e-05 1.92108910e-05 5.72507452e-05
      9.24871056e-05 9.49623427e-05 7.01879108e-05 5.90753953e-05
      2.81392931e-06 -8.18922999e-05 -1.34454953e-04 -1.66860147e-04
      -1.49180909e-04 -1.15415540e-04 -6.96237767e-05 -4.94278174e-05
      -1.20350942e-05 2.10783564e-05 6.85813211e-05 1.05580992e-04
      1.31627312e-04 1.27815350e-04 3.36609046e-05 2.27981491e-05
      8.59314878e-06 1.17674836e-05 8.55115923e-06 -1.02892000e-05
      -9.03589262e-06 3.38709397e-05 -4.62222088e-05 -7.13490545e-06
      1.34550955e-05 -1.97456229e-05 -1.91793788e-05 -1.79573690e-05
      -1.56997939e-05 -2.22536892e-05 7.63138985e-07 7.92940045e-06
      4.35808079e-06 -2.49390354e-07 -6.42086093e-07 5.90647614e-05
      -6.97545693e-05 -9.06961141e-05 -7.06056308e-05 -4.42431774e-05
      -2.69024331e-05 -5.87715695e-05 -1.50475234e-05 6.04287561e-05
      6.74729527e-05 9.11286188e-05 9.15445853e-05 1.06355714e-04
      1.09796914e-04 5.72202080e-05 -3.10130235e-05 -9.74384820e-05
      -1.52958368e-04 -1.68828163e-04 -1.44507794e-04 -1.16100826e-04
      -7.23748744e-05 -3.34761826e-05 3.91046706e-06 6.25016401e-05
      6.25476314e-05 1.04718973e-04 1.29000488e-04 1.30536646e-04
      3.17319355e-05 2.46478612e-05 -6.09724339e-06 6.95435392e-06
      -7.36835716e-07 -1.32608038e-05 -1.21339053e-05 4.07068474e-05
      -5.86265269e-05 -1.55127486e-06 1.38291889e-05 -2.23172210e-05
      -1.41010769e-05 -1.66913069e-05 -1.42687259e-05 -1.79790150e-05
      -5.60722265e-06 -1.06649823e-05 -6.31264811e-06 -6.89879971e-06
      -3.63222644e-05 9.67604683e-06 -1.26442217e-04 -1.09434332e-04
      -6.51593800e-05 -2.69764332e-05 -7.21291799e-05 -2.65673916e-05
      4.09393360e-05 8.22322909e-05 1.20523902e-04 1.18276330e-04
      1.17366224e-04 1.31493114e-04 9.57960219e-05 3.29980176e-05
      -3.62618775e-05 -1.09246452e-04 -1.47942497e-04 -1.49000887e-04
      -1.49327854e-04 -9.85145161e-05 -5.42564449e-05 -2.02941574e-05
      9.13111580e-06 8.85156260e-05 5.92383876e-05 8.99469596e-05
      1.41276090e-04 1.37824609e-04 1.12533977e-04 2.12001396e-05
      6.16244415e-06 -4.71195335e-06 -3.37842221e-06 -1.84650016e-05
      -1.14732393e-05 1.87655642e-05 -5.13159721e-05 -1.14178886e-06
      1.33702179e-05 -1.59410447e-05 -1.20669938e-05 -2.06071909e-05
      -3.05314243e-05 -3.45447261e-05 -2.58440577e-05 -1.37295792e-05
      -1.74360630e-05 -3.62965839e-05 -9.26566427e-05 -3.73137445e-05
      -1.44632839e-04 -8.71634038e-05 -5.39480970e-05 -5.60752705e-05
      -4.15149152e-05 5.87327713e-06 7.23101330e-05 1.29243534e-04
      1.22235389e-04 1.51500746e-04 1.34079717e-04 1.04534840e-04
      5.89995580e-05 1.54949703e-05 -3.90310815e-05 -1.04835279e-04
      -1.50461565e-04 -1.49811924e-04 -1.50023028e-04 -8.56939223e-05
      -4.28192725e-05 -2.38522898e-05 1.44060114e-05 1.11479552e-04
      9.44445856e-05 6.50494549e-05 8.03100993e-05 1.21675163e-04
      1.00543548e-04 2.27201090e-05 1.01231835e-05 -7.87706722e-06
      -7.98282053e-06 -1.90166102e-05 -1.23457244e-06 2.98566920e-05
      -5.31979931e-05 -2.01609018e-05 3.72515183e-06 -1.53374167e-05
      -2.37433687e-05 -3.83889092e-05 -4.34200992e-05 -3.14029458e-05
      -7.49823039e-06 -1.44275000e-05 -4.37752024e-05 -7.95851083e-05
      -1.23764097e-04 -6.84570550e-05 -1.12090303e-04 -7.50239051e-05
      -3.71041024e-05 -4.19938187e-05 -1.52044922e-05 3.77406686e-05
      1.04283259e-04 1.36955365e-04 1.56170645e-04 1.58512063e-04
      1.09163877e-04 7.90970516e-05 4.06975123e-05 8.44054102e-06
      -4.08033557e-05 -1.09559995e-04 -1.49575135e-04 -1.42537174e-04
      -1.26249855e-04 -7.91657876e-05 -5.37663982e-05 -3.37949059e-05
      3.09744210e-05 1.28880289e-04 1.25240418e-04 2.73103378e-05
      2.80172299e-05 7.98497931e-05 4.44106627e-05 2.94975125e-05
      -1.09065013e-05 -1.81386931e-05 -1.21254498e-05 -1.67748349e-05
      -7.49445326e-06 2.68682870e-05 -3.08337476e-05 -2.28151130e-05
      -1.83058648e-06 -1.32606328e-05 -2.55127397e-05 -4.36776500e-05
      -2.57329157e-05 -8.38473079e-06 -1.19404613e-05 -4.02065780e-05
      -6.62694802e-05 -1.19561919e-04 -1.45894679e-04 -1.24886734e-04
      -1.03182887e-04 -7.46419173e-05 -6.21199288e-05 1.62015920e-06
      1.96055898e-05 7.78718604e-05 1.14669550e-04 1.74870613e-04
      1.58687268e-04 1.11945490e-04 7.99764239e-05 5.65283517e-05
      2.58178170e-05 -1.22402926e-05 -5.59700857e-05 -1.05887280e-04
      -1.20705590e-04 -1.08420718e-04 -8.77135462e-05 -6.36366822e-05
      -4.67530808e-05 -2.81603207e-05 2.80599979e-05 9.43824416e-05
      9.54192801e-05 2.80271183e-06 -1.70532057e-05 -5.53299060e-06
      1.70295443e-05 -3.23772980e-07 -1.54414283e-05 -3.44435466e-05
      -2.52297923e-05 -3.41441191e-05 -2.30063542e-05 1.28090496e-05
      1.74287140e-06 -5.50817049e-06 2.72624447e-06 -1.69377072e-05
      -3.75790332e-05 -5.07154000e-05 -2.58572782e-05 -1.75968798e-05
      -3.02220287e-05 -6.64406471e-05 -1.10697525e-04 -1.35136172e-04
      -1.36110873e-04 -1.21341807e-04 -9.62796767e-05 -1.45011771e-04
      -4.61437376e-05 8.12853887e-06 9.31883551e-06 4.64961777e-05
      1.24490412e-04 1.18180607e-04 6.80423909e-05 4.56444177e-05
      2.00808827e-05 6.25043094e-06 -2.52652771e-05 -5.68726864e-05
      -9.29978851e-05 -1.19058866e-04 -1.23321908e-04 -1.03709339e-04
      -8.11784194e-05 -5.39281755e-05 -4.23005185e-05 -3.42752355e-05
      -3.92260336e-06 2.33161263e-05 2.13685944e-05 -2.23633760e-05
      -9.55137075e-05 -8.04744632e-05 -4.52526510e-05 -4.14637907e-05
      -4.16732109e-05 -5.09820857e-05 -4.13875387e-05 -2.94053825e-05
      -3.23561326e-05 8.59067313e-06 -7.08945254e-06 -2.42333226e-05
      -2.66403663e-06 -3.31145311e-05 -5.10690006e-05 -4.40686817e-05
      -2.02457995e-05 -2.02917818e-05 -5.16212021e-05 -8.55219259e-05
      -1.15681156e-04 -1.24155093e-04 -1.31922847e-04 -1.19883545e-04
      -1.52219000e-04 -1.44990947e-04 -5.94866578e-05 -3.87821456e-05
      -3.94959716e-05 3.57536592e-05 3.45535555e-05 -3.81409654e-06
      -2.71669633e-05 -2.85229980e-05 -4.61745622e-05 -5.42015005e-05
      -8.59654756e-05 -1.17135511e-04 -1.41276338e-04 -1.59435964e-04
      -1.56102513e-04 -1.33082256e-04 -1.10673005e-04 -7.15426868e-05
      -6.89711960e-05 -6.20996361e-05 -4.68131257e-05 -3.96498071e-05
      -4.73702821e-05 -5.79067673e-05 -1.77169539e-04 -1.66945800e-04
      -1.46946812e-04 -9.17501602e-05 -6.55863623e-05 -6.49133071e-05
      -5.88626899e-05 -3.35103214e-05 -2.24577452e-05 3.96178484e-06
      2.46543386e-05 -3.68824803e-05 -4.81838924e-07 -3.80718520e-05
      -5.69267759e-05 -2.99876501e-05 -2.80943368e-05 -3.89527959e-05
      -7.34541245e-05 -1.05889951e-04 -1.36964896e-04 -1.23570717e-04
      -9.10333911e-05 -1.11744659e-04 -1.87946542e-04 -1.60599011e-04
      -1.09139517e-04 -9.77773452e-05 -4.62227617e-05 -7.45312936e-05
      -1.10727371e-04 -1.12844100e-04 -1.09897046e-04 -1.11606976e-04
      -1.25866252e-04 -1.30347049e-04 -1.34714006e-04 -1.43556754e-04
      -1.50912223e-04 -1.49071362e-04 -1.45155180e-04 -1.39056516e-04
      -8.84207766e-05 -6.25499597e-05 -7.98242181e-05 -8.56611878e-05
      -8.66059054e-05 -1.00811551e-04 -1.16744624e-04 -1.46006001e-04
      -2.30676407e-04 -2.25510856e-04 -1.79594601e-04 -1.06433086e-04
      -7.42945995e-05 -6.40648868e-05 -6.13999946e-05 -5.55375664e-05
      -1.79761355e-05 1.42599492e-05 5.70444718e-05 -2.52282971e-05
      -1.63980003e-05 -4.74059998e-05 -5.74446094e-05 -3.11671429e-05
      -3.08988820e-05 -4.10844150e-05 -6.23348897e-05 -1.02166341e-04
      -1.32912348e-04 -1.15904550e-04 -8.43802118e-05 -1.93490778e-04
      -1.94013744e-04 -1.63290941e-04 -1.52934706e-04 -6.88529908e-05
      -1.30897373e-04 -1.45239304e-04 -1.47568542e-04 -1.53309345e-04
      -1.56742710e-04 -1.71789841e-04 -1.56896291e-04 -1.61129748e-04
      -1.57996648e-04 -1.63760837e-04 -1.68508370e-04 -1.61703312e-04
      -1.50022082e-04 -1.43861471e-04 -1.03081329e-04 -7.61917981e-05
      -9.64183200e-05 -1.15409435e-04 -1.12225891e-04 -1.23337566e-04
      -1.40033153e-04 -1.66235011e-04 -2.13814521e-04 -2.31196478e-04
      -1.83033539e-04 -1.19067452e-04 -7.77802488e-05 -6.94770133e-05
      -5.92158212e-05 -5.40660949e-05 -2.76150149e-05 -2.45697436e-07
      9.39310776e-05 4.35794709e-06 -1.59268639e-05 -4.95464592e-05
      -5.16068285e-05 -2.52371956e-05 -3.66861168e-05 -4.64462864e-05
      -6.20545252e-05 -1.04320192e-04 -1.24189624e-04 -8.32190271e-05
      -1.42513134e-04 -1.81278971e-04 -1.79172930e-04 -1.38987278e-04
      -9.41420803e-05 -1.29276072e-04 -1.61129326e-04 -1.63283388e-04
      -1.58420007e-04 -1.68641214e-04 -1.78963397e-04 -1.87873215e-04
      -1.77507827e-04 -1.80269388e-04 -1.75117631e-04 -1.74158384e-04
      -1.77513910e-04 -1.73852721e-04 -1.55418049e-04 -1.44811405e-04
      -1.20521356e-04 -9.49316891e-05 -1.16204385e-04 -1.40109172e-04
      -1.42372548e-04 -1.47066981e-04 -1.59461357e-04 -1.77479058e-04
      -1.97017405e-04 -2.26727207e-04 -1.74270375e-04 -1.18781099e-04
      -6.93163383e-05 -5.86437382e-05 -5.55029583e-05 -4.46920276e-05
      -4.60756128e-05 -2.37214626e-05 8.21965659e-05 1.08091454e-05
      -5.15835063e-06 -4.67302052e-05 -4.21406294e-05 -1.66753398e-05
      -3.28151618e-05 -4.75481902e-05 -6.89880908e-05 -1.07534128e-04
      -9.98996766e-05 -9.74358627e-05 -1.22593163e-04 -1.55594127e-04
      -8.85402405e-05 -1.02231184e-04 -1.44339778e-04 -1.44227146e-04
      -1.53816945e-04 -1.66306389e-04 -1.56305294e-04 -1.70533167e-04
      -1.73898792e-04 -1.81009687e-04 -1.75750189e-04 -1.71104475e-04
      -1.66357771e-04 -1.67812163e-04 -1.72418542e-04 -1.69987485e-04
      -1.57629911e-04 -1.43870726e-04 -1.22537953e-04 -1.12236077e-04
      -1.30419081e-04 -1.47901563e-04 -1.50134409e-04 -1.42092729e-04
      -1.42190765e-04 -1.53906367e-04 -1.59573712e-04 -1.93006723e-04
      -1.48382285e-04 -1.05061736e-04 -7.43651763e-05 -5.33225029e-05
      -4.10542380e-05 -2.89760519e-05 -4.49646250e-05 -2.79584892e-05
      4.04565108e-05 3.14720933e-06 4.95310223e-06 -3.33399294e-05
      -3.26195113e-05 -6.94365599e-06 -2.02316483e-06 -1.85972149e-05
      -3.84752384e-05 -6.41384831e-05 -3.24547073e-05 -1.13806687e-04
      -9.76090087e-05 -5.63083631e-05 -9.15655764e-05 -1.26655257e-04
      -1.24197599e-04 -1.24402373e-04 -1.26152314e-04 -1.41562952e-04
      -1.29775188e-04 -1.37954674e-04 -1.45647282e-04 -1.51265049e-04
      -1.39698110e-04 -1.39464100e-04 -1.36757866e-04 -1.40184609e-04
      -1.49126674e-04 -1.58944546e-04 -1.52335342e-04 -1.43620127e-04
      -1.19922312e-04 -1.33863083e-04 -1.38890769e-04 -1.35081893e-04
      -1.34492147e-04 -1.10043198e-04 -8.77360799e-05 -9.50310205e-05
      -9.03259061e-05 -1.09096996e-04 -9.10263698e-05 -6.24191453e-05
      -5.60209410e-05 -4.29001266e-05 -3.48517096e-05 -1.88499926e-05
      -1.12862899e-05 -7.95861979e-07 2.29068482e-05 6.09932522e-06
      1.65538495e-05 -2.18841542e-05 -1.75510268e-05 7.25100563e-06
      2.05317883e-05 2.08708152e-05 6.58501494e-06 2.27662895e-05
      -1.34650218e-05 -2.27543114e-05 5.77888350e-05 -2.75404800e-05
      -5.84494082e-05 -6.37759149e-05 -5.12224469e-05 -5.08320372e-05
      -5.30008328e-05 -5.74047408e-05 -5.17375083e-05 -5.96225655e-05
      -5.51403282e-05 -6.13082157e-05 -6.50843504e-05 -6.52110466e-05
      -7.03383703e-05 -8.01767310e-05 -1.04852130e-04 -1.28241038e-04
      -1.37315350e-04 -1.33365102e-04 -1.15525734e-04 -1.40416392e-04
      -1.36171089e-04 -1.22422483e-04 -1.06910200e-04 -5.59300352e-05
      -2.30514070e-05 -2.19126159e-05 -1.28614702e-05 -2.90078151e-05
      -3.73205585e-05 -2.38201974e-05 -3.46542874e-05 -3.08683011e-05
      -1.47231285e-05 -1.18228263e-05 -9.20612365e-06 -4.52239556e-06
      3.06560105e-05 2.80385138e-05 2.32821731e-05 -1.38887681e-05
      -8.00585553e-08 2.27074433e-05 4.45132318e-05 6.14313831e-05
      5.57479216e-05 5.16710898e-05 6.11416835e-05 1.46997161e-04
      8.71315933e-05 5.43503011e-05 3.33673597e-05 2.93613321e-05
      3.73132425e-05 2.68728636e-05 3.44814907e-05 2.84346825e-05
      3.60218364e-05 3.36887133e-05 3.21073603e-05 3.19497703e-05
      2.67400337e-05 1.42537228e-05 7.99989834e-07 -2.02396277e-05
      -5.72526296e-05 -1.00177582e-04 -1.26624276e-04 -1.31130815e-04
      -1.19539633e-04 -1.29188804e-04 -1.26748462e-04 -1.13415350e-04
      -7.74750079e-05 -1.03600196e-05 2.57266893e-05 3.36895428e-05
      2.73607347e-05 1.36213057e-05 -1.19540537e-05 -1.18497646e-05
      -6.00094472e-06 -5.34944593e-06 -1.85660531e-06 6.25134589e-06
      -1.13918059e-05 -1.31601510e-05 2.93501907e-05 1.78259234e-05
      1.30817934e-05 -7.10777431e-06 1.60339969e-05 3.70906564e-05
      6.21621730e-05 8.11751452e-05 8.91032032e-05 9.02878019e-05
      1.52004810e-04 1.02232545e-04 1.18323769e-04 1.03733568e-04
      8.84407928e-05 9.14761040e-05 9.92612986e-05 9.46060973e-05
      9.49752430e-05 1.02186386e-04 9.03766122e-05 8.52047087e-05
      8.46161056e-05 7.23685080e-05 7.36500515e-05 6.35839824e-05
      4.25250655e-05 1.52042921e-05 -3.49977054e-05 -9.17571306e-05
      -1.27691615e-04 -1.34588467e-04 -1.22238314e-04 -1.19763281e-04
      -1.16826581e-04 -1.12963491e-04 -6.21361905e-05 1.19928254e-05
      4.49589133e-05 5.89636365e-05 3.53576688e-05 1.60347099e-05
      -1.20944424e-05 -1.13175029e-05 -2.25621147e-06 1.43124325e-05
      1.61823700e-05 2.03538621e-05 1.58283808e-06 7.04717138e-07
      2.25925669e-05 2.32622788e-05 8.58664316e-06 1.18509506e-05
      -5.77563560e-06 5.01987961e-05 7.21614560e-05 8.76107297e-05
      1.02163001e-04 1.00556215e-04 1.10484893e-04 1.30737477e-04
      1.48032457e-04 1.37567549e-04 1.16533614e-04 1.28185115e-04
      1.01762496e-04 9.61712067e-05 7.93808940e-05 7.82698917e-05
      8.88798895e-05 9.15447090e-05 8.93501201e-05 7.91985804e-05
      6.74655894e-05 6.15267782e-05 4.83424010e-05 2.44786388e-05
      -3.74525698e-05 -9.02146203e-05 -1.21057943e-04 -1.22518846e-04
      -1.14795395e-04 -1.07992550e-04 -1.09924549e-04 -9.30331080e-05
      -5.09154634e-05 1.21978255e-05 4.88606056e-05 5.24056923e-05
      2.61370806e-05 1.51987033e-05 6.08207802e-06 -8.49494609e-06
      -1.88048409e-06 8.89327021e-06 1.45826161e-05 1.84951459e-05
      -1.83279315e-06 -4.24862901e-06 3.52567331e-05 2.83674053e-05
      7.48470165e-06 2.32995035e-06 -4.15695141e-08 3.99238197e-05
      6.80107914e-05 9.03347827e-05 1.04499319e-04 1.00467427e-04
      1.15212853e-04 1.34595801e-04 1.44702193e-04 1.41930417e-04
      1.18680502e-04 1.22638463e-04 9.91426568e-05 9.87804815e-05
      8.58631247e-05 9.06913556e-05 9.53778581e-05 9.18756559e-05
      8.81779852e-05 7.70746992e-05 6.63432074e-05 6.31407165e-05
      5.91405878e-05 4.12424670e-05 -1.30811841e-05 -7.53323839e-05
      -1.08823529e-04 -1.14268252e-04 -1.02923092e-04 -9.95692681e-05
      -1.00343015e-04 -8.43751332e-05 -4.67501704e-05 6.99544125e-06
      3.59531623e-05 3.44161017e-05 2.55884952e-05 2.54355109e-05
      1.65513320e-05 -2.56950170e-06 4.04292678e-06 1.06957541e-05
      1.43066081e-05 1.44124124e-05 3.29229329e-06 3.10228802e-06
      4.67715072e-05 3.12632546e-05 1.40042484e-05 2.57964712e-06
      4.68334838e-06 5.06923170e-05 7.27914157e-05 7.80454211e-05
      1.14098002e-04 9.60638936e-05 1.23956634e-04 1.41064142e-04
      1.48015315e-04 1.50128108e-04 1.24674596e-04 1.09258333e-04
      1.04547114e-04 1.05622756e-04 9.82981655e-05 1.01163067e-04
      1.05759951e-04 9.95431401e-05 9.76339797e-05 7.94846273e-05
      6.82554310e-05 6.74947005e-05 6.52322706e-05 5.88583280e-05
      2.21780579e-06 -6.30354989e-05 -1.02615013e-04 -1.05333711e-04
      -8.87336864e-05 -8.22955626e-05 -8.39032728e-05 -7.18964729e-05
      -3.75810487e-05 8.59248212e-06 3.69854606e-05 2.87961739e-05
      3.21610605e-05 3.53060095e-05 2.80853092e-05 1.14808427e-05
      6.14612463e-06 1.13050537e-05 1.46862094e-05 1.15455696e-05
      8.20536297e-06 7.12166047e-06 3.96730502e-05 2.45140218e-05
      1.86828765e-05 4.04161801e-06 2.56170733e-05 5.07252589e-05
      7.40032337e-05 7.87296958e-05 1.16117269e-04 9.57040465e-05
      1.29001593e-04 1.44315170e-04 1.56963288e-04 1.62074692e-04
      1.30603235e-04 1.03018741e-04 1.02478523e-04 1.07983993e-04
      1.08479384e-04 1.12456735e-04 1.07925174e-04 1.07233973e-04
      1.03084385e-04 8.69919168e-05 7.73057109e-05 7.20389435e-05
      7.10144013e-05 6.59961806e-05 9.83398968e-06 -4.93267980e-05
      -8.52180237e-05 -8.54415848e-05 -7.57930102e-05 -7.03561891e-05
      -6.86426283e-05 -5.82729117e-05 -2.52946847e-05 2.05937995e-05
      4.89213380e-05 3.99917772e-05 3.81660248e-05 4.54734145e-05
      4.05357496e-05 2.15643540e-05 9.44349722e-06 1.24423650e-05
      1.14970617e-05 6.64077288e-06 9.02193551e-06 6.12745362e-06
      3.32839372e-05 1.31004208e-05 1.49433763e-05 2.61957812e-05
      3.97853510e-05 4.68556136e-05 7.85239172e-05 9.59272802e-05
      1.19626682e-04 9.84433354e-05 1.28206157e-04 1.46870443e-04
      1.60946700e-04 1.65671066e-04 1.32599729e-04 1.00751080e-04
      1.07346867e-04 1.10785782e-04 1.10443063e-04 1.15861032e-04
      1.07820517e-04 1.03858962e-04 1.07226886e-04 9.10818126e-05
      8.69841897e-05 7.94482621e-05 7.54133434e-05 7.10029344e-05
      2.39373385e-05 -2.81853190e-05 -5.74522637e-05 -5.51621124e-05
      -6.12239310e-05 -4.87959805e-05 -4.11787696e-05 -2.38570283e-05
      6.01626789e-06 4.11082983e-05 5.85562011e-05 4.79530863e-05
      3.88777480e-05 4.43553399e-05 4.65639605e-05 3.56199816e-05
      6.69865312e-06 8.47742558e-06 1.55485286e-05 8.47048068e-06
      4.23035954e-06 2.65097538e-06 2.80884506e-05 1.33924659e-05
      2.59090684e-05 2.59236476e-05 4.92945146e-05 6.14801465e-05
      8.42027657e-05 1.19954078e-04 1.23224148e-04 1.05542262e-04
      1.27495368e-04 1.47152241e-04 1.58825627e-04 1.57770264e-04
      1.25932595e-04 1.09797453e-04 1.21162171e-04 1.20300203e-04
      1.19059136e-04 1.20984616e-04 1.11309077e-04 1.13622868e-04
      1.22705198e-04 1.02184684e-04 8.94365949e-05 9.06825080e-05
      8.42492082e-05 7.53674612e-05 4.15577124e-05 1.22562360e-05
      -9.39920756e-06 -1.73320077e-05 -9.73711212e-06 4.62699154e-06
      1.80979205e-05 3.27421840e-05 4.98491208e-05 6.47134584e-05
      6.53539901e-05 4.64537879e-05 4.32495035e-05 4.59226467e-05
      4.76308269e-05 4.31084227e-05 1.53749424e-05 1.27805843e-05
      1.95029643e-05 1.13026690e-05 5.29454064e-06 5.20067306e-06
      3.24487119e-05 4.05638384e-05 2.02192241e-05 2.41147627e-05
      5.74624501e-05 7.57302259e-05 9.31890027e-05 1.24987462e-04
      1.20531171e-04 1.13222675e-04 1.36360395e-04 1.46054488e-04
      1.55134781e-04 1.54860070e-04 1.25236911e-04 1.21079080e-04
      1.25744060e-04 1.20971796e-04 1.19415607e-04 1.21505749e-04
      1.10451263e-04 1.28322950e-04 1.43667290e-04 1.25681865e-04
      1.10195411e-04 1.10106717e-04 9.62224731e-05 9.27701258e-05
      7.83117139e-05 8.21736030e-05 6.67394779e-05 5.56210362e-05
      7.06887586e-05 8.10648926e-05 9.44421045e-05 9.30043461e-05
      9.28919180e-05 8.99555016e-05 7.84579461e-05 5.61527850e-05
      5.55346996e-05 5.57991480e-05 5.81038184e-05 4.84171833e-05
      2.52810005e-05 2.24800624e-05 2.44942785e-05 1.29445834e-05
      6.59537773e-06 5.21711945e-06 6.16663092e-05 3.75223790e-05
      2.43449285e-05 3.47589848e-05 6.62588427e-05 8.63938330e-05
      9.63590282e-05 1.20510573e-04 1.17406111e-04 1.20229488e-04
      1.42567485e-04 1.43990575e-04 1.55501461e-04 1.55978327e-04
      1.27971958e-04 1.28398678e-04 1.20041324e-04 1.12960632e-04
      1.17021009e-04 1.19562581e-04 1.11537294e-04 1.36042596e-04
      1.57844217e-04 1.40377917e-04 1.27090723e-04 1.24903643e-04
      1.14225491e-04 1.15367162e-04 1.25509760e-04 1.46401580e-04
      1.47644227e-04 1.31634792e-04 1.36016912e-04 1.40051969e-04
      1.41581826e-04 1.32533969e-04 1.18099662e-04 1.02236190e-04
      9.63084021e-05 7.20185126e-05 6.05693749e-05 5.88671683e-05
      6.19573184e-05 5.23671515e-05 3.37771526e-05 2.35033731e-05
      2.42193491e-05 1.30064946e-05 6.48602168e-07 1.09479333e-06
      7.29396997e-05 6.02825276e-05 6.23978631e-05 6.00098792e-05
      8.41541405e-05 1.08289816e-04 1.17815347e-04 1.31604596e-04
      1.22070676e-04 1.24807935e-04 1.37058785e-04 1.43302692e-04
      1.44563077e-04 1.43902245e-04 1.46505918e-04 1.35208596e-04
      1.22592581e-04 1.09178560e-04 1.11476846e-04 1.21592391e-04
      1.39473617e-04 1.40762291e-04 1.38208881e-04 1.15676252e-04
      1.11449859e-04 1.12709829e-04 1.27378371e-04 1.41051903e-04
      1.51651257e-04 1.60789408e-04 1.53744433e-04 1.40455144e-04
      1.51117478e-04 1.61817501e-04 1.52316570e-04 1.42897974e-04
      1.18413482e-04 1.08322893e-04 9.19663871e-05 7.14581620e-05
      6.75444826e-05 5.97934632e-05 6.12498698e-05 5.09582533e-05
      3.64179505e-05 1.45293261e-05 1.02967360e-05 1.03698158e-05
      -8.78004175e-06 -8.43487305e-06 8.46411858e-05 7.49286119e-05
      8.13790102e-05 7.20590615e-05 9.24874403e-05 1.13061469e-04
      1.20188037e-04 1.34908463e-04 1.22298472e-04 1.25035731e-04
      1.37625510e-04 1.46185746e-04 1.46319158e-04 1.44949750e-04
      1.47442101e-04 1.36618037e-04 1.24886821e-04 1.13078102e-04
      1.16191353e-04 1.27271152e-04 1.44639605e-04 1.44061065e-04
      1.42054167e-04 1.19297438e-04 1.12502355e-04 1.14325310e-04
      1.22319092e-04 1.37398223e-04 1.49721294e-04 1.59225892e-04
      1.51329514e-04 1.36016388e-04 1.38408839e-04 1.48837033e-04
      1.39017982e-04 1.27136926e-04 1.06381762e-04 9.60796679e-05
      7.72826825e-05 5.56700834e-05 4.42754244e-05 3.73026232e-05
      3.98514603e-05 3.02806930e-05 1.24890439e-05 -8.63253172e-06
      -1.00069792e-05 -9.45945794e-06 -1.55327616e-05 -1.73413064e-05</_></support_vectors>
  <uncompressed_sv_total>24</uncompressed_sv_total>
  <uncompressed_support_vectors>
    <_>
      6. 6. 5. 5. 6. 7. 8. 8. 7. 6. 6. 6. 6. 6. 7. 7. 6. 5. 6. 6. 7. 8.
      7. 7. 7. 7. 7. 8. 9. 9. 8. 8. 8. 9. 12. 14. 15. 13. 11. 9. 10. 9.
      9. 8. 7. 7. 7. 8. 9. 9. 6. 6. 5. 5. 6. 7. 7. 7. 7. 6. 6. 6. 6. 6.
      7. 7. 5. 6. 7. 7. 7. 7. 8. 9. 10. 9. 9. 9. 9. 9. 9. 9. 7. 8. 10.
      12. 12. 11. 10. 8. 9. 9. 8. 8. 7. 7. 7. 7. 9. 9. 7. 6. 5. 5. 5. 6.
      6. 6. 7. 6. 6. 6. 6. 6. 6. 6. 5. 6. 7. 7. 6. 7. 8. 9. 8. 8. 7. 7.
      7. 7. 7. 7. 7. 7. 8. 9. 9. 9. 8. 7. 7. 7. 8. 8. 8. 8. 7. 7. 8. 8.
      8. 6. 5. 5. 5. 6. 6. 5. 6. 6. 6. 6. 5. 6. 6. 6. 6. 6. 7. 7. 7. 7.
      7. 7. 4. 5. 6. 7. 8. 8. 8. 8. 9. 9. 9. 8. 7. 7. 7. 7. 6. 6. 7. 8.
      8. 8. 7. 7. 8. 8. 8. 7. 6. 6. 6. 6. 6. 6. 6. 6. 6. 5. 5. 5. 5. 6.
      6. 5. 5. 6. 8. 8. 6. 4. 5. 8. 12. 15. 17. 17. 17. 17. 16. 15. 13.
      10. 8. 7. 7. 8. 6. 6. 7. 8. 8. 8. 8. 7. 7. 7. 8. 7. 6. 6. 6. 7. 7.
      6. 6. 6. 6. 5. 5. 5. 5. 5. 6. 5. 5. 6. 7. 8. 8. 7. 11. 15. 21. 25.
      27. 27. 27. 27. 23. 22. 19. 14. 9. 7. 7. 8. 7. 7. 7. 8. 8. 8. 8.
      8. 6. 6. 7. 6. 6. 5. 6. 6. 6. 6. 6. 6. 5. 5. 5. 5. 5. 5. 5. 6. 6.
      5. 5. 7. 11. 14. 20. 25. 31. 34. 35. 35. 35. 35. 30. 29. 24. 18.
      11. 8. 7. 8. 8. 8. 8. 8. 8. 8. 8. 8. 6. 6. 7. 6. 5. 5. 5. 6. 6. 6.
      6. 6. 5. 5. 5. 4. 4. 5. 4. 6. 7. 5. 3. 6. 13. 21. 30. 34. 38. 41.
      41. 40. 40. 40. 35. 32. 28. 20. 13. 8. 7. 8. 9. 9. 8. 8. 7. 8. 8.
      9. 6. 6. 5. 5. 6. 6. 6. 5. 4. 4. 6. 5. 4. 4. 5. 5. 4. 4. 5. 6. 6.
      5. 5. 10. 20. 27. 36. 39. 42. 43. 43. 42. 41. 42. 38. 34. 28. 20.
      13. 9. 8. 9. 9. 8. 7. 7. 8. 9. 8. 8. 3. 4. 6. 6. 6. 6. 6. 5. 5. 5.
      4. 4. 4. 4. 5. 6. 6. 6. 6. 6. 6. 5. 7. 14. 23. 31. 39. 41. 43. 44.
      44. 43. 43. 43. 40. 37. 30. 22. 15. 10. 9. 9. 9. 8. 7. 8. 9. 9. 8.
      7. 11. 11. 7. 7. 7. 6. 6. 6. 6. 6. 5. 5. 4. 5. 6. 7. 7. 6. 7. 6.
      5. 6. 11. 19. 29. 36. 42. 42. 42. 43. 44. 45. 44. 44. 43. 39. 32.
      24. 17. 12. 10. 9. 8. 8. 8. 8. 9. 9. 8. 7. 6. 5. 9. 8. 8. 7. 7. 7.
      7. 7. 7. 7. 6. 6. 6. 6. 5. 5. 7. 5. 5. 8. 15. 25. 34. 39. 43. 42.
      42. 43. 45. 45. 44. 42. 43. 39. 33. 25. 18. 13. 10. 9. 8. 8. 8. 9.
      9. 9. 8. 8. 11. 11. 10. 9. 8. 8. 7. 7. 7. 8. 9. 8. 7. 6. 6. 6. 5.
      4. 7. 5. 6. 11. 21. 30. 38. 41. 43. 43. 44. 45. 46. 46. 43. 41.
      42. 38. 32. 25. 18. 13. 9. 8. 8. 8. 9. 9. 9. 8. 8. 8. 5. 6. 10.
      10. 9. 8. 8. 8. 7. 7. 7. 6. 6. 6. 7. 7. 6. 6. 7. 7. 11. 18. 27.
      35. 40. 42. 44. 45. 46. 47. 48. 46. 44. 42. 42. 38. 32. 25. 19.
      13. 9. 6. 9. 9. 9. 8. 8. 8. 9. 9. 9. 9. 10. 10. 9. 9. 8. 8. 7. 7.
      6. 5. 5. 6. 7. 7. 7. 7. 8. 11. 17. 25. 34. 40. 43. 44. 44. 46. 47.
      47. 46. 45. 44. 43. 44. 40. 33. 26. 20. 14. 9. 6. 9. 9. 9. 8. 7.
      7. 9. 11. 10. 11. 9. 10. 10. 9. 9. 8. 7. 6. 6. 5. 5. 6. 6. 7. 7.
      6. 9. 14. 21. 31. 39. 44. 45. 45. 44. 45. 46. 46. 44. 43. 43. 44.
      46. 42. 35. 28. 21. 15. 9. 6. 10. 10. 9. 8. 7. 7. 9. 11. 11. 10.
      9. 11. 12. 10. 8. 9. 8. 6. 8. 6. 5. 6. 7. 6. 7. 8. 13. 19. 28. 35.
      40. 42. 44. 44. 43. 42. 41. 42. 43. 42. 42. 43. 43. 41. 37. 30.
      22. 15. 10. 8. 8. 10. 10. 7. 7. 10. 12. 12. 5. 6. 7. 10. 12. 10.
      8. 8. 8. 7. 6. 5. 6. 7. 6. 6. 7. 10. 16. 23. 31. 36. 39. 42. 42.
      40. 41. 38. 36. 38. 40. 41. 42. 43. 42. 41. 37. 31. 23. 16. 11. 8.
      9. 10. 10. 8. 8. 10. 11. 11. 7. 8. 6. 9. 11. 10. 9. 8. 9. 9. 5. 6.
      7. 8. 6. 6. 10. 16. 24. 32. 38. 39. 41. 44. 42. 38. 36. 32. 30.
      33. 38. 41. 42. 43. 41. 40. 37. 31. 24. 17. 12. 9. 9. 10. 11. 9.
      8. 10. 10. 10. 5. 6. 10. 11. 11. 10. 9. 9. 9. 9. 6. 7. 8. 8. 6. 7.
      14. 22. 32. 39. 43. 42. 42. 44. 40. 34. 30. 26. 25. 30. 37. 40.
      42. 42. 40. 39. 36. 31. 24. 17. 12. 9. 9. 10. 10. 10. 9. 10. 10.
      11. 9. 10. 15. 12. 10. 10. 10. 10. 9. 8. 7. 7. 7. 7. 6. 10. 19.
      28. 35. 40. 43. 41. 40. 39. 34. 27. 23. 21. 23. 29. 37. 40. 41.
      40. 39. 38. 36. 31. 24. 17. 12. 9. 8. 9. 9. 10. 10. 10. 11. 12. 8.
      9. 15. 12. 10. 11. 11. 10. 8. 7. 8. 6. 6. 7. 10. 15. 24. 32. 39.
      41. 42. 41. 38. 34. 28. 22. 17. 17. 21. 29. 37. 40. 40. 40. 39.
      39. 36. 31. 24. 17. 12. 9. 8. 8. 9. 10. 10. 10. 11. 13. 4. 5. 9.
      9. 11. 13. 12. 9. 7. 8. 9. 7. 6. 11. 17. 25. 32. 38. 42. 41. 41.
      41. 37. 29. 21. 17. 12. 14. 19. 28. 35. 39. 40. 41. 41. 40. 37.
      32. 26. 18. 13. 10. 10. 9. 9. 10. 10. 9. 11. 14. 9. 9. 2. 6. 12.
      15. 12. 7. 7. 10. 10. 8. 8. 15. 25. 33. 39. 42. 42. 39. 38. 39.
      34. 23. 14. 12. 10. 12. 18. 27. 34. 38. 40. 42. 42. 41. 38. 33.
      27. 19. 14. 10. 11. 9. 9. 10. 10. 9. 11. 14. 11. 11. 5. 6. 9. 11.
      11. 9. 9. 10. 8. 11. 16. 24. 31. 36. 40. 43. 39. 40. 39. 33. 23.
      15. 11. 10. 10. 13. 18. 26. 33. 38. 40. 40. 40. 40. 38. 35. 30.
      23. 15. 11. 10. 10. 10. 9. 8. 8. 10. 12. 11. 11. 15. 9. 8. 12. 13.
      8. 6. 9. 10. 15. 22. 30. 36. 39. 42. 43. 39. 37. 33. 26. 17. 10.
      8. 7. 9. 12. 18. 25. 32. 37. 39. 39. 40. 39. 38. 35. 30. 23. 16.
      11. 10. 11. 11. 10. 9. 9. 10. 12. 12. 12. 20. 8. 4. 11. 14. 9. 7.
      12. 14. 21. 30. 37. 40. 41. 41. 41. 39. 35. 27. 18. 11. 7. 6. 6.
      8. 11. 17. 24. 31. 36. 39. 39. 39. 38. 37. 35. 30. 23. 16. 11. 10.
      11. 12. 11. 10. 10. 11. 12. 13. 12. 19. 9. 5. 10. 13. 10. 10. 14.
      19. 27. 36. 40. 41. 40. 39. 38. 37. 32. 23. 15. 10. 8. 8. 8. 8.
      12. 17. 24. 31. 36. 39. 40. 40. 40. 39. 36. 32. 25. 17. 12. 10.
      11. 12. 11. 10. 10. 12. 13. 13. 11. 19. 14. 11. 11. 11. 10. 12.
      14. 25. 32. 39. 41. 40. 39. 38. 36. 33. 28. 21. 15. 12. 11. 11.
      12. 11. 15. 20. 26. 32. 36. 39. 41. 43. 42. 41. 39. 35. 28. 21.
      16. 13. 13. 13. 12. 11. 11. 13. 15. 13. 9. 17. 16. 14. 12. 12. 13.
      18. 21. 30. 36. 41. 41. 40. 40. 39. 36. 28. 25. 21. 18. 17. 17.
      17. 18. 18. 22. 26. 31. 35. 38. 40. 42. 42. 42. 41. 39. 35. 29.
      23. 19. 18. 18. 18. 16. 14. 13. 14. 16. 13. 8. 19. 15. 12. 13. 14.
      15. 21. 29. 32. 37. 40. 39. 40. 41. 40. 36. 30. 29. 27. 26. 25.
      25. 27. 28. 28. 30. 34. 37. 38. 40. 42. 43. 41. 41. 40. 38. 36.
      31. 26. 23. 25. 25. 25. 22. 19. 17. 16. 16. 14. 8. 25. 15. 10. 13.
      14. 11. 18. 29. 31. 36. 38. 38. 39. 41. 40. 36. 34. 35. 34. 33.
      33. 33. 35. 37. 34. 36. 39. 41. 41. 42. 43. 44. 43. 43. 42. 41.
      39. 36. 32. 29. 29. 30. 30. 28. 24. 19. 16. 15. 15. 9. 11. 9. 9.
      11. 14. 17. 21. 26. 31. 34. 38. 39. 39. 38. 38. 39. 41. 41. 40.
      40. 40. 40. 41. 41. 39. 39. 41. 42. 43. 44. 45. 45. 45. 45. 44.
      42. 41. 40. 40. 40. 39. 36. 33. 31. 27. 22. 18. 17. 14. 12. 10. 8.
      8. 10. 13. 17. 22. 26. 29. 32. 35. 37. 37. 38. 39. 41. 41. 41. 40.
      39. 39. 39. 39. 39. 38. 38. 39. 40. 41. 41. 42. 42. 45. 45. 45.
      44. 43. 42. 42. 42. 41. 38. 35. 33. 29. 23. 19. 17. 14. 12. 9. 7.
      7. 9. 12. 16. 20. 24. 28. 30. 32. 34. 34. 35. 38. 39. 38. 38. 37.
      37. 37. 37. 38. 38. 38. 38. 39. 39. 40. 41. 41. 42. 43. 44. 44.
      44. 44. 43. 43. 43. 40. 38. 36. 33. 27. 21. 17. 16. 15. 13. 10. 8.
      7. 9. 11. 13. 17. 20. 25. 26. 28. 29. 29. 29. 30. 31. 30. 30. 30.
      31. 31. 32. 34. 34. 34. 34. 34. 36. 37. 39. 41. 42. 42. 42. 43.
      43. 43. 42. 41. 40. 37. 34. 31. 28. 22. 15. 12. 13. 14. 13. 11. 9.
      8. 9. 9. 10. 12. 14. 17. 18. 20. 20. 20. 20. 19. 19. 20. 20. 20.
      21. 22. 23. 24. 25. 22. 23. 24. 26. 30. 34. 37. 39. 42. 42. 42.
      43. 42. 41. 38. 35. 32. 29. 24. 20. 15. 10. 9. 10. 9. 9. 11. 9. 8.
      9. 9. 8. 8. 10. 8. 9. 10. 11. 12. 12. 11. 10. 12. 12. 12. 12. 12.
      13. 13. 14. 13. 13. 15. 19. 24. 29. 34. 37. 42. 42. 42. 42. 42.
      39. 34. 31. 27. 22. 17. 13. 11. 9. 8. 9. 8. 8. 9. 8. 8. 9. 9. 7.
      6. 7. 6. 6. 6. 6. 7. 8. 7. 7. 8. 8. 7. 7. 7. 8. 8. 9. 8. 9. 11.
      15. 21. 27. 33. 37. 41. 40. 40. 41. 40. 36. 31. 27. 21. 16. 10. 9.
      9. 8. 8. 8. 8. 8. 7. 6. 7. 9. 9. 7. 6. 7. 8. 7. 6. 5. 6. 7. 7. 7.
      6. 6. 6. 6. 7. 8. 9. 10. 6. 7. 9. 13. 19. 25. 31. 35. 38. 38. 38.
      39. 38. 34. 28. 23. 17. 11. 6. 6. 8. 8. 7. 7. 7. 8. 7. 7. 6. 6. 6.
      6. 5. 5. 7. 7. 7. 8. 7. 7. 6. 6. 6. 7. 7. 7. 6. 6. 7. 8. 10. 8. 7.
      10. 18. 26. 32. 35. 37. 40. 40. 38. 38. 37. 29. 20. 15. 9. 6. 9.
      10. 8. 7. 8. 8. 8. 6. 6. 6. 6. 6. 6. 6. 6. 6. 6. 6. 5. 5. 6. 6. 6.
      6. 7. 7. 7. 6. 6. 7. 8. 8. 7. 7. 10. 16. 24. 30. 33. 36. 38. 38.
      36. 36. 35. 28. 20. 16. 10. 7. 9. 10. 8. 7. 8. 7. 7. 6. 6. 6. 6.
      7. 7. 7. 7. 5. 5. 4. 4. 4. 5. 6. 7. 6. 7. 7. 6. 6. 6. 7. 8. 7. 7.
      8. 10. 15. 22. 28. 31. 35. 37. 36. 34. 34. 33. 27. 20. 15. 10. 7.
      8. 9. 8. 7. 8. 7. 7. 6. 6. 6. 7. 7. 7. 7. 7. 6. 5. 5. 4. 4. 5. 6.
      6. 6. 6. 7. 6. 6. 6. 6. 7. 8. 8. 9. 11. 15. 20. 27. 31. 35. 36.
      35. 33. 32. 30. 24. 18. 13. 8. 6. 7. 8. 7. 7. 9. 7. 7. 6. 6. 6. 6.
      7. 7. 7. 7. 6. 7. 7. 7. 6. 6. 6. 6. 6. 6. 6. 6. 5. 5. 6. 7. 8. 8.
      8. 9. 12. 18. 24. 28. 31. 31. 31. 30. 28. 24. 18. 13. 9. 7. 5. 5.
      7. 7. 8. 8. 8. 8. 6. 6. 6. 6. 6. 6. 6. 6. 7. 7. 7. 7. 7. 6. 6. 5.
      6. 6. 6. 6. 5. 5. 6. 6. 7. 6. 5. 6. 9. 13. 18. 21. 23. 23. 23. 22.
      20. 16. 11. 8. 8. 6. 5. 6. 6. 7. 7. 8. 8. 8. 6. 6. 6. 6. 6. 5. 5.
      5. 6. 6. 6. 6. 5. 6. 6. 6. 6. 6. 6. 6. 5. 5. 5. 6. 6. 5. 4. 5. 7.
      10. 12. 12. 14. 13. 13. 13. 12. 10. 8. 7. 8. 8. 7. 7. 7. 7. 7. 7.
      8. 8. 6. 6. 6. 5. 5. 5. 5. 5. 5. 4. 4. 3. 4. 4. 6. 6. 6. 6. 6. 6.
      5. 5. 5. 6. 7. 5. 4. 5. 7. 9. 8. 6. 9. 8. 7. 7. 7. 7. 7. 8. 9. 9.
      9. 8. 8. 8. 7. 6. 8. 8. 7. 6. 6. 6. 5. 5. 6. 6. 6. 6. 6. 7. 7. 6.
      6. 6. 6. 6. 6. 6. 6. 6. 5. 5. 6. 7. 7. 7. 7. 7. 7. 7. 6. 6. 6. 7.
      7. 7. 8. 8. 8. 8. 7. 6. 6. 6. 6. 6. 8. 8. 7. 6. 6. 6. 5. 5. 6. 6.
      6. 6. 6. 7. 7. 6. 6. 6. 6. 6. 6. 6. 6. 6. 5. 5. 6. 6. 7. 7. 7. 7.
      7. 7. 6. 6. 6. 7. 7. 7. 8. 8. 8. 8. 7. 6. 6. 6. 6. 6. 8. 8.</_>
    <_>
      8. 8. 8. 8. 9. 8. 7. 6. 5. 6. 6. 6. 7. 6. 6. 6. 5. 6. 7. 7. 7. 7.
      7. 8. 6. 8. 9. 8. 7. 8. 8. 7. 5. 5. 5. 4. 4. 4. 5. 6. 6. 5. 5. 6.
      8. 9. 8. 6. 8. 8. 8. 8. 8. 8. 9. 8. 7. 6. 5. 6. 6. 6. 7. 6. 6. 6.
      6. 7. 8. 8. 8. 7. 7. 7. 5. 6. 4. 2. 1. 4. 6. 7. 8. 8. 8. 7. 6. 6.
      6. 7. 7. 7. 7. 7. 8. 9. 8. 7. 8. 8. 8. 8. 8. 8. 9. 8. 7. 6. 5. 6.
      6. 6. 7. 6. 6. 6. 7. 7. 8. 8. 8. 7. 7. 7. 8. 9. 9. 8. 9. 13. 17.
      19. 20. 20. 19. 18. 16. 14. 13. 12. 10. 9. 9. 9. 9. 9. 8. 8. 9. 9.
      8. 8. 8. 8. 9. 8. 7. 6. 5. 6. 6. 6. 7. 6. 6. 6. 7. 7. 7. 7. 7. 8.
      9. 10. 14. 18. 23. 27. 31. 36. 39. 40. 36. 35. 33. 30. 27. 23. 20.
      17. 12. 11. 11. 9. 8. 8. 8. 9. 8. 8. 8. 8. 8. 8. 9. 8. 7. 6. 5. 6.
      6. 6. 7. 6. 6. 6. 8. 7. 6. 6. 7. 9. 13. 16. 21. 27. 33. 39. 44.
      48. 50. 50. 42. 41. 38. 35. 32. 27. 22. 19. 13. 12. 10. 9. 8. 8.
      8. 8. 8. 8. 8. 8. 8. 8. 9. 8. 7. 6. 5. 6. 6. 6. 7. 6. 6. 6. 8. 7.
      6. 6. 9. 13. 18. 22. 27. 31. 35. 38. 41. 45. 46. 46. 42. 40. 38.
      35. 33. 29. 24. 21. 15. 13. 9. 8. 8. 9. 8. 8. 8. 8. 8. 8. 8. 8. 9.
      8. 7. 6. 5. 6. 6. 6. 7. 6. 6. 6. 8. 8. 8. 10. 12. 17. 22. 26. 31.
      35. 38. 39. 40. 42. 43. 42. 42. 40. 37. 35. 33. 30. 26. 22. 17.
      13. 9. 7. 9. 10. 9. 8. 9. 9. 8. 8. 8. 8. 9. 8. 7. 6. 5. 6. 6. 6.
      7. 6. 6. 6. 8. 9. 10. 12. 16. 20. 25. 28. 34. 38. 42. 44. 45. 46.
      45. 43. 43. 40. 37. 35. 33. 30. 25. 22. 18. 13. 8. 7. 10. 11. 10.
      8. 10. 10. 7. 8. 9. 9. 8. 7. 5. 4. 6. 7. 8. 8. 7. 7. 7. 7. 9. 7.
      9. 16. 20. 22. 27. 32. 36. 40. 44. 46. 46. 47. 46. 44. 43. 41. 38.
      35. 32. 28. 24. 21. 16. 13. 10. 11. 11. 9. 7. 6. 8. 9. 7. 7. 7. 8.
      7. 7. 6. 6. 6. 7. 7. 7. 7. 7. 8. 8. 9. 8. 10. 17. 21. 24. 28. 34.
      38. 41. 45. 46. 46. 47. 45. 44. 44. 42. 39. 36. 33. 29. 25. 22.
      17. 13. 10. 10. 10. 9. 8. 8. 7. 8. 8. 8. 7. 7. 7. 7. 7. 7. 7. 6.
      6. 6. 7. 8. 8. 8. 10. 9. 13. 19. 24. 26. 31. 36. 40. 43. 46. 47.
      47. 47. 46. 44. 45. 43. 40. 37. 34. 30. 26. 23. 18. 14. 10. 9. 9.
      9. 8. 9. 9. 10. 9. 9. 8. 8. 8. 7. 7. 7. 7. 6. 5. 5. 7. 8. 8. 8.
      11. 12. 16. 22. 27. 30. 35. 39. 43. 46. 48. 48. 47. 47. 46. 45.
      46. 44. 40. 37. 34. 31. 26. 23. 18. 14. 10. 10. 10. 9. 9. 9. 11.
      12. 8. 8. 9. 10. 10. 9. 8. 7. 8. 6. 5. 5. 6. 7. 8. 8. 14. 16. 21.
      27. 30. 33. 38. 42. 45. 48. 49. 48. 48. 48. 48. 46. 46. 43. 40.
      37. 34. 30. 26. 23. 18. 14. 11. 11. 11. 10. 9. 9. 10. 9. 6. 7. 9.
      10. 10. 10. 9. 8. 7. 7. 6. 6. 5. 7. 9. 11. 17. 21. 26. 31. 34. 37.
      41. 44. 46. 48. 49. 48. 48. 48. 48. 47. 46. 43. 40. 37. 34. 30.
      26. 23. 18. 14. 11. 11. 12. 11. 10. 10. 9. 8. 7. 8. 8. 9. 9. 8. 7.
      7. 7. 8. 8. 7. 6. 8. 12. 15. 21. 25. 31. 34. 36. 39. 42. 45. 45.
      47. 48. 47. 47. 47. 47. 46. 46. 44. 40. 37. 34. 31. 26. 23. 19.
      14. 11. 10. 11. 11. 10. 11. 10. 8. 10. 9. 9. 7. 6. 5. 5. 4. 6. 8.
      9. 8. 7. 9. 14. 19. 23. 28. 33. 36. 38. 40. 43. 45. 45. 47. 47.
      46. 46. 47. 47. 46. 46. 44. 41. 38. 35. 31. 27. 24. 20. 15. 10.
      10. 10. 11. 11. 12. 10. 8. 7. 7. 7. 8. 10. 9. 7. 5. 6. 8. 8. 8. 8.
      12. 18. 22. 27. 31. 36. 39. 41. 41. 41. 42. 44. 44. 44. 45. 45.
      44. 44. 44. 44. 43. 41. 38. 34. 29. 26. 23. 20. 16. 12. 12. 13.
      13. 11. 11. 11. 9. 13. 12. 10. 9. 9. 9. 9. 9. 7. 8. 10. 10. 11.
      15. 22. 27. 31. 34. 37. 39. 40. 40. 41. 42. 41. 42. 42. 42. 42.
      43. 43. 43. 42. 42. 40. 37. 33. 28. 24. 22. 20. 16. 12. 12. 13.
      13. 12. 11. 13. 10. 13. 12. 11. 10. 9. 9. 9. 10. 7. 9. 11. 13. 15.
      20. 26. 31. 35. 37. 39. 39. 39. 39. 40. 41. 39. 39. 39. 39. 40.
      41. 42. 42. 42. 41. 40. 37. 33. 29. 24. 22. 20. 16. 12. 13. 13.
      13. 12. 12. 13. 11. 8. 10. 11. 11. 9. 8. 8. 9. 7. 9. 12. 15. 18.
      23. 29. 33. 37. 39. 40. 39. 38. 37. 38. 39. 38. 38. 38. 38. 38.
      40. 41. 42. 42. 42. 41. 39. 35. 30. 25. 23. 19. 15. 13. 13. 13.
      12. 12. 12. 12. 9. 10. 11. 12. 12. 10. 8. 8. 9. 8. 11. 15. 19. 22.
      27. 31. 34. 37. 39. 40. 39. 37. 35. 35. 35. 36. 35. 35. 36. 36.
      38. 39. 40. 41. 41. 40. 38. 35. 30. 26. 23. 19. 15. 13. 13. 13.
      12. 12. 12. 11. 9. 18. 17. 15. 12. 10. 9. 10. 11. 11. 14. 19. 24.
      29. 32. 35. 36. 37. 38. 38. 37. 34. 32. 31. 31. 31. 32. 32. 33.
      34. 36. 37. 38. 40. 40. 39. 37. 33. 29. 25. 23. 18. 15. 13. 13.
      13. 12. 12. 13. 12. 10. 21. 18. 15. 12. 11. 10. 10. 10. 13. 17.
      23. 29. 33. 36. 37. 38. 38. 38. 37. 34. 30. 27. 26. 27. 28. 29.
      30. 32. 34. 36. 38. 39. 40. 40. 39. 36. 33. 29. 25. 23. 18. 15.
      13. 13. 13. 12. 12. 13. 12. 10. 17. 15. 13. 12. 12. 10. 8. 6. 13.
      17. 24. 31. 36. 38. 38. 38. 39. 38. 35. 31. 27. 24. 24. 24. 27.
      28. 30. 33. 35. 38. 40. 40. 41. 41. 39. 37. 33. 30. 26. 25. 18.
      15. 13. 13. 13. 11. 12. 14. 12. 10. 16. 13. 14. 14. 10. 10. 13.
      13. 17. 23. 30. 34. 38. 40. 40. 38. 38. 37. 34. 30. 26. 23. 21.
      21. 21. 24. 28. 32. 35. 37. 38. 39. 41. 40. 39. 37. 36. 32. 28.
      24. 18. 19. 17. 13. 11. 12. 13. 12. 12. 7. 16. 13. 15. 16. 13. 14.
      18. 19. 24. 29. 34. 37. 38. 39. 38. 36. 35. 33. 30. 25. 21. 19.
      18. 18. 19. 22. 26. 30. 33. 36. 39. 41. 40. 39. 37. 36. 34. 31.
      26. 23. 19. 19. 16. 13. 12. 14. 15. 14. 13. 7. 13. 11. 14. 16. 15.
      17. 22. 24. 29. 33. 37. 38. 38. 38. 37. 34. 32. 29. 24. 19. 15.
      13. 14. 15. 19. 22. 25. 29. 33. 37. 40. 42. 41. 39. 38. 36. 34.
      31. 27. 24. 19. 17. 14. 11. 12. 14. 15. 14. 11. 6. 13. 10. 14. 17.
      17. 20. 27. 29. 32. 36. 39. 40. 39. 39. 36. 34. 31. 27. 22. 16.
      12. 11. 13. 15. 20. 22. 26. 30. 34. 37. 40. 42. 42. 40. 39. 37.
      35. 32. 28. 25. 20. 17. 13. 11. 12. 15. 15. 15. 9. 4. 15. 13. 17.
      21. 22. 25. 32. 34. 36. 40. 42. 42. 41. 38. 35. 32. 28. 25. 20.
      14. 10. 10. 12. 14. 19. 22. 26. 30. 34. 37. 39. 40. 41. 39. 37.
      36. 34. 32. 28. 25. 21. 17. 13. 12. 13. 15. 15. 15. 9. 4. 15. 14.
      18. 23. 24. 27. 34. 36. 39. 42. 43. 41. 38. 35. 31. 27. 24. 21.
      18. 14. 11. 11. 13. 15. 20. 23. 27. 32. 35. 37. 38. 39. 39. 38.
      36. 35. 34. 31. 28. 25. 22. 18. 14. 13. 13. 13. 14. 15. 14. 9. 14.
      13. 19. 24. 25. 28. 34. 36. 40. 42. 42. 40. 37. 35. 32. 30. 27.
      26. 25. 23. 22. 22. 24. 25. 30. 32. 35. 37. 39. 40. 41. 42. 42.
      41. 39. 38. 37. 35. 33. 30. 28. 24. 21. 20. 18. 17. 17. 19. 20.
      15. 15. 15. 21. 27. 28. 31. 36. 38. 41. 42. 43. 41. 40. 40. 40.
      39. 36. 37. 37. 37. 37. 38. 39. 40. 42. 43. 44. 44. 44. 44. 45.
      46. 47. 45. 44. 43. 42. 41. 38. 36. 36. 34. 31. 30. 27. 24. 25.
      27. 25. 18. 21. 24. 27. 28. 28. 31. 36. 41. 44. 45. 46. 44. 42.
      42. 43. 45. 45. 47. 50. 52. 52. 51. 51. 50. 50. 48. 47. 48. 47.
      45. 44. 45. 46. 47. 47. 46. 44. 44. 45. 46. 48. 41. 36. 37. 36.
      31. 27. 27. 29. 16. 17. 22. 28. 31. 31. 31. 34. 37. 37. 40. 44.
      46. 47. 47. 48. 49. 45. 46. 48. 50. 51. 52. 52. 52. 48. 47. 48.
      50. 50. 48. 47. 48. 46. 47. 48. 48. 46. 45. 45. 46. 46. 40. 37.
      38. 37. 32. 29. 28. 25. 14. 14. 20. 27. 30. 30. 30. 33. 36. 41.
      42. 43. 44. 43. 44. 46. 47. 46. 44. 43. 43. 44. 45. 45. 45. 46.
      47. 48. 50. 50. 49. 47. 48. 46. 48. 49. 50. 49. 47. 46. 46. 44.
      40. 37. 38. 37. 33. 29. 28. 24. 17. 15. 19. 24. 26. 26. 29. 34.
      39. 47. 48. 49. 48. 47. 45. 43. 43. 51. 49. 46. 46. 47. 48. 48.
      47. 46. 46. 47. 48. 48. 47. 46. 46. 46. 47. 48. 49. 49. 48. 47.
      46. 45. 41. 39. 39. 37. 32. 28. 26. 25. 20. 16. 18. 21. 22. 22.
      25. 30. 35. 36. 39. 45. 48. 48. 45. 41. 38. 41. 40. 38. 40. 43.
      45. 45. 44. 42. 43. 43. 43. 44. 45. 46. 46. 46. 46. 46. 46. 46.
      46. 45. 44. 43. 40. 38. 36. 33. 28. 24. 22. 20. 17. 12. 13. 15.
      15. 15. 16. 18. 19. 16. 17. 19. 22. 23. 25. 25. 25. 22. 21. 20.
      21. 23. 25. 25. 25. 30. 31. 32. 33. 36. 40. 43. 43. 45. 44. 43.
      43. 42. 41. 40. 39. 34. 32. 29. 26. 22. 18. 15. 13. 14. 12. 10. 9.
      9. 9. 9. 9. 8. 7. 6. 4. 2. 1. 2. 5. 8. 9. 11. 11. 10. 10. 10. 11.
      12. 12. 18. 21. 24. 26. 30. 36. 40. 40. 43. 42. 41. 40. 39. 37.
      33. 31. 25. 23. 20. 16. 12. 10. 9. 7. 10. 9. 13. 10. 8. 7. 8. 9.
      8. 7. 4. 5. 7. 8. 8. 7. 5. 3. 2. 2. 2. 2. 2. 4. 7. 9. 15. 19. 22.
      26. 30. 37. 40. 40. 42. 41. 40. 39. 37. 33. 28. 25. 23. 21. 17.
      13. 11. 10. 9. 9. 8. 6. 10. 10. 9. 9. 8. 8. 8. 8. 8. 8. 8. 8. 8.
      7. 7. 7. 6. 6. 8. 11. 11. 9. 9. 10. 15. 17. 21. 25. 29. 33. 37.
      39. 40. 40. 40. 38. 34. 31. 28. 27. 25. 22. 17. 13. 11. 10. 9. 9.
      9. 9. 9. 8. 8. 8. 8. 8. 8. 8. 8. 8. 8. 8. 8. 8. 7. 7. 8. 7. 8. 9.
      9. 8. 9. 10. 16. 18. 21. 25. 28. 31. 35. 37. 38. 39. 39. 37. 34.
      30. 27. 25. 23. 20. 15. 12. 10. 10. 10. 10. 10. 10. 7. 7. 7. 7. 7.
      7. 8. 8. 8. 8. 8. 8. 8. 8. 8. 8. 9. 8. 7. 8. 7. 7. 8. 11. 14. 16.
      20. 24. 28. 32. 35. 38. 37. 38. 39. 38. 35. 31. 27. 25. 20. 18.
      14. 11. 10. 10. 10. 10. 8. 8. 7. 7. 7. 7. 7. 7. 8. 8. 8. 8. 8. 8.
      8. 8. 9. 9. 9. 7. 7. 8. 7. 6. 8. 10. 12. 15. 19. 23. 27. 30. 33.
      35. 35. 36. 38. 38. 36. 32. 28. 26. 20. 18. 14. 12. 10. 10. 10.
      10. 6. 6. 8. 8. 8. 8. 7. 8. 8. 8. 8. 8. 8. 8. 8. 8. 8. 9. 7. 6. 7.
      8. 8. 7. 8. 10. 13. 15. 18. 22. 24. 27. 29. 30. 35. 36. 38. 37.
      34. 30. 27. 25. 21. 19. 15. 12. 11. 10. 9. 9. 8. 8. 9. 9. 8. 8. 8.
      8. 8. 8. 9. 8. 8. 7. 7. 7. 8. 8. 5. 5. 7. 8. 8. 7. 7. 9. 11. 13.
      17. 21. 25. 28. 30. 32. 36. 36. 37. 35. 32. 28. 25. 23. 19. 17.
      14. 11. 10. 9. 9. 8. 9. 9. 8. 8. 8. 8. 8. 8. 9. 9. 9. 8. 7. 6. 6.
      6. 7. 7. 6. 6. 7. 8. 8. 6. 6. 8. 7. 9. 14. 18. 22. 24. 27. 28. 29.
      29. 28. 27. 24. 21. 19. 18. 14. 12. 10. 9. 8. 8. 8. 8. 8. 8. 7. 7.
      7. 8. 8. 9. 9. 9. 9. 8. 7. 6. 5. 5. 6. 6. 7. 6. 7. 7. 7. 5. 6. 7.
      5. 7. 10. 12. 14. 14. 15. 16. 17. 17. 16. 15. 13. 11. 11. 11. 10.
      8. 7. 6. 7. 8. 8. 8. 8. 8. 8. 7. 7. 6. 6. 6. 7. 7. 8. 7. 6. 6. 6.
      7. 7. 7. 7. 7. 7. 6. 6. 6. 7. 9. 8. 7. 6. 7. 6. 5. 6. 8. 7. 7. 7.
      7. 6. 6. 6. 7. 6. 7. 8. 8. 7. 8. 8. 9. 8. 8. 8. 7. 7. 6. 6. 6. 7.
      7. 8. 7. 6. 6. 6. 7. 7. 7. 7. 7. 7. 6. 6. 6. 7. 9. 7. 6. 6. 6. 5.
      4. 5. 7. 7. 7. 7. 7. 6. 6. 6. 7. 6. 7. 8. 8. 7. 8. 8. 9. 8. 8.</_>
    <_>
      7. 8. 9. 10. 9. 9. 9. 9. 9. 9. 9. 9. 9. 9. 8. 8. 8. 8. 8. 9. 10.
      10. 8. 7. 6. 7. 8. 8. 6. 5. 5. 6. 5. 7. 8. 7. 7. 7. 6. 4. 6. 6. 6.
      6. 6. 6. 7. 8. 7. 7. 8. 9. 10. 10. 9. 8. 8. 8. 9. 9. 9. 9. 8. 8.
      8. 8. 8. 7. 8. 9. 10. 10. 8. 7. 6. 7. 9. 9. 8. 8. 9. 10. 10. 11.
      11. 9. 8. 9. 8. 7. 7. 7. 7. 7. 7. 7. 8. 8. 6. 6. 9. 10. 10. 10. 9.
      8. 7. 7. 8. 8. 8. 8. 8. 8. 8. 8. 7. 7. 7. 8. 9. 9. 8. 7. 7. 8. 10.
      10. 10. 10. 11. 13. 13. 14. 13. 11. 11. 12. 12. 11. 9. 9. 9. 8. 8.
      8. 8. 8. 6. 6. 10. 11. 11. 10. 9. 7. 6. 6. 7. 7. 7. 8. 8. 8. 8. 8.
      7. 7. 7. 8. 8. 8. 8. 8. 8. 9. 11. 11. 11. 11. 13. 15. 15. 16. 17.
      16. 16. 17. 16. 15. 12. 11. 11. 10. 10. 9. 8. 8. 6. 6. 10. 11. 11.
      10. 9. 7. 6. 6. 7. 7. 7. 7. 7. 8. 8. 8. 6. 7. 7. 8. 8. 8. 8. 8. 9.
      10. 12. 13. 14. 16. 19. 21. 22. 25. 27. 27. 26. 25. 23. 20. 16.
      15. 13. 12. 11. 10. 9. 8. 7. 7. 9. 10. 10. 10. 9. 8. 7. 7. 8. 8.
      8. 8. 8. 7. 7. 7. 6. 7. 8. 8. 8. 8. 9. 9. 10. 12. 15. 17. 20. 24.
      29. 32. 35. 38. 41. 41. 39. 36. 31. 26. 22. 19. 16. 14. 13. 12.
      10. 8. 8. 8. 8. 9. 10. 10. 9. 8. 8. 8. 9. 9. 8. 8. 8. 7. 7. 7. 7.
      8. 8. 8. 8. 8. 9. 10. 12. 14. 17. 21. 25. 30. 36. 41. 44. 48. 50.
      49. 47. 43. 37. 31. 26. 23. 18. 15. 14. 12. 10. 9. 10. 10. 7. 8.
      9. 10. 9. 9. 9. 9. 10. 9. 9. 8. 8. 7. 7. 7. 7. 8. 9. 8. 8. 8. 9.
      11. 14. 16. 19. 23. 27. 33. 39. 43. 47. 50. 52. 51. 49. 45. 39.
      34. 29. 25. 20. 16. 14. 13. 11. 9. 11. 11. 9. 8. 8. 9. 10. 11. 10.
      9. 5. 5. 6. 7. 8. 8. 7. 7. 8. 8. 8. 8. 8. 9. 10. 12. 13. 17. 23.
      29. 34. 39. 43. 45. 47. 48. 48. 46. 44. 42. 37. 33. 30. 25. 20.
      16. 14. 12. 12. 13. 12. 12. 7. 6. 6. 6. 8. 9. 10. 9. 7. 8. 9. 9.
      8. 7. 7. 7. 7. 7. 7. 6. 7. 9. 11. 13. 19. 22. 28. 34. 38. 42. 45.
      46. 44. 46. 46. 45. 44. 42. 39. 35. 29. 24. 19. 16. 13. 12. 12.
      13. 13. 13. 7. 7. 8. 10. 11. 10. 9. 8. 7. 9. 10. 10. 9. 8. 8. 8.
      8. 7. 7. 7. 8. 11. 16. 18. 25. 28. 33. 38. 42. 44. 46. 47. 43. 45.
      46. 45. 44. 43. 39. 35. 28. 23. 18. 16. 13. 12. 12. 13. 13. 13. 8.
      10. 12. 14. 14. 11. 7. 4. 6. 8. 10. 10. 9. 8. 9. 10. 9. 9. 9. 9.
      11. 16. 21. 25. 28. 31. 36. 41. 43. 45. 45. 46. 45. 47. 47. 45.
      44. 42. 37. 33. 27. 23. 18. 16. 13. 11. 11. 12. 13. 12. 9. 10. 12.
      13. 12. 9. 6. 4. 6. 7. 9. 9. 8. 8. 9. 10. 8. 8. 8. 10. 13. 18. 24.
      28. 31. 34. 38. 42. 44. 45. 45. 45. 47. 48. 48. 46. 44. 41. 36.
      32. 27. 23. 18. 16. 13. 11. 11. 12. 13. 13. 10. 10. 10. 10. 9. 9.
      10. 11. 8. 8. 8. 8. 8. 8. 8. 7. 6. 7. 8. 10. 14. 19. 25. 29. 34.
      37. 41. 44. 46. 46. 46. 46. 46. 47. 47. 45. 43. 41. 36. 32. 27.
      23. 19. 16. 14. 12. 11. 12. 13. 13. 8. 9. 9. 9. 9. 10. 13. 14. 10.
      8. 7. 7. 8. 9. 8. 7. 7. 8. 10. 13. 18. 23. 28. 31. 38. 40. 43. 45.
      46. 46. 46. 46. 46. 47. 46. 44. 42. 39. 35. 30. 26. 22. 18. 17.
      15. 13. 13. 14. 12. 12. 3. 5. 8. 10. 10. 10. 10. 10. 9. 7. 5. 7.
      9. 11. 10. 8. 10. 12. 15. 18. 23. 28. 32. 35. 40. 41. 44. 45. 45.
      45. 45. 46. 46. 47. 46. 44. 41. 38. 33. 28. 24. 21. 18. 17. 16.
      14. 15. 16. 10. 10. 13. 15. 8. 12. 6. 8. 8. 10. 11. 9. 8. 8. 9. 8.
      10. 12. 13. 16. 20. 24. 29. 33. 37. 39. 42. 42. 43. 43. 44. 44.
      46. 47. 48. 48. 47. 44. 41. 38. 32. 27. 22. 19. 16. 15. 15. 16.
      16. 16. 14. 10. 19. 14. 5. 11. 8. 11. 9. 9. 11. 9. 9. 10. 10. 10.
      11. 13. 16. 19. 24. 29. 33. 37. 39. 40. 41. 41. 42. 43. 43. 44.
      45. 46. 47. 47. 46. 43. 40. 38. 32. 27. 22. 19. 16. 14. 15. 16.
      16. 16. 12. 9. 30. 16. 5. 10. 10. 14. 10. 8. 10. 9. 9. 11. 12. 12.
      13. 15. 20. 24. 30. 35. 38. 39. 40. 40. 39. 40. 41. 41. 42. 43.
      44. 45. 46. 46. 44. 42. 39. 37. 33. 28. 23. 19. 15. 13. 14. 15.
      16. 15. 10. 7. 44. 18. 7. 10. 11. 14. 10. 9. 10. 9. 9. 11. 13. 14.
      16. 19. 25. 28. 33. 37. 38. 38. 38. 37. 38. 38. 39. 40. 41. 42.
      44. 45. 45. 45. 43. 40. 38. 36. 32. 28. 23. 19. 15. 13. 14. 15.
      15. 14. 9. 8. 52. 17. 7. 9. 11. 12. 11. 12. 11. 9. 9. 11. 14. 16.
      20. 23. 29. 31. 35. 37. 38. 38. 37. 36. 35. 36. 38. 39. 40. 41.
      43. 44. 44. 43. 42. 39. 37. 36. 32. 28. 23. 19. 15. 13. 14. 15.
      14. 12. 11. 11. 54. 11. 6. 8. 11. 12. 11. 14. 12. 10. 10. 13. 16.
      19. 24. 28. 31. 33. 35. 37. 38. 37. 37. 36. 33. 34. 35. 36. 37.
      39. 41. 42. 42. 42. 41. 39. 37. 35. 31. 26. 22. 18. 15. 14. 16.
      16. 13. 10. 8. 10. 56. 8. 5. 9. 15. 14. 12. 13. 12. 11. 13. 17.
      21. 23. 27. 31. 32. 34. 36. 38. 37. 35. 34. 33. 30. 31. 32. 33.
      35. 36. 38. 40. 41. 42. 41. 38. 37. 34. 30. 25. 20. 17. 15. 15.
      17. 16. 12. 7. 5. 8. 59. 7. 6. 11. 19. 17. 12. 11. 12. 12. 15. 20.
      24. 26. 29. 32. 33. 35. 37. 37. 36. 32. 29. 27. 27. 29. 30. 31.
      33. 35. 37. 38. 41. 41. 41. 38. 37. 34. 29. 24. 19. 17. 15. 16.
      18. 17. 11. 6. 6. 9. 52. 24. 4. 11. 12. 7. 11. 15. 15. 17. 21. 25.
      28. 31. 33. 35. 37. 38. 37. 34. 32. 30. 25. 20. 23. 25. 27. 29.
      32. 35. 38. 41. 40. 41. 40. 38. 35. 32. 27. 23. 19. 15. 16. 17.
      14. 12. 11. 6. 5. 18. 45. 21. 10. 6. 10. 17. 22. 15. 18. 21. 25.
      29. 33. 35. 37. 38. 37. 37. 35. 32. 30. 28. 24. 20. 21. 23. 25.
      28. 31. 34. 38. 40. 40. 41. 40. 38. 35. 32. 28. 23. 19. 15. 16.
      16. 14. 13. 12. 7. 6. 13. 58. 21. 16. 5. 11. 21. 25. 16. 21. 24.
      29. 33. 36. 37. 37. 38. 36. 35. 32. 29. 26. 24. 21. 19. 19. 21.
      24. 28. 31. 35. 38. 40. 39. 40. 39. 37. 34. 31. 27. 23. 20. 16.
      15. 15. 12. 13. 12. 8. 7. 11. 80. 20. 15. 8. 16. 18. 23. 22. 24.
      27. 33. 36. 38. 38. 37. 36. 35. 33. 30. 26. 23. 21. 19. 18. 19.
      21. 25. 29. 33. 37. 39. 41. 39. 39. 38. 36. 33. 30. 26. 21. 20.
      16. 14. 13. 11. 13. 13. 8. 1. 9. 79. 15. 10. 11. 22. 21. 26. 28.
      30. 33. 37. 40. 40. 39. 36. 35. 34. 31. 28. 24. 21. 18. 17. 18.
      21. 23. 26. 31. 35. 38. 40. 41. 39. 40. 38. 35. 33. 30. 26. 22.
      19. 15. 14. 13. 13. 16. 16. 10. 9. 26. 58. 13. 11. 14. 25. 27. 30.
      27. 33. 36. 39. 41. 40. 37. 35. 33. 30. 27. 24. 22. 18. 16. 17.
      19. 25. 26. 29. 33. 37. 39. 40. 40. 41. 41. 40. 37. 35. 33. 29.
      25. 21. 18. 17. 16. 16. 20. 20. 12. 8. 29. 38. 15. 13. 21. 28. 30.
      33. 29. 36. 38. 40. 41. 39. 37. 35. 34. 30. 27. 25. 24. 22. 20.
      22. 25. 30. 31. 34. 38. 41. 42. 42. 41. 43. 44. 43. 41. 39. 38.
      35. 32. 29. 26. 25. 23. 21. 24. 21. 11. 11. 27. 26. 15. 12. 28.
      32. 29. 35. 39. 40. 41. 43. 43. 42. 39. 38. 37. 35. 32. 31. 31.
      30. 29. 31. 35. 35. 36. 38. 42. 44. 45. 44. 43. 44. 45. 45. 44.
      43. 43. 40. 37. 37. 34. 32. 28. 24. 25. 19. 8. 9. 18. 26. 11. 18.
      34. 33. 31. 36. 37. 43. 44. 45. 46. 45. 44. 43. 43. 43. 44. 46.
      46. 46. 45. 44. 44. 43. 42. 42. 44. 45. 46. 46. 45. 44. 46. 47.
      47. 45. 44. 44. 43. 44. 41. 36. 31. 27. 23. 16. 9. 6. 22. 21. 11.
      20. 35. 33. 32. 38. 38. 42. 44. 46. 47. 48. 48. 48. 48. 44. 46.
      47. 48. 48. 47. 47. 46. 44. 44. 44. 44. 46. 46. 46. 45. 44. 45.
      46. 46. 46. 45. 43. 43. 41. 38. 33. 26. 23. 20. 16. 12. 16. 29.
      15. 12. 23. 34. 32. 32. 38. 38. 39. 41. 43. 44. 44. 44. 44. 44.
      44. 45. 46. 47. 47. 46. 46. 47. 45. 45. 44. 45. 46. 46. 46. 45.
      45. 44. 44. 45. 45. 44. 41. 39. 36. 34. 29. 24. 21. 19. 16. 12. 8.
      15. 11. 14. 25. 31. 29. 30. 36. 36. 39. 40. 41. 42. 42. 41. 42.
      42. 42. 43. 44. 44. 43. 43. 43. 44. 43. 43. 44. 44. 44. 45. 45.
      44. 44. 43. 42. 42. 42. 40. 36. 33. 30. 28. 24. 22. 21. 20. 15. 9.
      2. 4. 9. 15. 23. 26. 25. 27. 32. 34. 39. 40. 41. 42. 42. 42. 42.
      43. 36. 37. 37. 37. 36. 36. 37. 38. 38. 39. 40. 41. 42. 42. 43.
      43. 44. 42. 39. 38. 36. 33. 28. 25. 23. 20. 16. 16. 19. 20. 14. 8.
      5. 5. 8. 13. 18. 19. 20. 21. 25. 28. 30. 31. 31. 30. 28. 27. 26.
      26. 24. 24. 24. 24. 24. 24. 25. 26. 31. 33. 36. 38. 40. 40. 41.
      41. 42. 40. 37. 33. 30. 26. 21. 18. 16. 13. 8. 8. 13. 17. 15. 10.
      6. 8. 9. 12. 13. 14. 16. 15. 14. 17. 16. 16. 15. 13. 10. 9. 8. 7.
      12. 12. 12. 12. 12. 14. 15. 17. 24. 27. 32. 36. 38. 39. 40. 41.
      40. 38. 35. 30. 24. 19. 15. 13. 11. 10. 8. 8. 10. 14. 14. 11. 10.
      13. 11. 12. 11. 11. 13. 9. 5. 8. 6. 7. 7. 7. 6. 6. 7. 7. 7. 8. 8.
      8. 9. 11. 13. 15. 20. 24. 30. 35. 38. 39. 40. 40. 39. 37. 34. 28.
      22. 16. 13. 12. 9. 11. 12. 12. 12. 12. 12. 10. 9. 15. 10. 10. 11.
      11. 10. 9. 8. 7. 7. 8. 9. 9. 9. 9. 8. 7. 7. 9. 10. 10. 9. 10. 13.
      17. 22. 26. 31. 36. 38. 39. 40. 41. 39. 37. 32. 28. 23. 18. 14.
      11. 10. 12. 13. 12. 10. 8. 8. 8. 9. 9. 9. 10. 10. 10. 10. 9. 8. 7.
      7. 8. 8. 9. 9. 9. 8. 8. 8. 9. 11. 10. 9. 10. 14. 17. 23. 27. 32.
      36. 38. 38. 38. 38. 37. 35. 30. 26. 22. 18. 14. 12. 11. 11. 12.
      11. 10. 9. 9. 9. 11. 11. 9. 10. 10. 10. 10. 9. 8. 8. 7. 7. 8. 8.
      8. 9. 9. 9. 9. 10. 11. 10. 9. 11. 14. 17. 22. 26. 31. 36. 38. 37.
      36. 36. 35. 32. 28. 23. 19. 16. 13. 11. 11. 11. 10. 10. 11. 10.
      10. 9. 9. 9. 10. 10. 10. 10. 9. 8. 7. 7. 7. 7. 7. 8. 8. 9. 9. 10.
      10. 10. 10. 9. 9. 10. 13. 15. 20. 23. 29. 34. 37. 37. 36. 35. 32.
      29. 25. 20. 16. 13. 10. 9. 10. 9. 8. 9. 10. 10. 9. 8. 7. 7. 11.
      11. 10. 9. 8. 7. 6. 6. 7. 7. 7. 7. 8. 8. 9. 9. 9. 9. 9. 8. 8. 8.
      11. 12. 17. 20. 25. 30. 33. 33. 32. 31. 26. 23. 20. 16. 13. 11. 9.
      8. 9. 8. 7. 7. 9. 9. 8. 7. 8. 8. 11. 10. 10. 9. 8. 7. 6. 6. 7. 7.
      8. 8. 8. 8. 8. 8. 8. 8. 8. 7. 7. 7. 9. 10. 12. 13. 16. 19. 21. 21.
      19. 18. 17. 15. 13. 12. 11. 11. 10. 10. 8. 7. 7. 7. 7. 8. 7. 7. 8.
      8. 10. 9. 9. 8. 8. 7. 7. 7. 7. 8. 8. 8. 8. 8. 7. 7. 8. 8. 8. 7. 7.
      7. 7. 7. 8. 7. 8. 9. 10. 10. 9. 8. 10. 9. 8. 9. 9. 10. 10. 10. 8.
      8. 8. 7. 6. 6. 7. 8. 8. 8. 9. 8. 8. 8. 8. 8. 8. 8. 7. 8. 9. 9. 8.
      8. 7. 6. 7. 8. 8. 8. 8. 7. 7. 7. 8. 7. 6. 7. 8. 8. 8. 7. 7. 6. 6.
      7. 8. 9. 9. 9. 8. 9. 9. 8. 6. 6. 7. 8. 8. 8. 8. 8. 8. 8. 8. 8. 8.
      8. 8. 8. 8. 8. 9. 9. 9. 8. 7. 7. 7. 7. 7. 8. 8. 9. 10. 10. 10. 9.
      9. 9. 9. 9. 7. 8. 9. 10. 10. 9. 9. 8. 8. 8. 7. 7. 7. 7. 8. 8. 8.
      8. 8. 8. 8. 8. 8. 8. 8. 8. 8. 8. 8. 8. 9. 9. 9. 8. 7. 7. 7. 7. 7.
      8. 8. 9. 9. 9. 9. 9. 8. 8. 8. 8. 7. 8. 9. 10. 10. 9. 9. 8. 8. 8.
      7. 7. 7. 7. 8. 8. 8. 8.</_>
    <_>
      7. 6. 6. 8. 9. 9. 8. 7. 8. 8. 8. 8. 8. 8. 8. 8. 10. 10. 10. 9. 9.
      9. 8. 8. 10. 9. 9. 10. 10. 9. 9. 10. 10. 9. 9. 8. 8. 8. 7. 6. 8.
      8. 8. 9. 9. 9. 8. 7. 7. 7. 7. 7. 7. 8. 9. 9. 8. 7. 7. 7. 7. 7. 8.
      8. 8. 8. 8. 8. 8. 8. 9. 9. 9. 9. 7. 7. 8. 10. 9. 8. 8. 10. 9. 9.
      9. 8. 8. 8. 7. 7. 8. 7. 8. 8. 9. 9. 8. 7. 7. 7. 6. 6. 6. 7. 8. 8.
      7. 6. 6. 6. 6. 6. 7. 7. 8. 8. 7. 7. 7. 8. 8. 9. 9. 9. 6. 6. 7. 8.
      7. 6. 6. 8. 7. 7. 8. 8. 7. 7. 7. 8. 7. 7. 7. 7. 8. 8. 7. 6. 6. 6.
      5. 6. 6. 6. 7. 7. 6. 5. 5. 5. 6. 6. 6. 6. 7. 7. 7. 7. 7. 7. 7. 7.
      7. 7. 8. 6. 6. 7. 8. 7. 7. 8. 6. 8. 9. 8. 7. 7. 8. 9. 7. 6. 7. 7.
      8. 8. 7. 6. 6. 6. 6. 6. 7. 7. 7. 7. 6. 6. 6. 6. 6. 6. 6. 6. 6. 6.
      7. 7. 7. 6. 6. 6. 6. 6. 8. 5. 5. 9. 13. 14. 14. 14. 14. 15. 15.
      13. 9. 7. 7. 9. 7. 7. 7. 8. 8. 8. 8. 7. 6. 6. 7. 8. 9. 9. 8. 7. 7.
      7. 7. 7. 7. 6. 6. 6. 6. 6. 6. 6. 6. 6. 6. 7. 7. 7. 6. 6. 9. 15.
      22. 25. 25. 25. 26. 27. 26. 21. 13. 8. 7. 8. 7. 6. 7. 8. 8. 9. 8.
      7. 6. 6. 8. 9. 10. 9. 8. 7. 7. 7. 7. 7. 7. 7. 7. 7. 7. 7. 6. 6. 6.
      6. 6. 6. 6. 6. 5. 9. 17. 26. 32. 34. 34. 35. 35. 36. 34. 26. 16.
      8. 6. 7. 6. 6. 6. 7. 8. 8. 7. 6. 6. 6. 6. 8. 9. 8. 7. 6. 6. 6. 7.
      7. 7. 7. 8. 8. 8. 8. 8. 8. 7. 7. 6. 5. 5. 4. 5. 13. 25. 35. 39.
      38. 38. 40. 38. 39. 36. 28. 17. 9. 6. 7. 5. 5. 5. 6. 7. 7. 7. 6.
      6. 6. 8. 8. 8. 8. 7. 7. 6. 6. 5. 6. 6. 7. 7. 8. 8. 9. 9. 5. 4. 7.
      7. 4. 4. 7. 9. 21. 33. 37. 38. 41. 42. 41. 42. 39. 36. 28. 16. 9.
      9. 7. 8. 8. 7. 7. 6. 6. 5. 5. 7. 8. 8. 8. 8. 7. 7. 7. 6. 6. 6. 6.
      6. 6. 7. 7. 8. 8. 7. 6. 5. 6. 7. 6. 6. 7. 17. 28. 38. 40. 40. 42.
      42. 41. 42. 39. 37. 29. 15. 9. 8. 7. 8. 7. 7. 6. 6. 6. 6. 6. 6. 7.
      8. 8. 8. 7. 7. 6. 6. 5. 6. 6. 6. 6. 6. 7. 7. 7. 6. 6. 7. 6. 6. 7.
      9. 10. 27. 35. 42. 42. 41. 42. 42. 41. 42. 40. 38. 29. 15. 7. 8.
      8. 7. 7. 7. 6. 7. 7. 7. 7. 8. 8. 8. 8. 8. 8. 7. 6. 6. 5. 6. 6. 6.
      6. 6. 6. 6. 6. 6. 6. 7. 8. 6. 5. 11. 18. 33. 39. 43. 42. 41. 41.
      41. 41. 41. 40. 39. 30. 14. 7. 8. 8. 7. 7. 7. 7. 7. 7. 7. 8. 9. 9.
      8. 8. 8. 8. 7. 7. 6. 6. 6. 6. 6. 6. 6. 6. 6. 6. 8. 5. 6. 9. 6. 4.
      14. 28. 37. 40. 42. 42. 41. 41. 42. 42. 41. 40. 39. 30. 14. 7. 8.
      8. 8. 8. 7. 7. 7. 7. 7. 7. 8. 8. 9. 9. 9. 9. 8. 7. 6. 6. 7. 6. 6.
      6. 6. 6. 6. 6. 8. 5. 6. 9. 8. 9. 21. 37. 40. 41. 42. 42. 42. 42.
      43. 43. 41. 40. 38. 29. 15. 8. 8. 8. 8. 8. 8. 7. 7. 7. 8. 8. 9. 9.
      10. 10. 10. 9. 9. 8. 7. 7. 6. 7. 7. 7. 7. 7. 7. 7. 7. 7. 6. 6. 10.
      20. 32. 40. 42. 42. 41. 41. 42. 42. 42. 42. 41. 39. 37. 29. 15. 9.
      9. 8. 7. 7. 7. 7. 8. 8. 9. 9. 11. 12. 11. 11. 10. 10. 9. 8. 7. 7.
      6. 7. 7. 7. 7. 7. 7. 8. 5. 8. 7. 4. 12. 30. 41. 41. 43. 41. 40.
      40. 40. 40. 40. 40. 41. 38. 36. 28. 16. 10. 10. 8. 7. 7. 7. 7. 8.
      9. 9. 10. 10. 12. 17. 11. 7. 9. 11. 9. 7. 7. 7. 7. 6. 6. 7. 8. 8.
      7. 8. 6. 6. 12. 25. 36. 40. 39. 41. 42. 41. 39. 38. 39. 40. 41.
      43. 40. 38. 31. 17. 8. 7. 7. 7. 7. 6. 7. 8. 9. 10. 10. 14. 10. 19.
      17. 13. 10. 9. 9. 8. 6. 7. 7. 7. 7. 6. 7. 8. 8. 8. 5. 8. 20. 32.
      38. 40. 42. 41. 39. 35. 34. 35. 37. 39. 39. 42. 39. 38. 31. 17. 8.
      8. 8. 8. 7. 7. 7. 8. 9. 10. 10. 17. 12. 20. 20. 17. 10. 7. 9. 9.
      6. 7. 8. 8. 7. 6. 6. 7. 8. 7. 7. 14. 29. 38. 39. 39. 42. 40. 33.
      28. 28. 33. 37. 39. 39. 41. 39. 37. 31. 17. 8. 8. 9. 8. 8. 8. 8.
      9. 10. 11. 11. 18. 12. 22. 20. 14. 10. 8. 9. 9. 7. 8. 7. 7. 7. 7.
      6. 5. 6. 7. 13. 25. 35. 40. 39. 39. 39. 36. 27. 20. 24. 33. 39.
      39. 39. 41. 38. 37. 31. 17. 9. 9. 9. 8. 8. 8. 9. 9. 10. 11. 12.
      19. 12. 29. 19. 11. 11. 12. 9. 7. 8. 9. 6. 5. 7. 8. 7. 5. 5. 10.
      23. 35. 38. 39. 40. 40. 36. 27. 18. 14. 23. 35. 39. 39. 39. 41.
      38. 37. 31. 17. 9. 9. 9. 8. 8. 9. 9. 9. 10. 12. 13. 20. 13. 35.
      21. 12. 13. 14. 9. 6. 9. 9. 6. 5. 7. 9. 7. 7. 9. 18. 32. 41. 40.
      39. 42. 39. 31. 18. 10. 10. 23. 35. 38. 38. 38. 41. 38. 37. 31.
      17. 9. 9. 9. 7. 8. 9. 9. 9. 10. 12. 14. 20. 13. 34. 23. 14. 12.
      11. 9. 7. 9. 8. 6. 6. 8. 8. 7. 11. 17. 30. 37. 41. 39. 40. 40. 32.
      21. 12. 6. 9. 24. 36. 37. 37. 39. 41. 38. 37. 31. 17. 8. 8. 9. 7.
      8. 9. 9. 9. 9. 12. 14. 20. 12. 30. 23. 15. 9. 8. 9. 9. 9. 7. 6. 7.
      8. 6. 6. 14. 25. 39. 39. 38. 39. 40. 36. 23. 11. 10. 5. 10. 26.
      36. 37. 37. 41. 42. 39. 38. 31. 17. 8. 8. 8. 6. 8. 9. 9. 8. 9. 11.
      14. 22. 14. 47. 21. 12. 9. 6. 9. 8. 8. 9. 5. 4. 8. 9. 12. 24. 38.
      41. 39. 39. 40. 35. 24. 14. 10. 11. 6. 8. 22. 34. 38. 38. 40. 40.
      39. 39. 31. 16. 8. 9. 8. 8. 8. 9. 10. 10. 9. 11. 16. 21. 14. 45.
      16. 8. 12. 12. 12. 11. 13. 8. 6. 5. 8. 13. 22. 32. 40. 39. 40. 41.
      37. 27. 16. 10. 9. 11. 6. 9. 22. 34. 38. 38. 40. 40. 39. 39. 31.
      16. 8. 9. 8. 9. 9. 9. 10. 9. 9. 11. 15. 21. 13. 55. 22. 10. 13.
      11. 7. 4. 6. 8. 8. 7. 10. 20. 33. 40. 40. 38. 41. 40. 30. 16. 8.
      6. 7. 11. 7. 10. 22. 33. 37. 37. 38. 40. 38. 38. 30. 17. 10. 10.
      9. 10. 9. 10. 10. 9. 9. 12. 15. 18. 11. 54. 23. 11. 10. 8. 8. 7.
      11. 7. 8. 11. 18. 28. 38. 41. 39. 40. 41. 35. 22. 10. 6. 7. 7. 10.
      7. 11. 22. 32. 35. 36. 37. 40. 38. 37. 30. 18. 12. 11. 10. 9. 9.
      10. 10. 10. 11. 12. 14. 17. 10. 50. 26. 16. 11. 7. 10. 10. 10. 7.
      10. 19. 30. 37. 39. 39. 39. 41. 36. 25. 13. 8. 9. 10. 8. 7. 7. 12.
      22. 32. 36. 37. 39. 40. 38. 36. 30. 18. 12. 11. 9. 9. 10. 11. 11.
      11. 12. 13. 14. 19. 13. 44. 25. 18. 12. 6. 8. 6. 3. 10. 16. 27.
      39. 43. 40. 39. 41. 34. 26. 14. 7. 8. 11. 10. 7. 9. 10. 15. 25.
      34. 38. 40. 41. 41. 38. 36. 30. 20. 15. 14. 11. 15. 15. 14. 12.
      12. 13. 14. 13. 21. 15. 37. 16. 11. 10. 8. 11. 11. 10. 17. 25. 36.
      41. 41. 41. 40. 39. 29. 21. 13. 11. 14. 15. 14. 13. 16. 17. 22.
      30. 36. 39. 40. 40. 40. 37. 37. 33. 26. 23. 23. 21. 24. 23. 18.
      13. 11. 13. 13. 12. 18. 13. 49. 21. 12. 12. 10. 10. 9. 11. 22. 33.
      40. 39. 38. 40. 39. 35. 29. 24. 21. 22. 24. 22. 22. 24. 24. 25.
      29. 34. 38. 39. 38. 38. 39. 37. 38. 37. 32. 32. 33. 31. 32. 29.
      22. 14. 10. 12. 13. 12. 12. 8. 34. 22. 11. 9. 9. 8. 11. 17. 29.
      36. 40. 40. 40. 41. 40. 37. 32. 32. 31. 30. 30. 31. 32. 32. 32.
      33. 34. 35. 37. 39. 40. 40. 39. 38. 38. 37. 36. 36. 36. 36. 35.
      31. 22. 13. 10. 11. 13. 12. 13. 12. 28. 20. 13. 11. 9. 7. 11. 18.
      31. 37. 41. 40. 39. 40. 39. 37. 38. 37. 36. 36. 35. 35. 35. 36.
      36. 36. 36. 37. 38. 40. 40. 41. 39. 39. 39. 39. 38. 38. 38. 37.
      37. 31. 21. 12. 9. 11. 12. 11. 10. 9. 15. 11. 10. 11. 9. 7. 13.
      22. 30. 36. 41. 40. 38. 39. 39. 37. 39. 38. 38. 38. 37. 37. 37.
      37. 38. 38. 37. 37. 38. 39. 40. 40. 40. 40. 39. 40. 40. 39. 38.
      36. 35. 29. 19. 11. 9. 11. 11. 10. 16. 15. 6. 6. 7. 9. 8. 7. 14.
      22. 28. 33. 38. 37. 36. 36. 38. 38. 36. 36. 36. 36. 36. 36. 35.
      35. 35. 34. 34. 34. 36. 37. 38. 38. 40. 39. 39. 39. 38. 36. 33.
      31. 29. 23. 15. 10. 9. 11. 10. 9. 13. 12. 9. 7. 7. 8. 7. 7. 11.
      17. 27. 31. 34. 33. 32. 32. 34. 35. 33. 33. 33. 33. 32. 31. 31.
      30. 28. 28. 28. 30. 33. 36. 37. 37. 39. 39. 38. 36. 33. 28. 25.
      23. 19. 15. 10. 9. 10. 10. 10. 9. 8. 7. 10. 8. 7. 8. 8. 9. 12. 16.
      25. 27. 27. 27. 26. 26. 26. 27. 27. 26. 25. 24. 23. 22. 21. 21.
      20. 20. 21. 26. 32. 36. 37. 37. 38. 39. 38. 33. 26. 19. 16. 15.
      11. 9. 7. 8. 9. 9. 9. 9. 11. 10. 6. 6. 7. 9. 9. 10. 12. 16. 19.
      18. 17. 17. 17. 17. 17. 17. 16. 15. 14. 13. 12. 12. 12. 12. 11.
      12. 15. 22. 30. 35. 37. 37. 37. 39. 38. 31. 21. 12. 9. 9. 8. 7. 7.
      8. 8. 7. 8. 10. 9. 9. 5. 7. 9. 9. 7. 6. 8. 12. 12. 10. 9. 9. 10.
      11. 10. 10. 8. 7. 7. 6. 6. 7. 8. 9. 6. 7. 11. 19. 28. 34. 36. 35.
      37. 39. 38. 30. 18. 9. 6. 7. 8. 7. 7. 8. 7. 5. 7. 10. 9. 8. 7. 7.
      8. 8. 8. 8. 8. 8. 8. 8. 7. 7. 7. 7. 7. 7. 8. 8. 8. 7. 7. 7. 7. 7.
      8. 6. 9. 19. 30. 36. 36. 35. 38. 39. 37. 28. 17. 8. 6. 8. 8. 7. 6.
      6. 7. 8. 9. 9. 8. 8. 7. 7. 7. 8. 8. 8. 8. 7. 7. 7. 7. 7. 7. 6. 6.
      6. 7. 7. 7. 6. 6. 6. 7. 7. 9. 6. 8. 18. 28. 35. 36. 36. 36. 38.
      36. 28. 17. 9. 7. 8. 8. 7. 6. 7. 7. 8. 8. 8. 7. 7. 6. 7. 7. 7. 7.
      7. 7. 7. 6. 6. 6. 6. 6. 6. 6. 6. 6. 6. 6. 6. 6. 6. 6. 7. 9. 7. 9.
      17. 27. 33. 36. 36. 35. 36. 34. 27. 17. 10. 7. 8. 7. 7. 7. 7. 8.
      8. 8. 7. 7. 7. 6. 6. 7. 7. 7. 7. 6. 6. 6. 6. 6. 6. 6. 6. 6. 6. 6.
      6. 5. 6. 6. 6. 7. 7. 8. 7. 10. 18. 27. 32. 34. 35. 34. 34. 31. 25.
      16. 10. 8. 9. 6. 6. 7. 8. 9. 9. 8. 7. 7. 7. 6. 6. 6. 7. 7. 6. 6.
      6. 7. 7. 6. 6. 6. 6. 6. 6. 6. 6. 6. 6. 6. 7. 7. 7. 7. 7. 11. 18.
      25. 29. 31. 31. 30. 29. 25. 19. 12. 8. 7. 8. 6. 6. 7. 8. 9. 9. 7.
      6. 6. 6. 6. 7. 7. 7. 7. 6. 6. 6. 7. 7. 6. 6. 6. 6. 6. 6. 6. 6. 6.
      6. 6. 6. 7. 7. 7. 7. 10. 16. 21. 23. 23. 24. 22. 20. 17. 12. 7. 5.
      6. 7. 6. 6. 7. 8. 8. 8. 7. 6. 5. 5. 7. 7. 7. 7. 7. 7. 6. 6. 6. 6.
      6. 6. 6. 5. 5. 5. 6. 6. 6. 5. 5. 5. 6. 6. 7. 6. 8. 11. 14. 14. 14.
      15. 13. 12. 11. 8. 6. 5. 6. 6. 6. 6. 6. 7. 8. 8. 7. 7. 6. 6. 7. 7.
      7. 7. 7. 7. 6. 6. 5. 5. 5. 5. 5. 5. 5. 5. 6. 6. 5. 5. 5. 4. 5. 5.
      7. 6. 6. 7. 8. 8. 8. 9. 8. 8. 8. 8. 7. 7. 7. 7. 6. 6. 6. 7. 8. 8.
      7. 7. 8. 8. 7. 6. 6. 8. 8. 6. 4. 4. 7. 5. 5. 7. 7. 6. 5. 5. 6. 7.
      6. 6. 5. 5. 6. 7. 7. 7. 8. 8. 9. 9. 10. 10. 7. 7. 7. 7. 8. 8. 8.
      8. 10. 9. 9. 8. 7. 8. 10. 11. 14. 12. 7. 6. 6. 8. 8. 6. 4. 4. 7.
      5. 5. 6. 7. 6. 5. 5. 6. 7. 6. 6. 5. 5. 6. 7. 7. 7. 8. 8. 9. 9. 10.
      10. 9. 10. 10. 11. 12. 12. 13. 13. 14. 14. 13. 12. 12. 13. 14. 15.
      16. 14.</_>
    <_>
      7. 7. 8. 8. 8. 8. 8. 8. 9. 8. 8. 8. 8. 9. 8. 7. 6. 6. 7. 7. 7. 7.
      8. 8. 10. 9. 8. 6. 8. 10. 9. 7. 10. 11. 11. 11. 11. 11. 11. 10. 9.
      9. 9. 9. 9. 9. 9. 9. 7. 7. 7. 7. 7. 7. 7. 8. 8. 8. 7. 7. 6. 6. 7.
      7. 6. 6. 6. 6. 6. 6. 6. 7. 7. 7. 7. 7. 6. 5. 7. 10. 11. 10. 8. 9.
      9. 9. 9. 9. 8. 8. 8. 8. 8. 8. 9. 9. 9. 9. 9. 9. 7. 7. 7. 6. 7. 7.
      8. 8. 6. 5. 5. 5. 6. 6. 5. 4. 5. 5. 5. 5. 6. 6. 6. 6. 5. 6. 7. 6.
      7. 9. 9. 8. 7. 7. 7. 8. 8. 8. 8. 9. 8. 8. 8. 8. 8. 8. 8. 8. 9. 9.
      8. 7. 6. 6. 6. 6. 7. 8. 7. 6. 6. 6. 6. 6. 6. 5. 5. 5. 5. 5. 5. 6.
      6. 6. 5. 7. 8. 7. 7. 7. 6. 5. 7. 6. 6. 8. 8. 8. 8. 9. 8. 8. 8. 8.
      8. 7. 7. 7. 8. 8. 8. 7. 6. 6. 6. 6. 7. 8. 7. 6. 6. 6. 7. 7. 6. 5.
      5. 5. 6. 6. 6. 6. 7. 7. 6. 7. 7. 6. 7. 10. 11. 11. 12. 10. 11. 12.
      11. 8. 6. 7. 8. 8. 8. 8. 7. 7. 7. 7. 7. 7. 8. 8. 7. 7. 6. 7. 7. 7.
      6. 6. 5. 5. 6. 6. 5. 5. 6. 6. 6. 6. 7. 7. 7. 7. 7. 6. 4. 5. 11.
      19. 25. 26. 25. 23. 23. 24. 20. 12. 7. 6. 8. 8. 8. 8. 7. 7. 7. 7.
      8. 8. 8. 8. 8. 7. 7. 7. 7. 7. 6. 6. 5. 5. 6. 6. 5. 5. 6. 6. 6. 6.
      7. 7. 7. 7. 6. 6. 6. 11. 20. 31. 36. 37. 38. 36. 35. 35. 29. 17.
      9. 7. 9. 9. 8. 8. 8. 7. 7. 7. 7. 7. 8. 8. 8. 8. 8. 8. 7. 7. 7. 6.
      6. 6. 6. 6. 6. 5. 5. 6. 6. 6. 6. 7. 7. 7. 6. 7. 11. 19. 30. 39.
      41. 39. 41. 39. 39. 39. 32. 19. 8. 5. 9. 9. 9. 8. 8. 8. 7. 7. 6.
      6. 8. 9. 9. 9. 8. 7. 8. 9. 6. 6. 6. 6. 6. 6. 6. 6. 6. 7. 7. 7. 6.
      6. 7. 7. 8. 5. 10. 26. 39. 41. 40. 39. 40. 40. 39. 39. 33. 18. 6.
      6. 8. 8. 8. 7. 7. 7. 7. 7. 6. 6. 9. 8. 6. 5. 6. 6. 5. 4. 8. 7. 7.
      6. 6. 6. 6. 6. 5. 5. 6. 6. 6. 7. 7. 7. 8. 10. 19. 32. 40. 41. 41.
      42. 40. 40. 39. 39. 34. 19. 7. 7. 8. 8. 7. 7. 7. 7. 7. 7. 6. 7.
      10. 8. 6. 6. 9. 10. 9. 7. 7. 7. 7. 6. 6. 6. 6. 7. 5. 5. 6. 7. 7.
      7. 7. 8. 8. 18. 30. 38. 40. 40. 41. 43. 41. 40. 38. 39. 35. 21. 8.
      7. 8. 7. 7. 7. 7. 7. 7. 7. 7. 7. 7. 6. 5. 5. 7. 8. 7. 5. 6. 6. 6.
      6. 7. 8. 8. 8. 6. 6. 6. 7. 8. 7. 7. 8. 12. 24. 37. 40. 38. 39. 41.
      42. 42. 40. 38. 39. 36. 22. 9. 6. 7. 7. 7. 7. 7. 7. 7. 7. 7. 7.
      10. 10. 10. 10. 8. 7. 6. 6. 6. 6. 6. 6. 7. 7. 8. 8. 7. 6. 6. 7. 6.
      5. 6. 9. 20. 31. 39. 40. 38. 40. 41. 41. 43. 41. 38. 39. 36. 22.
      8. 6. 7. 7. 7. 7. 7. 7. 7. 7. 7. 7. 11. 12. 12. 11. 9. 9. 9. 10.
      8. 8. 7. 7. 6. 6. 6. 6. 6. 5. 5. 6. 4. 4. 8. 15. 30. 36. 40. 40.
      40. 41. 42. 41. 43. 41. 39. 39. 36. 21. 8. 6. 7. 7. 7. 7. 7. 7. 7.
      8. 8. 8. 11. 9. 7. 5. 5. 6. 7. 8. 8. 8. 7. 6. 6. 5. 5. 5. 6. 5. 6.
      7. 5. 6. 14. 24. 37. 38. 40. 41. 41. 42. 42. 42. 41. 41. 39. 39.
      35. 20. 8. 7. 7. 7. 7. 7. 7. 7. 8. 8. 10. 10. 26. 20. 13. 9. 8. 9.
      9. 8. 7. 7. 6. 6. 6. 5. 5. 6. 6. 6. 8. 9. 8. 9. 20. 33. 39. 38.
      39. 41. 42. 41. 41. 41. 40. 40. 39. 39. 34. 19. 8. 8. 7. 7. 7. 7.
      7. 8. 8. 8. 11. 11. 25. 14. 9. 13. 9. 7. 11. 5. 6. 7. 7. 7. 6. 6.
      6. 6. 2. 8. 9. 5. 6. 18. 31. 38. 41. 39. 41. 42. 37. 36. 40. 41.
      38. 41. 39. 38. 36. 20. 6. 8. 8. 8. 8. 9. 9. 8. 8. 10. 14. 9. 34.
      19. 11. 12. 5. 2. 11. 14. 7. 7. 7. 7. 6. 5. 5. 6. 5. 6. 6. 6. 13.
      25. 35. 38. 41. 39. 40. 37. 31. 32. 38. 40. 40. 42. 40. 39. 36.
      19. 5. 7. 8. 8. 8. 9. 8. 7. 8. 11. 13. 7. 26. 7. 4. 12. 13. 10. 8.
      4. 7. 8. 8. 7. 6. 5. 5. 6. 8. 5. 4. 11. 24. 35. 39. 39. 40. 40.
      37. 30. 23. 27. 36. 38. 39. 42. 39. 39. 36. 19. 6. 8. 8. 7. 8. 8.
      8. 7. 9. 11. 14. 7. 37. 16. 10. 11. 11. 12. 9. 5. 8. 8. 8. 7. 6.
      6. 6. 6. 7. 5. 8. 20. 32. 39. 41. 40. 41. 37. 31. 20. 15. 25. 36.
      38. 37. 40. 38. 38. 35. 20. 6. 9. 9. 7. 7. 8. 8. 7. 9. 11. 17. 10.
      25. 16. 20. 15. 6. 9. 10. 12. 9. 9. 9. 8. 6. 6. 6. 7. 5. 9. 18.
      29. 37. 39. 40. 40. 39. 32. 22. 12. 12. 26. 38. 38. 36. 39. 37.
      37. 35. 19. 6. 8. 9. 8. 8. 8. 8. 8. 10. 12. 18. 11. 24. 12. 20.
      16. 9. 11. 6. 6. 9. 9. 8. 8. 7. 7. 7. 8. 8. 17. 29. 36. 39. 38.
      38. 38. 34. 24. 14. 9. 12. 26. 38. 38. 37. 39. 37. 37. 34. 18. 5.
      7. 10. 8. 8. 9. 9. 9. 10. 13. 17. 10. 66. 32. 22. 14. 9. 11. 3. 6.
      9. 9. 8. 8. 7. 7. 8. 9. 15. 25. 35. 39. 39. 39. 38. 35. 26. 16.
      10. 9. 14. 25. 36. 38. 37. 40. 38. 38. 35. 19. 6. 8. 11. 9. 9. 9.
      9. 9. 11. 14. 17. 11. 67. 29. 22. 19. 13. 10. 1. 11. 8. 8. 8. 7.
      7. 8. 9. 10. 22. 31. 38. 39. 39. 41. 38. 32. 20. 12. 9. 11. 15.
      24. 33. 37. 36. 39. 38. 38. 36. 21. 8. 10. 11. 10. 9. 10. 10. 10.
      12. 15. 19. 14. 55. 22. 25. 16. 6. 8. 11. 5. 7. 7. 9. 10. 6. 5.
      12. 22. 30. 37. 40. 38. 39. 41. 33. 22. 9. 10. 11. 8. 11. 26. 39.
      40. 38. 36. 36. 40. 37. 22. 10. 11. 10. 9. 9. 10. 10. 9. 11. 14.
      21. 12. 72. 31. 25. 14. 8. 9. 10. 2. 6. 9. 9. 7. 6. 12. 22. 29.
      36. 40. 42. 40. 38. 35. 24. 12. 9. 9. 10. 8. 11. 26. 39. 41. 40.
      38. 37. 40. 37. 22. 9. 10. 10. 9. 9. 10. 11. 10. 12. 15. 22. 13.
      52. 18. 21. 14. 7. 6. 9. 8. 5. 8. 7. 4. 7. 20. 31. 35. 39. 40. 40.
      39. 35. 27. 14. 4. 8. 8. 8. 7. 10. 25. 38. 39. 40. 38. 38. 40. 37.
      22. 10. 9. 10. 10. 10. 10. 11. 11. 13. 16. 19. 11. 51. 22. 27. 21.
      11. 5. 6. 9. 8. 8. 7. 8. 16. 28. 36. 39. 39. 38. 37. 35. 29. 19.
      10. 6. 9. 8. 8. 7. 11. 24. 36. 38. 38. 37. 37. 40. 37. 22. 10. 9.
      9. 9. 9. 10. 10. 11. 12. 14. 17. 10. 57. 25. 22. 14. 12. 8. 7. 9.
      10. 7. 9. 18. 29. 36. 39. 41. 41. 39. 36. 30. 20. 11. 8. 9. 9. 7.
      8. 10. 14. 26. 37. 38. 37. 37. 37. 39. 36. 23. 10. 9. 7. 9. 10.
      10. 10. 11. 13. 13. 17. 12. 35. 13. 17. 10. 9. 7. 7. 11. 7. 6. 13.
      26. 36. 39. 39. 40. 42. 39. 33. 23. 12. 5. 5. 8. 8. 7. 9. 12. 17.
      27. 36. 37. 38. 38. 37. 38. 36. 25. 15. 14. 12. 13. 13. 11. 11.
      12. 14. 14. 16. 12. 27. 16. 26. 16. 10. 6. 4. 9. 5. 12. 23. 33.
      37. 38. 38. 39. 39. 36. 30. 20. 13. 12. 13. 14. 15. 14. 17. 20.
      24. 31. 37. 36. 39. 38. 37. 37. 37. 30. 24. 25. 25. 24. 20. 14.
      11. 12. 14. 14. 15. 13. 28. 14. 18. 7. 9. 11. 9. 10. 8. 22. 35.
      38. 38. 39. 41. 40. 37. 35. 30. 23. 22. 25. 27. 26. 27. 26. 28.
      31. 33. 38. 41. 39. 38. 37. 35. 36. 39. 35. 33. 36. 37. 34. 27.
      17. 12. 11. 12. 12. 16. 15. 17. 14. 17. 12. 9. 10. 5. 7. 15. 26.
      36. 39. 39. 40. 41. 39. 38. 37. 36. 35. 35. 35. 36. 36. 36. 37.
      37. 37. 37. 37. 38. 38. 38. 39. 40. 40. 40. 39. 38. 37. 39. 38.
      31. 18. 10. 11. 14. 14. 15. 15. 14. 11. 14. 11. 9. 10. 6. 8. 15.
      27. 37. 40. 39. 40. 40. 39. 39. 39. 38. 38. 37. 37. 37. 37. 38.
      38. 39. 38. 38. 38. 39. 40. 38. 39. 39. 40. 40. 40. 40. 39. 40.
      38. 30. 17. 10. 10. 13. 13. 11. 11. 9. 8. 11. 9. 8. 10. 7. 10. 15.
      27. 38. 40. 39. 38. 38. 38. 37. 37. 38. 38. 38. 38. 37. 37. 38.
      38. 38. 37. 36. 37. 37. 38. 39. 39. 40. 40. 41. 40. 39. 39. 38.
      34. 25. 14. 9. 10. 12. 11. 10. 11. 7. 6. 10. 8. 8. 10. 8. 11. 15.
      26. 36. 39. 38. 36. 36. 36. 36. 36. 37. 37. 37. 37. 37. 37. 37.
      37. 35. 34. 33. 34. 35. 37. 40. 40. 41. 42. 40. 37. 34. 33. 29.
      25. 18. 11. 8. 10. 11. 10. 13. 13. 7. 6. 10. 8. 8. 10. 8. 11. 15.
      24. 33. 36. 35. 33. 33. 33. 35. 34. 33. 32. 32. 32. 32. 33. 30.
      29. 28. 28. 29. 31. 35. 38. 40. 39. 41. 41. 38. 30. 23. 20. 17.
      15. 11. 8. 8. 10. 10. 9. 7. 6. 8. 6. 10. 8. 7. 10. 7. 10. 15. 20.
      27. 29. 29. 27. 26. 26. 27. 26. 24. 22. 20. 20. 20. 20. 17. 17.
      16. 17. 20. 27. 34. 39. 39. 38. 39. 40. 34. 23. 13. 10. 9. 8. 6.
      6. 8. 9. 9. 9. 13. 13. 8. 6. 10. 7. 7. 9. 6. 9. 12. 14. 17. 18.
      18. 16. 15. 14. 14. 13. 12. 11. 10. 9. 9. 9. 8. 8. 7. 9. 14. 23.
      32. 39. 39. 37. 38. 39. 33. 21. 11. 7. 7. 7. 6. 7. 7. 8. 8. 9. 7.
      6. 8. 6. 9. 7. 6. 8. 5. 8. 8. 8. 8. 9. 9. 7. 5. 4. 5. 6. 6. 7. 7.
      7. 6. 6. 8. 7. 6. 8. 13. 23. 34. 41. 40. 38. 39. 40. 34. 22. 12.
      9. 9. 8. 8. 7. 7. 7. 8. 9. 9. 9. 6. 6. 5. 5. 5. 6. 6. 6. 6. 7. 7.
      6. 5. 5. 7. 9. 7. 8. 8. 8. 7. 7. 8. 8. 10. 9. 7. 6. 12. 23. 33.
      39. 38. 37. 38. 40. 34. 21. 11. 7. 9. 8. 8. 8. 8. 8. 8. 7. 8. 8.
      6. 6. 6. 6. 6. 6. 6. 6. 6. 6. 6. 6. 6. 6. 7. 8. 7. 7. 8. 8. 7. 7.
      7. 8. 8. 7. 5. 6. 12. 23. 34. 39. 40. 39. 40. 40. 33. 20. 10. 6.
      9. 8. 8. 8. 8. 9. 8. 7. 8. 8. 5. 6. 6. 7. 7. 7. 6. 6. 6. 6. 6. 6.
      7. 7. 7. 6. 6. 7. 7. 7. 6. 6. 6. 7. 9. 9. 7. 7. 12. 22. 32. 37.
      36. 35. 36. 36. 30. 19. 10. 7. 9. 8. 8. 8. 8. 8. 8. 7. 7. 7. 5. 6.
      7. 7. 8. 7. 7. 6. 6. 6. 5. 6. 7. 8. 7. 5. 5. 6. 6. 6. 6. 5. 6. 6.
      9. 9. 8. 8. 13. 23. 32. 36. 34. 32. 32. 30. 25. 16. 10. 7. 8. 7.
      7. 7. 8. 8. 8. 7. 7. 7. 5. 6. 7. 7. 8. 7. 7. 6. 6. 5. 5. 6. 7. 8.
      6. 5. 5. 6. 6. 6. 5. 5. 5. 6. 4. 5. 6. 8. 13. 22. 29. 33. 32. 29.
      27. 23. 18. 12. 8. 6. 7. 7. 6. 6. 7. 7. 7. 6. 6. 6. 5. 5. 6. 7. 7.
      7. 7. 7. 6. 6. 5. 6. 6. 7. 6. 6. 5. 5. 6. 6. 5. 5. 5. 6. 5. 7. 7.
      7. 10. 15. 19. 20. 18. 17. 15. 13. 11. 9. 8. 7. 7. 6. 6. 6. 7. 7.
      7. 7. 6. 6. 5. 5. 5. 6. 6. 7. 7. 7. 6. 6. 6. 5. 5. 5. 6. 7. 5. 6.
      6. 6. 5. 5. 5. 6. 8. 9. 9. 7. 7. 8. 8. 7. 6. 6. 6. 6. 6. 7. 8. 8.
      7. 7. 7. 7. 8. 8. 8. 7. 8. 8. 5. 5. 5. 5. 6. 6. 7. 7. 5. 6. 6. 5.
      4. 4. 6. 8. 5. 6. 6. 6. 5. 5. 5. 6. 6. 8. 8. 7. 7. 8. 7. 6. 6. 7.
      7. 7. 7. 7. 7. 6. 8. 8. 7. 8. 9. 9. 9. 8. 9. 9. 6. 6. 6. 6. 6. 6.
      6. 6. 6. 7. 7. 6. 5. 5. 6. 7. 7. 6. 5. 5. 5. 5. 5. 5. 7. 7. 7. 7.
      7. 7. 8. 8. 6. 7. 9. 9. 8. 7. 8. 8. 9. 11. 11. 11. 11. 13. 14. 14.
      16. 17. 6. 6. 6. 6. 6. 6. 6. 6. 6. 7. 7. 6. 5. 5. 6. 7. 7. 6. 5.
      4. 5. 5. 5. 5. 7. 7. 7. 7. 7. 7. 8. 8. 6. 8. 11. 12. 12. 12. 13.
      15. 15. 17. 17. 17. 17. 19. 21. 20. 21. 22.</_>
    <_>
      8. 8. 8. 8. 8. 8. 8. 8. 8. 8. 8. 8. 8. 7. 7. 7. 7. 8. 8. 8. 9. 8.
      8. 8. 7. 8. 10. 10. 9. 8. 10. 12. 10. 11. 11. 10. 9. 9. 9. 9. 9.
      9. 9. 9. 9. 9. 9. 9. 9. 9. 8. 8. 8. 8. 8. 8. 8. 8. 9. 8. 8. 8. 8.
      7. 7. 7. 6. 7. 7. 7. 7. 7. 7. 7. 8. 8. 8. 7. 7. 7. 9. 10. 8. 8. 9.
      8. 8. 8. 9. 9. 9. 9. 9. 8. 8. 8. 8. 8. 8. 8. 8. 8. 8. 8. 8. 8. 8.
      8. 8. 8. 8. 8. 7. 7. 7. 7. 6. 7. 7. 7. 7. 7. 7. 7. 9. 8. 7. 7. 6.
      6. 6. 6. 7. 7. 8. 8. 9. 9. 9. 10. 8. 8. 8. 8. 7. 7. 7. 7. 8. 8. 8.
      8. 8. 8. 8. 8. 7. 7. 7. 7. 7. 7. 7. 7. 7. 7. 7. 8. 8. 8. 8. 8. 8.
      8. 8. 8. 8. 8. 7. 7. 7. 7. 10. 9. 9. 11. 11. 9. 8. 8. 7. 7. 7. 7.
      7. 7. 8. 8. 7. 7. 8. 8. 8. 8. 8. 8. 7. 7. 5. 5. 5. 6. 6. 7. 7. 7.
      7. 8. 8. 8. 8. 8. 7. 7. 7. 7. 7. 8. 9. 12. 16. 19. 18. 17. 16. 18.
      16. 12. 7. 6. 7. 7. 7. 8. 8. 8. 9. 9. 7. 7. 7. 8. 8. 8. 8. 7. 7.
      6. 4. 5. 5. 5. 6. 6. 7. 7. 6. 7. 7. 7. 7. 7. 6. 6. 7. 6. 6. 7. 12.
      21. 29. 35. 33. 30. 30. 31. 28. 19. 11. 8. 7. 7. 8. 8. 8. 9. 9. 9.
      7. 7. 7. 8. 8. 8. 8. 7. 6. 6. 6. 6. 6. 6. 6. 7. 7. 7. 7. 7. 7. 7.
      7. 6. 6. 6. 8. 6. 6. 12. 22. 32. 39. 42. 43. 40. 41. 42. 37. 25.
      13. 8. 8. 8. 8. 8. 8. 8. 8. 8. 7. 7. 7. 8. 8. 8. 8. 7. 6. 5. 8. 8.
      8. 7. 7. 7. 6. 6. 8. 8. 8. 8. 8. 7. 7. 7. 8. 6. 8. 18. 31. 41. 42.
      40. 45. 42. 42. 44. 38. 24. 10. 4. 9. 9. 8. 8. 7. 7. 7. 6. 7. 7.
      7. 9. 9. 9. 7. 7. 8. 10. 8. 8. 7. 7. 7. 6. 6. 6. 8. 8. 7. 5. 5. 7.
      9. 10. 7. 6. 13. 28. 38. 39. 39. 41. 42. 40. 42. 41. 39. 29. 9. 3.
      9. 8. 7. 7. 8. 8. 7. 6. 8. 8. 7. 7. 7. 7. 7. 8. 8. 8. 7. 7. 7. 7.
      7. 7. 6. 6. 8. 7. 7. 6. 6. 7. 8. 8. 7. 10. 19. 33. 40. 41. 40. 41.
      43. 41. 42. 40. 38. 28. 9. 4. 9. 8. 7. 7. 8. 8. 8. 7. 9. 9. 8. 7.
      5. 6. 7. 7. 6. 4. 6. 6. 7. 7. 8. 7. 7. 6. 7. 6. 6. 6. 7. 7. 7. 7.
      8. 17. 29. 38. 43. 43. 42. 41. 43. 41. 42. 40. 38. 28. 9. 4. 9. 8.
      8. 8. 8. 9. 8. 7. 7. 7. 9. 8. 7. 6. 6. 6. 4. 3. 6. 6. 6. 7. 7. 7.
      8. 8. 6. 5. 5. 7. 8. 7. 7. 7. 13. 25. 37. 42. 43. 43. 43. 41. 42.
      41. 43. 41. 39. 28. 9. 5. 9. 9. 8. 8. 9. 9. 8. 8. 6. 6. 7. 8. 9.
      8. 7. 6. 6. 6. 7. 7. 6. 6. 6. 7. 8. 9. 7. 6. 6. 8. 8. 7. 7. 10.
      21. 32. 41. 43. 41. 42. 42. 41. 42. 41. 44. 42. 40. 29. 9. 5. 8.
      8. 9. 9. 8. 8. 9. 9. 7. 8. 5. 7. 9. 9. 8. 7. 8. 9. 8. 7. 6. 6. 6.
      7. 8. 8. 10. 8. 8. 9. 7. 6. 10. 15. 30. 37. 42. 42. 41. 41. 42.
      41. 42. 42. 45. 42. 39. 28. 9. 5. 7. 8. 9. 8. 8. 8. 8. 9. 7. 9. 7.
      8. 9. 10. 10. 9. 9. 9. 7. 7. 7. 7. 7. 7. 7. 7. 9. 8. 8. 9. 7. 8.
      15. 25. 36. 39. 41. 42. 42. 42. 42. 42. 42. 41. 44. 40. 37. 27. 9.
      6. 7. 8. 8. 8. 7. 7. 8. 9. 7. 9. 10. 9. 9. 9. 10. 10. 8. 6. 6. 7.
      8. 8. 8. 7. 6. 5. 6. 6. 7. 8. 7. 10. 21. 33. 39. 39. 40. 42. 43.
      42. 42. 43. 43. 41. 42. 38. 35. 25. 9. 7. 6. 7. 8. 8. 7. 7. 8. 9.
      9. 11. 28. 11. 7. 8. 8. 10. 6. 7. 7. 7. 7. 7. 7. 7. 7. 7. 7. 7. 6.
      7. 10. 18. 31. 41. 44. 40. 42. 44. 39. 36. 40. 44. 41. 42. 41. 41.
      38. 23. 8. 4. 7. 8. 8. 8. 8. 8. 9. 9. 9. 14. 26. 10. 8. 9. 8. 9.
      7. 9. 7. 7. 7. 7. 7. 7. 6. 6. 9. 7. 6. 9. 15. 25. 35. 41. 43. 41.
      43. 41. 33. 32. 38. 42. 39. 40. 40. 41. 38. 24. 9. 5. 7. 8. 8. 8.
      8. 8. 9. 9. 10. 15. 29. 11. 9. 11. 8. 8. 8. 10. 7. 7. 8. 8. 8. 7.
      6. 6. 9. 7. 7. 14. 24. 34. 39. 40. 41. 41. 40. 33. 24. 27. 36. 41.
      38. 39. 39. 41. 38. 23. 9. 5. 7. 8. 8. 8. 8. 8. 9. 10. 13. 17. 39.
      14. 10. 12. 7. 8. 7. 8. 7. 8. 8. 8. 8. 7. 6. 6. 6. 7. 12. 20. 32.
      40. 42. 39. 40. 38. 34. 23. 17. 25. 38. 41. 39. 40. 39. 39. 36.
      22. 8. 5. 7. 8. 8. 8. 8. 8. 9. 10. 14. 17. 48. 15. 8. 11. 7. 9. 8.
      7. 7. 8. 8. 8. 8. 7. 7. 6. 3. 10. 19. 28. 37. 42. 42. 38. 40. 34.
      25. 14. 12. 26. 39. 41. 40. 40. 38. 38. 35. 22. 9. 6. 8. 8. 8. 8.
      8. 9. 10. 11. 14. 16. 53. 15. 7. 12. 8. 10. 11. 7. 7. 7. 7. 7. 7.
      8. 8. 8. 7. 16. 27. 34. 39. 41. 40. 37. 38. 28. 17. 9. 11. 26. 39.
      39. 38. 38. 37. 37. 35. 23. 11. 9. 9. 9. 9. 9. 9. 10. 11. 12. 15.
      15. 54. 14. 8. 15. 9. 10. 12. 8. 7. 7. 7. 6. 7. 8. 9. 9. 16. 26.
      35. 39. 40. 41. 39. 36. 31. 20. 11. 8. 13. 27. 38. 39. 37. 38. 38.
      39. 36. 24. 11. 8. 10. 10. 10. 9. 9. 10. 12. 14. 19. 18. 54. 15.
      10. 18. 10. 9. 11. 8. 7. 7. 6. 6. 7. 8. 10. 11. 24. 32. 40. 41.
      40. 40. 39. 35. 23. 14. 8. 8. 14. 27. 38. 40. 37. 39. 39. 40. 38.
      24. 10. 6. 10. 10. 10. 10. 10. 11. 13. 14. 23. 22. 44. 15. 7. 9.
      9. 9. 6. 7. 6. 5. 7. 10. 8. 5. 11. 21. 32. 38. 40. 38. 40. 41. 35.
      25. 12. 8. 7. 9. 13. 24. 36. 41. 39. 40. 40. 40. 37. 23. 10. 8.
      13. 9. 7. 9. 11. 11. 10. 11. 17. 25. 41. 14. 7. 10. 10. 9. 6. 7.
      7. 6. 7. 8. 7. 10. 19. 29. 39. 42. 42. 41. 40. 37. 28. 18. 10. 8.
      8. 9. 13. 26. 38. 42. 38. 39. 39. 39. 36. 23. 10. 8. 11. 9. 9. 11.
      12. 11. 12. 14. 16. 27. 39. 13. 7. 10. 9. 10. 7. 7. 9. 8. 7. 6. 9.
      17. 28. 37. 41. 41. 41. 40. 37. 29. 17. 9. 8. 8. 8. 8. 12. 27. 39.
      40. 38. 39. 38. 39. 35. 22. 10. 8. 8. 9. 10. 11. 10. 9. 11. 14.
      15. 28. 37. 12. 7. 9. 8. 9. 7. 8. 9. 8. 7. 8. 15. 26. 35. 39. 40.
      38. 38. 37. 31. 19. 11. 7. 9. 10. 10. 8. 12. 28. 40. 39. 39. 40.
      39. 39. 36. 22. 10. 7. 9. 10. 11. 11. 9. 9. 10. 12. 15. 26. 36.
      13. 7. 8. 6. 8. 7. 8. 7. 7. 8. 14. 24. 35. 39. 38. 41. 39. 37. 33.
      24. 12. 8. 9. 10. 11. 11. 9. 13. 29. 41. 40. 38. 39. 39. 39. 36.
      22. 9. 6. 10. 11. 10. 10. 11. 12. 12. 12. 15. 23. 34. 12. 8. 8. 5.
      7. 7. 7. 5. 7. 12. 23. 34. 40. 41. 39. 42. 39. 34. 27. 16. 7. 6.
      9. 8. 8. 10. 10. 14. 28. 39. 39. 37. 38. 37. 38. 35. 23. 12. 10.
      11. 11. 11. 10. 10. 13. 14. 13. 15. 20. 30. 10. 8. 9. 6. 8. 7. 7.
      8. 12. 21. 33. 40. 41. 40. 41. 40. 36. 29. 21. 13. 9. 10. 12. 11.
      11. 14. 16. 20. 29. 38. 38. 38. 38. 37. 38. 37. 28. 20. 20. 20.
      20. 18. 14. 11. 11. 12. 12. 15. 19. 27. 9. 8. 10. 8. 9. 7. 6. 13.
      17. 28. 40. 43. 39. 38. 42. 38. 34. 26. 18. 15. 16. 17. 18. 19.
      18. 22. 27. 29. 34. 40. 40. 40. 40. 38. 39. 39. 33. 27. 29. 32.
      34. 30. 22. 14. 11. 12. 12. 14. 19. 21. 13. 7. 9. 9. 6. 6. 10. 13.
      25. 38. 42. 40. 39. 39. 41. 38. 33. 29. 26. 27. 29. 29. 29. 29.
      30. 33. 35. 36. 37. 39. 40. 40. 40. 40. 40. 40. 40. 39. 38. 37.
      40. 36. 24. 13. 10. 12. 13. 12. 14. 17. 10. 6. 8. 8. 5. 6. 11. 19.
      30. 40. 43. 41. 39. 40. 41. 41. 39. 36. 35. 35. 36. 37. 37. 35.
      37. 38. 39. 39. 39. 40. 40. 41. 41. 40. 40. 40. 41. 40. 40. 37.
      38. 33. 20. 10. 9. 11. 12. 15. 17. 11. 7. 6. 8. 8. 5. 7. 12. 23.
      32. 40. 42. 39. 38. 39. 40. 39. 39. 39. 39. 39. 39. 39. 39. 38.
      39. 40. 40. 39. 39. 39. 39. 42. 41. 40. 41. 41. 42. 42. 42. 39.
      37. 30. 18. 10. 9. 11. 11. 10. 12. 8. 6. 7. 9. 8. 5. 7. 12. 22.
      30. 38. 39. 37. 36. 37. 38. 36. 37. 38. 38. 37. 37. 37. 38. 38.
      38. 38. 38. 37. 37. 38. 38. 39. 39. 40. 42. 42. 41. 40. 39. 35.
      32. 24. 15. 9. 9. 10. 10. 9. 11. 7. 7. 8. 10. 8. 6. 8. 12. 21. 29.
      36. 39. 38. 38. 38. 38. 38. 38. 38. 38. 37. 36. 37. 38. 37. 36.
      36. 35. 35. 36. 38. 40. 38. 38. 40. 42. 41. 36. 31. 29. 24. 21.
      15. 10. 8. 8. 9. 9. 7. 9. 7. 8. 9. 10. 8. 6. 8. 11. 21. 28. 34.
      37. 36. 36. 36. 36. 36. 35. 34. 33. 32. 32. 32. 32. 30. 29. 27.
