<?xml version="1.0"?>
<opencv_storage>
<opencv_ml_svm>
  <format>3</format>
  <svmType>C_SVC</svmType>
  <kernel>
    <type>LINEAR</type></kernel>
  <C>1.</C>
  <term_criteria><iterations>100</iterations></term_criteria>
  <var_count>625</var_count>
  <class_count>2</class_count>
  <class_labels type_id="opencv-matrix">
    <rows>2</rows>
    <cols>1</cols>
    <dt>i</dt>
    <data>
      0 1</data></class_labels>
  <sv_total>1</sv_total>
  <support_vectors>
    <_>
      2.66776973e-04 1.18257485e-04 -1.40343400e-04 1.53686255e-04
      1.70169937e-04 2.38071123e-04 -5.35584113e-05 -5.71283708e-05
      -4.38429670e-05 -9.57421362e-05 -1.00579906e-04 -1.21687881e-04
      4.10711000e-05 1.57960036e-04 5.41191184e-05 6.10595598e-05
      9.20450693e-05 6.82344253e-05 -5.72026984e-05 7.27744846e-05
      1.67454607e-04 7.75783337e-05 1.91258573e-06 -2.18548870e-04
      2.11396200e-05 1.30772372e-04 4.32680281e-05 -6.80537923e-05
      1.37241659e-04 1.62059820e-04 2.25893324e-04 -2.81369958e-05
      -1.94269101e-04 -3.89927482e-05 4.95087988e-06 -7.91779748e-05
      -1.30743108e-04 -5.92418328e-05 1.87399084e-04 4.22299141e-04
      1.59024130e-04 7.05039492e-05 9.62555205e-05 -4.30000327e-05
      7.46768565e-05 1.88482474e-04 1.40200355e-04 6.41434235e-05
      4.37444869e-05 7.57587914e-05 -2.14164538e-05 1.50276867e-06
      -4.76650785e-05 1.51422224e-04 1.05874722e-04 1.19716329e-04
      -8.33542581e-05 -2.84509460e-05 1.31378183e-04 3.10677351e-05
      -1.65902791e-04 -1.69871069e-04 -2.80721579e-05 1.07931402e-04
      2.23797411e-04 1.55172049e-04 -3.30872572e-05 -1.20222692e-04
      -8.84435212e-05 6.57322744e-05 1.18870797e-04 5.57513704e-05
      -2.79252663e-06 2.13434425e-04 2.26364878e-04 7.94940061e-05
      1.25618666e-04 -1.26588229e-05 1.34254951e-04 1.14962175e-04
      1.88950304e-04 9.19415470e-05 1.26367726e-04 7.03726691e-05
      -3.27368798e-05 -4.37135204e-05 -9.70767142e-05 -1.26842046e-04
      -8.09331905e-05 4.21892855e-06 5.05366443e-05 -9.01912790e-05
      -2.37059605e-04 -1.63874836e-04 -3.74164870e-06 -1.23058606e-04
      -9.20843595e-05 6.65084735e-05 3.20164800e-05 1.95083907e-04
      -2.07073936e-06 5.64351758e-05 -5.78856198e-05 3.06291258e-05
      3.03824607e-04 4.75213776e-04 1.12422189e-04 1.37880372e-04
      1.81904135e-04 5.83362744e-05 1.88603644e-05 3.88104709e-05
      7.05848142e-05 -5.16299588e-06 -3.87859400e-05 -6.63164392e-05
      1.74370929e-04 -1.05797248e-04 -2.16858039e-04 -3.94314193e-05
      -6.03952940e-05 -2.29174220e-05 1.63174320e-07 -4.60695082e-05
      9.88916363e-05 -8.91077143e-05 5.16207365e-05 3.48709473e-05
      3.62489154e-05 2.27527446e-04 1.59179530e-04 1.10153669e-05
      1.52274020e-04 2.13165855e-04 1.51795641e-04 1.30963948e-04
      4.67545360e-05 8.09020057e-05 5.08386292e-05 5.98423430e-05
      1.12434675e-04 1.62397351e-04 5.06953293e-05 -1.25778854e-04
      8.45746108e-05 1.19282326e-04 -1.07041909e-04 -1.65657679e-04
      -1.42251854e-04 8.26314426e-05 -2.64134083e-04 -1.63732620e-05
      6.23291344e-05 -7.74039072e-05 -1.75982350e-04 -5.05138814e-05
      1.23997175e-04 1.37223586e-04 2.44304421e-04 9.38542798e-05
      1.36474700e-04 1.86929377e-04 -9.54947518e-06 4.27763007e-05
      2.26127595e-04 2.76974723e-04 2.74127410e-06 -7.64250144e-05
      1.36738861e-04 1.57593720e-04 1.13764465e-04 -2.59755270e-05
      -1.64595767e-04 -7.41587719e-05 9.17215875e-05 -4.62809141e-04
      -1.02404578e-04 -6.30416180e-05 -1.82992197e-04 -1.27295541e-04
      -2.65124836e-05 7.58996757e-05 1.21313431e-04 7.76013258e-05
      8.38498090e-05 1.57309812e-04 8.04701922e-05 1.71378444e-04
      2.55092658e-04 2.80269975e-04 3.12425400e-04 3.30372044e-04
      1.56547365e-04 2.20051617e-04 3.50817369e-04 1.25897684e-04
      -7.08583393e-05 -1.98628637e-04 -1.47558807e-04 1.54665613e-04
      -3.18909268e-04 -8.69822616e-05 -2.13393778e-05 -2.71030312e-05
      -2.92863006e-05 -6.21749714e-05 3.26145237e-05 -4.69835759e-05
      1.04100342e-04 1.08306180e-04 5.64070215e-05 4.19764183e-05
      1.92416657e-04 3.19170096e-04 2.75218801e-04 2.97923834e-04
      2.90817494e-04 2.53498059e-04 2.98239815e-04 3.72296170e-04
      9.23207845e-05 -1.31782654e-04 -2.29141850e-04 -2.51051388e-04
      -1.44652891e-04 -1.25422139e-05 1.91378262e-04 1.26250481e-04
      -4.21339755e-05 -7.63710996e-05 -2.94201036e-05 -7.89363330e-05
      4.48032224e-05 7.94244479e-05 -6.73903924e-05 -2.06677432e-05
      1.18631033e-04 4.13888192e-05 8.67176859e-05 2.03605232e-04
      -1.05034987e-05 -3.04266996e-05 1.16489136e-04 2.43107468e-04
      1.53723799e-04 6.87795036e-05 -9.10506569e-05 2.80709210e-05
      -1.36821487e-04 -2.69714161e-04 1.82091084e-04 2.93800025e-04
      2.09180900e-04 8.80977968e-05 3.81834980e-05 -2.79410542e-05
      1.03134087e-04 -1.05854160e-04 -2.49984820e-04 -8.93934703e-05
      1.71089414e-04 -3.89988236e-05 -1.89334969e-04 -1.69740946e-04
      -1.41969562e-04 -9.27854926e-05 -9.80187469e-05 -2.11338775e-04
      -9.33898700e-05 2.67631374e-04 8.92624375e-05 6.75510819e-05
      -5.78116669e-05 -2.27580913e-05 -8.42438822e-05 1.32092711e-04
      2.81382963e-04 3.67560482e-04 2.13629464e-04 4.66180609e-05
      9.34741256e-05 -8.62111847e-05 -1.81278592e-04 -6.39605132e-05
      5.42124071e-05 -2.83997688e-05 -1.64321013e-04 -2.55790510e-04
      -2.08527301e-04 -2.06740093e-04 -3.67213761e-05 -1.64423647e-04
      -2.16799090e-04 -6.01462598e-05 1.30607077e-04 8.30095451e-06
      9.60260222e-05 -5.51202447e-07 -1.50662061e-04 -1.49468746e-04
      -5.94770063e-05 9.68497407e-05 2.99054256e-04 2.78288237e-04
      8.63483438e-05 -4.83314252e-05 -8.09734338e-05 6.19421407e-05
      7.20788230e-05 3.45307490e-05 1.00735269e-05 -4.15824470e-05
      -1.31194116e-04 -7.75373701e-05 -2.44427702e-05 -1.67761464e-04
      -2.12900486e-04 1.54497702e-05 -7.14405032e-05 -1.12890943e-04
      1.56029491e-04 5.10606287e-06 -9.06824280e-05 -1.71327803e-04
      -9.73482456e-05 3.25125939e-06 1.49160565e-04 2.59544206e-04
      1.45174548e-04 7.00395030e-05 8.87749484e-05 1.02667706e-04
      1.47036490e-05 -1.28519547e-04 -1.04127066e-04 -2.87763196e-05
      -4.78521797e-05 -1.12936781e-04 -1.98000576e-04 -3.27993068e-04
      -1.08711480e-04 -6.58959470e-05 -2.25836247e-05 -1.71307620e-05
      -6.21848594e-05 1.16213287e-05 9.52775372e-06 -1.14112954e-04
      -1.80541057e-04 -2.77381441e-05 -1.99072383e-05 1.12515154e-05
      9.67336382e-05 1.80374132e-04 1.39824915e-04 3.63442341e-05
      2.77562176e-05 -2.47546432e-05 -1.08277163e-04 8.16677202e-05
      7.68082900e-05 7.77768655e-05 3.07960545e-05 -1.60403943e-04
      -2.19345122e-04 -9.15702185e-05 5.80199521e-05 -4.36829250e-05
      8.95102858e-05 -2.25276253e-05 -6.55971380e-05 2.94869715e-05
      -1.10195208e-04 -1.74503675e-05 -7.13574991e-05 -2.86303723e-04
      -1.32580199e-05 1.44261096e-04 2.02194104e-04 -1.94184558e-05
      8.13977531e-05 4.92136132e-05 -2.09996899e-04 7.55058063e-05
      7.85273369e-05 2.78476160e-04 2.92715442e-04 1.74561035e-04
      1.72345652e-04 1.69219304e-04 1.38063915e-04 1.32245637e-04
      -3.48214926e-05 -6.37660778e-05 -5.72725330e-05 -7.37414521e-05
      1.14232556e-04 2.55461073e-05 7.40127289e-05 -2.25888536e-04
      -1.41934899e-04 5.06925498e-05 2.71062716e-04 1.71399501e-04
      7.73033753e-05 -6.43777748e-05 -1.64378551e-04 -7.66747416e-06
      -1.37376672e-04 -2.78529951e-05 1.91511266e-04 2.46950862e-04
      1.26060200e-04 3.07979004e-04 2.69294280e-04 2.71328143e-04
      6.33127856e-05 -8.34220555e-06 -4.25813741e-05 -7.82643765e-05
      -2.00356386e-04 1.00785401e-04 2.08765428e-04 1.46786988e-04
      -1.73270164e-04 -2.75765546e-04 5.28803466e-05 1.17266565e-04
      5.65721130e-05 -1.97720787e-04 -1.41818091e-04 -1.13767142e-04
      -2.34699502e-04 -6.15043100e-05 8.65130642e-05 5.23227391e-05
      -1.14297130e-04 -2.69673419e-05 5.13669111e-05 2.48085096e-04
      1.11487541e-04 9.95854280e-05 -1.81022711e-04 -1.83859156e-04
      -5.98397601e-05 -5.88060248e-05 -5.96262362e-05 2.20586211e-04
      1.29634282e-04 -1.70135943e-04 -1.51307671e-04 1.17262483e-04
      1.07663443e-04 -3.00742977e-05 -8.55142207e-05 -1.84858771e-04
      -1.47256418e-04 -1.25940205e-04 5.49562428e-05 -1.87423902e-05
      7.82107818e-05 1.94329783e-04 -4.56158086e-05 -1.22578713e-05
      1.15148869e-04 1.69577761e-04 9.00371451e-05 -1.63599034e-04
      -1.04317747e-04 4.16491239e-05 7.61999181e-05 8.88567010e-05
      1.35984228e-04 -1.37872221e-05 -1.54496156e-04 3.23355744e-05
      7.07995059e-05 -2.61737168e-05 -1.60464242e-05 -2.31067843e-05
      -5.36992138e-06 -4.43849531e-05 1.04148086e-04 -4.82600917e-05
      1.39692811e-05 1.55580972e-04 1.46638456e-04 -2.98971318e-05
      -3.25266701e-05 2.02038223e-06 4.24667887e-05 1.18768148e-04
      -6.01639113e-05 -2.27625242e-05 1.91247542e-04 3.05734779e-04
      1.94909415e-04 1.14097011e-05 -4.77566136e-05 -6.32979572e-05
      1.61178687e-04 1.04025465e-04 1.21767125e-05 6.47236302e-05
      1.52187669e-04 1.72481687e-05 -6.89867420e-06 -7.13576592e-05
      -3.78767509e-05 6.67182030e-05 -4.14864189e-05 -4.81625029e-05
      7.95521919e-05 4.44158431e-05 -1.08579676e-04 -1.79716866e-04
      -1.01843289e-04 1.95887787e-05 1.27799140e-05 5.27537959e-05
      1.91633342e-04 2.67490745e-04 -1.38837990e-04 -1.83528406e-04
      -1.72547025e-05 1.71259657e-04 1.11383728e-04 5.69924632e-05
      3.03677134e-05 3.29079376e-05 1.03472485e-05 4.21424738e-05
      1.14158043e-04 9.81432604e-05 4.11786677e-05 -2.36808355e-05
      1.76137692e-04 3.16665319e-06 -1.64139230e-04 -1.88515289e-04
      -1.71223568e-04 -2.13862979e-04 4.96661096e-06 1.01057907e-04
      3.03110661e-04 1.25443723e-04 1.26311526e-04 -1.31160588e-04
      -2.22828952e-04 8.99151055e-05 1.13696558e-04 6.14848541e-05
      -9.62321064e-06 2.67271298e-05 2.57476859e-05 3.35184995e-05
      2.47909367e-04 9.93925569e-05 3.33416647e-05 6.72727692e-05
      2.13160209e-04 -7.10638706e-05 -1.47439074e-04 -2.27806828e-04
      -2.05832373e-04 -2.61666137e-04 -8.95775811e-05 -7.30587344e-05
      4.07195948e-05 2.25517244e-04 1.59954187e-04 1.52186331e-04
      -1.49373751e-04 -1.28729807e-04 2.22205374e-04 2.21087612e-04
      6.60115184e-05 -6.34834578e-06 3.62051651e-05 1.07498836e-05
      7.66591620e-05 7.35811554e-05 4.38823190e-05 2.50627258e-04
      1.93250467e-04 -5.00382703e-05 -1.12227885e-04 -1.17734402e-04
      -1.11726345e-04 -1.40342556e-04 -2.04204203e-04 -5.20435788e-05
      1.60095427e-04 8.78244609e-05 -1.82966323e-04 -2.98065352e-05
      9.21532046e-05 -5.32045669e-05 -8.77151979e-05 2.36887965e-04
      3.33790260e-04 2.20659247e-04 9.41963153e-05 4.92396721e-05
      3.54016411e-05 7.67388046e-05 1.68797589e-04 3.15970072e-04
      1.92163585e-04 2.48065189e-04 3.12404562e-04 3.39687598e-04
      2.73240817e-04 1.57328424e-04 6.18155100e-05 1.31941968e-04
      2.30978083e-04 2.78939464e-04 1.69849955e-05 -1.70987732e-05
      1.76312722e-04 2.46306037e-04 5.06299730e-05 -6.26567125e-05
      1.63655175e-04</_></support_vectors>
  <uncompressed_sv_total>91</uncompressed_sv_total>
  <uncompressed_support_vectors>
    <_>
      9. 9. 8. 9. 9. 8. 7. 6. 7. 8. 10. 7. 8. 5. 6. 10. 7. 7. 7. 7. 7.
      7. 7. 7. 6. 8. 7. 6. 5. 6. 6. 6. 5. 7. 5. 6. 3. 8. 7. 6. 5. 6. 6.
      6. 6. 6. 6. 6. 6. 6. 4. 6. 8. 7. 5. 5. 6. 7. 8. 6. 6. 5. 13. 17.
      20. 17. 6. 6. 6. 6. 6. 6. 6. 6. 6. 5. 7. 9. 9. 7. 5. 5. 5. 4. 5.
      11. 20. 36. 43. 39. 24. 7. 6. 6. 6. 6. 7. 8. 8. 7. 8. 6. 6. 7. 7.
      6. 6. 8. 10. 23. 35. 39. 40. 38. 40. 30. 6. 6. 5. 5. 6. 7. 7. 8.
      6. 6. 5. 6. 7. 5. 6. 15. 27. 38. 41. 41. 40. 40. 39. 39. 24. 6. 6.
      6. 6. 6. 6. 6. 6. 6. 9. 7. 7. 8. 4. 5. 22. 43. 40. 40. 39. 40. 42.
      41. 43. 26. 7. 7. 6. 6. 6. 6. 6. 6. 6. 17. 9. 4. 6. 5. 7. 21. 40.
      43. 38. 31. 32. 37. 39. 41. 24. 6. 6. 6. 6. 6. 6. 6. 6. 7. 31. 11.
      8. 5. 5. 7. 21. 39. 28. 18. 9. 26. 38. 39. 41. 25. 6. 6. 6. 6. 6.
      6. 5. 6. 10. 30. 9. 7. 8. 8. 5. 4. 7. 10. 6. 5. 28. 41. 40. 40.
      23. 6. 6. 6. 6. 6. 6. 6. 7. 11. 38. 11. 5. 5. 6. 6. 7. 5. 4. 3. 5.
      28. 40. 40. 40. 24. 6. 6. 6. 6. 6. 5. 6. 8. 13. 41. 12. 8. 7. 5.
      5. 7. 6. 8. 6. 7. 28. 39. 39. 40. 24. 6. 6. 6. 6. 5. 5. 7. 9. 13.
      37. 10. 9. 10. 6. 3. 5. 6. 5. 5. 7. 29. 40. 39. 39. 21. 6. 6. 6.
      6. 5. 5. 7. 9. 15. 33. 8. 6. 8. 7. 6. 7. 9. 5. 5. 6. 28. 40. 40.
      39. 21. 6. 6. 6. 6. 6. 6. 7. 9. 12. 26. 8. 8. 7. 7. 6. 4. 2. 7. 7.
      7. 28. 39. 40. 40. 22. 7. 6. 6. 6. 6. 6. 7. 8. 15. 22. 10. 10. 5.
      5. 7. 7. 7. 4. 5. 7. 29. 40. 40. 39. 20. 7. 6. 6. 6. 6. 6. 6. 7.
      11. 17. 9. 6. 8. 8. 5. 5. 7. 6. 8. 6. 30. 39. 37. 37. 23. 6. 6. 6.
      6. 6. 6. 6. 7. 10. 12. 7. 6. 7. 6. 5. 5. 5. 5. 5. 5. 29. 40. 42.
      40. 23. 6. 6. 6. 6. 6. 6. 6. 6. 8. 7. 6. 6. 6. 5. 5. 6. 5. 6. 6.
      6. 28. 38. 40. 37. 20. 6. 6. 6. 6. 6. 6. 6. 6. 6. 9. 6. 6. 6. 5.
      6. 6. 5. 6. 8. 7. 31. 37. 35. 39. 23. 6. 6. 6. 6. 6. 6. 6. 6. 6.
      12. 7. 5. 7. 6. 5. 6. 6. 5. 8. 4. 33. 36. 28. 37. 20. 6. 6. 6. 6.
      6. 6. 6. 6. 6. 13. 8. 5. 6. 6. 5. 6. 6. 7. 8. 4. 34. 37. 30. 38.
      19. 6. 6. 6. 6. 6. 6. 6. 6. 6. 11. 8. 7. 6. 5. 5. 6. 6. 6. 6. 7.
      29. 31. 32. 38. 23. 6. 6. 6. 6. 6. 6. 7. 7. 6. 7. 8. 8. 7. 5. 6.
      7. 5. 6. 4. 8. 18. 13. 18. 21. 11. 6. 6. 6. 6. 6. 7. 7. 7. 6. 8.
      7. 6. 6. 5. 6. 6. 7. 8. 6. 6. 6. 5. 5. 6. 6. 6. 6. 6. 6. 6. 6. 6.
      6. 6.</_>
    <_>
      7. 10. 8. 8. 10. 7. 4. 9. 7. 7. 10. 9. 7. 8. 8. 9. 8. 8. 7. 7. 7.
      7. 6. 6. 6. 7. 8. 6. 7. 10. 9. 6. 8. 9. 8. 8. 5. 5. 10. 10. 5. 8.
      8. 7. 7. 7. 7. 7. 7. 7. 7. 7. 7. 5. 4. 3. 4. 6. 6. 5. 7. 9. 7. 5.
      6. 8. 7. 7. 6. 6. 6. 6. 7. 7. 6. 6. 6. 9. 9. 6. 5. 7. 8. 5. 6. 5.
      6. 15. 28. 31. 22. 6. 6. 6. 5. 5. 6. 7. 8. 6. 6. 5. 7. 10. 9. 7.
      6. 4. 6. 8. 15. 32. 42. 42. 39. 32. 7. 7. 6. 6. 6. 6. 8. 9. 7. 8.
      6. 6. 6. 5. 4. 9. 16. 23. 35. 39. 39. 38. 40. 43. 33. 7. 6. 6. 6.
      6. 6. 7. 8. 7. 8. 8. 6. 5. 5. 6. 21. 41. 41. 43. 40. 45. 46. 42.
      41. 31. 6. 6. 6. 5. 6. 6. 6. 6. 7. 10. 10. 7. 6. 6. 7. 20. 43. 39.
      43. 38. 39. 39. 39. 40. 29. 7. 7. 6. 6. 6. 6. 6. 5. 8. 23. 9. 9.
      9. 7. 6. 22. 40. 40. 28. 15. 23. 40. 41. 41. 28. 7. 6. 6. 7. 6. 5.
      6. 7. 9. 28. 11. 7. 7. 8. 6. 10. 15. 7. 7. 6. 22. 40. 41. 41. 29.
      7. 6. 6. 7. 6. 5. 6. 8. 11. 26. 12. 10. 8. 9. 8. 7. 5. 5. 5. 6.
      23. 42. 42. 42. 29. 8. 6. 6. 6. 6. 6. 7. 9. 13. 24. 12. 10. 7. 7.
      5. 7. 6. 9. 7. 6. 21. 40. 41. 42. 30. 8. 6. 6. 6. 6. 6. 7. 9. 15.
      32. 15. 9. 6. 7. 5. 5. 5. 3. 5. 7. 23. 40. 40. 41. 31. 8. 6. 5. 6.
      6. 5. 7. 9. 15. 33. 14. 8. 7. 9. 6. 6. 6. 6. 6. 7. 24. 42. 41. 40.
      27. 7. 6. 5. 6. 6. 5. 7. 9. 15. 23. 9. 7. 7. 7. 5. 5. 7. 7. 5. 4.
      21. 41. 42. 41. 27. 7. 6. 6. 6. 6. 5. 7. 9. 13. 24. 11. 9. 8. 8.
      6. 6. 6. 5. 6. 7. 23. 40. 39. 40. 28. 7. 6. 6. 6. 6. 5. 7. 8. 10.
      16. 11. 7. 7. 9. 7. 5. 5. 6. 6. 6. 26. 38. 39. 39. 31. 7. 7. 6. 6.
      6. 6. 7. 8. 10. 9. 8. 7. 8. 8. 6. 5. 6. 6. 7. 6. 23. 38. 40. 41.
      26. 6. 6. 6. 6. 6. 6. 7. 7. 8. 8. 7. 7. 7. 6. 5. 5. 6. 5. 6. 5.
      23. 42. 40. 44. 28. 6. 6. 6. 6. 6. 6. 6. 6. 7. 13. 9. 6. 5. 6. 6.
      6. 5. 6. 4. 6. 25. 40. 30. 37. 26. 6. 6. 6. 6. 6. 6. 6. 6. 6. 13.
      10. 7. 6. 6. 6. 6. 5. 6. 5. 8. 26. 40. 30. 38. 29. 7. 7. 6. 6. 6.
      6. 7. 7. 6. 7. 9. 10. 9. 7. 5. 6. 7. 5. 5. 9. 21. 35. 34. 39. 29.
      7. 7. 6. 6. 6. 6. 7. 7. 5. 6. 8. 10. 9. 7. 5. 6. 6. 7. 6. 7. 12.
      17. 19. 19. 13. 6. 6. 6. 6. 6. 6. 7. 7. 5. 9. 9. 8. 7. 6. 7. 6. 5.
      9. 5. 6. 8. 6. 4. 4. 5. 6. 6. 6. 6. 6. 6. 6. 6. 6. 10. 8. 7. 7. 7.
      7. 7. 7. 7. 7. 7. 7. 8. 8. 8. 7. 6. 9. 7. 7. 8. 7. 7. 6. 7.</_>
    <_>
      8. 9. 11. 8. 8. 9. 9. 8. 7. 7. 10. 11. 8. 9. 11. 9. 8. 8. 10. 7.
      5. 8. 8. 6. 7. 10. 7. 5. 5. 7. 8. 7. 4. 9. 8. 8. 8. 4. 8. 10. 8.
      9. 7. 10. 8. 7. 9. 8. 7. 7. 8. 7. 6. 9. 7. 6. 7. 6. 6. 5. 3. 7. 7.
      15. 14. 13. 9. 5. 6. 5. 5. 7. 6. 7. 7. 7. 8. 9. 12. 8. 6. 6. 6. 8.
      8. 7. 16. 26. 42. 46. 46. 16. 7. 5. 5. 5. 7. 8. 11. 6. 8. 8. 7. 9.
      7. 9. 5. 9. 7. 17. 26. 40. 48. 56. 53. 50. 18. 8. 5. 6. 6. 7. 7.
      11. 7. 8. 7. 7. 7. 5. 10. 8. 28. 38. 45. 50. 50. 52. 53. 53. 53.
      15. 6. 4. 6. 6. 5. 5. 7. 8. 11. 7. 9. 8. 6. 10. 8. 48. 50. 53. 55.
      48. 54. 52. 53. 52. 15. 7. 6. 7. 7. 7. 6. 8. 8. 19. 9. 8. 8. 8.
      10. 4. 51. 54. 50. 46. 36. 50. 51. 55. 51. 14. 6. 5. 5. 5. 6. 6.
      7. 8. 22. 14. 9. 4. 10. 8. 6. 41. 40. 30. 18. 11. 50. 51. 52. 51.
      14. 7. 6. 6. 5. 6. 6. 8. 10. 34. 10. 12. 11. 8. 8. 5. 14. 12. 8.
      6. 7. 50. 52. 53. 51. 13. 6. 6. 6. 5. 7. 6. 8. 12. 50. 13. 13. 8.
      4. 9. 12. 8. 8. 6. 7. 8. 50. 51. 52. 51. 12. 6. 6. 6. 6. 7. 7. 9.
      14. 44. 13. 12. 7. 8. 8. 9. 8. 9. 7. 7. 8. 49. 51. 53. 53. 11. 6.
      6. 6. 6. 7. 7. 9. 15. 38. 13. 12. 8. 11. 6. 5. 7. 5. 5. 6. 8. 51.
      52. 53. 51. 11. 6. 7. 6. 6. 8. 7. 9. 15. 41. 14. 11. 9. 7. 5. 9.
      9. 8. 7. 8. 9. 51. 51. 51. 49. 10. 7. 7. 7. 6. 8. 7. 8. 15. 33.
      11. 8. 9. 7. 7. 7. 4. 7. 6. 6. 7. 48. 49. 50. 49. 9. 6. 7. 6. 5.
      8. 8. 8. 13. 27. 14. 9. 8. 7. 8. 5. 6. 5. 5. 8. 9. 50. 49. 49. 48.
      8. 5. 7. 6. 5. 8. 8. 8. 12. 21. 12. 7. 8. 8. 6. 6. 7. 7. 6. 6. 10.
      47. 48. 51. 49. 8. 7. 6. 6. 5. 6. 7. 9. 10. 13. 8. 7. 8. 8. 7. 6.
      5. 6. 5. 6. 9. 49. 48. 52. 49. 8. 7. 6. 6. 6. 5. 6. 7. 9. 8. 6. 7.
      8. 7. 7. 7. 5. 6. 7. 6. 12. 48. 47. 46. 47. 8. 7. 6. 6. 6. 6. 6.
      6. 8. 10. 8. 7. 7. 6. 6. 7. 6. 6. 8. 3. 16. 46. 44. 39. 44. 8. 6.
      6. 6. 6. 6. 6. 7. 6. 14. 9. 7. 8. 7. 6. 6. 6. 6. 6. 4. 17. 46. 40.
      39. 47. 8. 7. 5. 6. 6. 7. 7. 8. 6. 13. 9. 7. 9. 8. 6. 6. 6. 7. 3.
      8. 14. 44. 34. 39. 45. 8. 7. 6. 6. 6. 7. 8. 9. 7. 10. 8. 8. 9. 7.
      6. 6. 6. 7. 5. 8. 9. 28. 21. 26. 28. 7. 6. 6. 6. 6. 6. 7. 8. 6. 8.
      9. 10. 7. 5. 6. 8. 7. 6. 9. 3. 5. 7. 8. 6. 7. 6. 6. 6. 7. 6. 5. 6.
      7. 6. 10. 9. 7. 8. 8. 8. 7. 7. 8. 7. 7. 8. 8. 8. 8. 8. 8. 9. 8. 7.
      8. 8. 7. 8. 8.</_>
    <_>
      0. 0. 1. 0. 1. 0. 0. 0. 0. 0. 2. 0. 0. 0. 3. 0. 0. 2. 0. 0. 1. 0.
      0. 0. 0. 2. 1. 0. 0. 0. 0. 0. 0. 0. 3. 0. 0. 2. 1. 0. 1. 0. 0. 0.
      0. 1. 0. 0. 1. 0. 0. 0. 0. 0. 0. 0. 1. 1. 3. 0. 0. 0. 0. 2. 2. 2.
      0. 0. 0. 0. 0. 0. 0. 1. 0. 0. 1. 0. 2. 1. 1. 0. 0. 0. 0. 3. 2. 1.
      0. 0. 0. 2. 0. 0. 2. 4. 6. 7. 10. 8. 1. 1. 0. 0. 0. 2. 0. 2. 0. 3.
      0. 3. 23. 32. 34. 40. 20. 9. 7. 6. 6. 7. 6. 7. 7. 0. 0. 1. 1. 0.
      3. 5. 31. 48. 62. 64. 65. 66. 68. 63. 69. 22. 8. 6. 6. 6. 9. 7. 9.
      8. 7. 6. 9. 9. 6. 9. 13. 62. 66. 69. 69. 63. 66. 68. 69. 65. 23.
      8. 7. 6. 4. 6. 4. 5. 8. 21. 11. 10. 10. 9. 8. 8. 65. 67. 65. 61.
      40. 66. 63. 69. 65. 21. 6. 7. 8. 6. 8. 5. 8. 8. 45. 11. 10. 9. 12.
      5. 11. 57. 50. 31. 12. 9. 65. 69. 68. 67. 20. 8. 6. 7. 6. 7. 7. 8.
      10. 22. 17. 14. 7. 9. 8. 9. 8. 9. 8. 7. 11. 65. 67. 67. 67. 20. 9.
      6. 7. 6. 7. 7. 8. 11. 31. 17. 11. 11. 9. 5. 9. 4. 5. 8. 9. 8. 62.
      67. 69. 68. 19. 9. 7. 7. 6. 8. 8. 8. 13. 47. 14. 13. 11. 7. 8. 9.
      11. 9. 10. 8. 8. 64. 70. 69. 65. 18. 8. 7. 7. 6. 8. 8. 8. 15. 58.
      16. 13. 9. 7. 11. 6. 7. 6. 7. 8. 10. 64. 68. 68. 66. 16. 8. 7. 7.
      6. 8. 8. 9. 16. 53. 17. 11. 11. 9. 8. 7. 10. 10. 9. 8. 10. 64. 67.
      68. 68. 15. 7. 8. 8. 6. 8. 8. 9. 17. 32. 15. 13. 10. 9. 8. 9. 7.
      7. 6. 7. 11. 68. 70. 67. 63. 14. 7. 8. 8. 6. 8. 9. 9. 15. 34. 14.
      11. 7. 9. 8. 5. 10. 8. 8. 8. 10. 65. 68. 66. 61. 14. 7. 8. 8. 6.
      9. 9. 9. 14. 31. 16. 7. 9. 10. 7. 6. 9. 7. 9. 7. 12. 63. 66. 67.
      66. 13. 9. 8. 9. 8. 7. 9. 10. 12. 17. 10. 7. 10. 11. 9. 8. 7. 11.
      4. 10. 12. 67. 64. 67. 70. 12. 8. 7. 9. 8. 7. 8. 9. 12. 13. 11. 9.
      7. 5. 6. 8. 7. 5. 10. 9. 13. 63. 66. 71. 66. 11. 8. 7. 8. 8. 7. 8.
      7. 9. 8. 8. 9. 9. 8. 9. 9. 7. 6. 3. 8. 12. 68. 60. 59. 65. 12. 8.
      8. 8. 8. 8. 8. 7. 7. 11. 9. 9. 9. 8. 9. 9. 8. 10. 6. 10. 16. 65.
      63. 45. 65. 11. 8. 8. 8. 7. 8. 9. 8. 8. 18. 12. 8. 7. 6. 6. 8. 9.
      3. 11. 7. 16. 64. 57. 59. 68. 9. 8. 7. 8. 7. 9. 10. 10. 8. 10. 9.
      11. 11. 9. 9. 9. 8. 9. 8. 11. 18. 67. 35. 63. 62. 8. 7. 8. 8. 7.
      8. 10. 9. 7. 12. 13. 14. 11. 6. 6. 8. 8. 9. 5. 8. 9. 19. 11. 12.
      11. 8. 8. 9. 8. 6. 7. 8. 7. 8. 9. 9. 8. 8. 8. 8. 8. 7. 9. 9. 8. 7.
      7. 8. 8. 8. 8. 8. 10. 8. 9. 7. 9. 9. 7.</_>
    <_>
      17. 10. 11. 9. 8. 9. 10. 7. 10. 18. 29. 43. 46. 51. 53. 54. 58.
      59. 58. 34. 10. 8. 9. 8. 8. 19. 13. 12. 11. 11. 9. 10. 7. 9. 18.
      33. 50. 54. 57. 57. 60. 59. 60. 57. 33. 10. 9. 9. 8. 8. 34. 16.
      11. 10. 11. 8. 10. 8. 7. 17. 32. 52. 56. 55. 53. 57. 60. 61. 57.
      32. 10. 9. 8. 7. 7. 77. 25. 13. 11. 10. 9. 9. 9. 11. 17. 30. 48.
      52. 49. 46. 53. 59. 61. 57. 31. 9. 8. 8. 7. 8. 134. 39. 18. 14.
      10. 11. 9. 9. 10. 14. 23. 40. 44. 40. 38. 48. 56. 60. 57. 30. 9.
      8. 7. 8. 9. 166. 49. 18. 13. 10. 10. 9. 9. 8. 10. 15. 29. 32. 28.
      26. 39. 54. 60. 56. 29. 9. 8. 7. 9. 9. 166. 53. 16. 11. 11. 9. 10.
      7. 9. 11. 11. 21. 22. 17. 19. 35. 55. 60. 55. 28. 9. 9. 7. 9. 9.
      158. 57. 16. 11. 13. 7. 11. 5. 7. 8. 6. 12. 12. 9. 14. 34. 56. 61.
      55. 27. 9. 9. 7. 9. 12. 148. 48. 15. 13. 9. 10. 12. 7. 9. 8. 8. 8.
      9. 8. 15. 36. 56. 59. 53. 26. 9. 7. 9. 7. 13. 127. 39. 18. 15. 12.
      9. 9. 8. 9. 8. 8. 8. 9. 8. 16. 36. 57. 60. 53. 25. 9. 7. 9. 8. 15.
      115. 30. 16. 11. 13. 10. 7. 9. 8. 8. 8. 8. 9. 8. 16. 37. 58. 60.
      52. 23. 9. 7. 9. 9. 13. 110. 22. 14. 10. 13. 10. 8. 8. 8. 8. 8. 8.
      9. 8. 17. 38. 58. 61. 51. 22. 9. 8. 9. 9. 11. 102. 16. 15. 13. 11.
      9. 9. 8. 7. 8. 8. 8. 8. 8. 18. 40. 58. 61. 50. 21. 10. 8. 8. 9.
      13. 96. 17. 15. 13. 10. 9. 11. 7. 8. 8. 8. 8. 8. 8. 19. 43. 58.
      61. 49. 19. 10. 8. 8. 9. 15. 78. 17. 13. 11. 9. 11. 10. 8. 8. 8.
      8. 7. 8. 9. 20. 44. 58. 61. 48. 18. 9. 8. 7. 9. 14. 51. 12. 13.
      11. 10. 11. 8. 10. 8. 8. 8. 7. 7. 9. 21. 45. 59. 61. 47. 16. 8. 8.
      7. 10. 12. 37. 17. 12. 11. 11. 9. 10. 8. 9. 9. 8. 9. 7. 7. 23. 46.
      59. 61. 46. 16. 8. 8. 7. 8. 11. 38. 18. 13. 11. 10. 9. 10. 7. 8.
      8. 8. 9. 8. 8. 23. 46. 58. 60. 45. 15. 8. 8. 7. 8. 10. 36. 18. 13.
      10. 10. 9. 10. 7. 7. 8. 8. 9. 8. 9. 24. 47. 58. 60. 44. 15. 8. 8.
      7. 8. 10. 30. 16. 13. 10. 10. 9. 9. 8. 8. 8. 8. 8. 8. 10. 26. 48.
      58. 59. 44. 14. 8. 8. 7. 8. 9. 22. 13. 13. 11. 10. 8. 8. 8. 8. 9.
      8. 7. 8. 11. 27. 50. 59. 59. 43. 14. 8. 8. 7. 8. 8. 17. 12. 13.
      10. 10. 8. 7. 7. 8. 9. 7. 7. 8. 11. 29. 51. 58. 58. 42. 13. 8. 9.
      7. 8. 8. 16. 11. 12. 8. 9. 8. 7. 7. 8. 9. 7. 7. 8. 12. 29. 51. 56.
      56. 40. 11. 7. 9. 8. 8. 9. 16. 11. 10. 6. 9. 9. 8. 8. 7. 8. 7. 7.
      8. 12. 29. 50. 55. 55. 39. 10. 7. 9. 8. 8. 7. 14. 9. 10. 9. 8. 9.
      8. 8. 8. 8. 8. 7. 7. 14. 31. 51. 53. 53. 36. 11. 7. 7. 8. 9. 10.</_>
    <_>
      9. 9. 10. 7. 5. 7. 7. 9. 7. 11. 6. 11. 35. 57. 59. 56. 26. 8. 9.
      8. 8. 8. 9. 9. 8. 6. 9. 9. 6. 8. 11. 8. 6. 9. 5. 22. 47. 58. 63.
      62. 52. 28. 9. 9. 8. 7. 8. 8. 8. 8. 7. 9. 8. 5. 7. 7. 5. 12. 20.
      45. 61. 59. 59. 59. 60. 61. 29. 9. 9. 8. 7. 7. 8. 7. 8. 8. 8. 8.
      8. 9. 7. 16. 41. 62. 59. 60. 60. 61. 61. 62. 56. 29. 9. 8. 8. 8.
      7. 8. 8. 8. 9. 7. 8. 9. 9. 7. 24. 57. 58. 59. 63. 62. 65. 62. 62.
      58. 30. 9. 8. 8. 8. 7. 8. 8. 7. 13. 10. 8. 7. 7. 8. 23. 51. 62.
      59. 63. 58. 59. 58. 63. 59. 31. 10. 8. 8. 8. 7. 8. 8. 9. 21. 12.
      9. 9. 9. 11. 26. 50. 55. 65. 49. 26. 47. 61. 62. 59. 31. 9. 8. 8.
      8. 7. 8. 8. 10. 32. 16. 9. 11. 8. 6. 21. 48. 53. 28. 12. 17. 50.
      59. 61. 59. 31. 9. 7. 8. 9. 8. 9. 9. 11. 40. 15. 12. 10. 8. 9. 13.
      17. 7. 8. 8. 18. 47. 60. 61. 60. 32. 9. 7. 7. 8. 7. 9. 11. 14. 46.
      17. 13. 11. 8. 8. 8. 8. 7. 8. 8. 17. 46. 60. 61. 60. 33. 10. 7. 8.
      8. 7. 8. 10. 16. 54. 17. 12. 11. 9. 8. 7. 5. 8. 9. 8. 17. 45. 60.
      61. 59. 33. 10. 8. 8. 8. 7. 9. 10. 18. 63. 18. 11. 10. 9. 9. 9. 8.
      8. 9. 8. 16. 45. 60. 62. 60. 33. 10. 7. 8. 8. 8. 9. 11. 15. 72.
      19. 13. 10. 9. 8. 9. 8. 8. 9. 7. 15. 45. 60. 62. 60. 33. 10. 8. 8.
      8. 8. 10. 11. 15. 75. 17. 13. 12. 10. 7. 9. 8. 8. 9. 7. 15. 45.
      61. 62. 60. 34. 11. 8. 8. 8. 7. 9. 11. 14. 77. 14. 11. 12. 11. 8.
      10. 8. 8. 9. 7. 15. 44. 61. 62. 58. 34. 11. 8. 8. 8. 7. 9. 11. 10.
      81. 15. 11. 11. 10. 7. 9. 7. 8. 9. 7. 15. 44. 60. 61. 57. 34. 10.
      8. 8. 8. 8. 9. 11. 12. 81. 14. 13. 10. 9. 8. 8. 9. 8. 8. 8. 13.
      42. 60. 60. 57. 35. 10. 8. 8. 8. 7. 10. 10. 13. 76. 10. 12. 13.
      10. 7. 9. 7. 8. 9. 9. 13. 41. 59. 60. 59. 37. 11. 8. 8. 7. 7. 9.
      9. 13. 80. 12. 9. 11. 9. 8. 10. 6. 7. 8. 9. 13. 40. 58. 60. 61.
      38. 11. 8. 8. 8. 8. 9. 8. 10. 68. 14. 8. 8. 8. 8. 10. 8. 7. 8. 8.
      13. 41. 58. 60. 61. 38. 11. 7. 8. 8. 8. 9. 8. 10. 33. 9. 10. 7. 8.
      6. 6. 10. 8. 8. 8. 14. 42. 58. 59. 58. 38. 11. 7. 8. 8. 8. 9. 7.
      9. 11. 6. 10. 6. 9. 8. 6. 10. 8. 8. 7. 13. 41. 56. 55. 54. 39. 12.
      8. 8. 8. 8. 8. 7. 8. 10. 9. 10. 5. 8. 10. 8. 8. 8. 7. 7. 12. 39.
      53. 52. 51. 40. 13. 8. 8. 7. 7. 9. 8. 10. 8. 8. 12. 8. 6. 8. 9. 7.
      8. 8. 7. 13. 40. 54. 53. 53. 40. 13. 8. 7. 7. 8. 10. 10. 9. 16.
      10. 10. 8. 7. 8. 7. 8. 8. 7. 9. 13. 37. 51. 52. 57. 41. 12. 7. 6.
      7. 8. 8. 8. 8.</_>
    <_>
      8. 5. 8. 8. 7. 8. 7. 7. 7. 8. 8. 7. 7. 6. 7. 8. 7. 7. 7. 7. 7. 7.
      7. 7. 6. 7. 4. 6. 5. 5. 7. 5. 5. 6. 5. 5. 6. 7. 8. 6. 4. 6. 6. 6.
      6. 6. 6. 6. 6. 6. 5. 5. 8. 6. 5. 6. 5. 7. 8. 6. 4. 5. 10. 16. 20.
      21. 6. 6. 6. 6. 6. 6. 7. 7. 6. 5. 6. 8. 7. 7. 7. 4. 6. 5. 4. 6.
      17. 31. 40. 38. 32. 7. 7. 6. 6. 6. 7. 7. 8. 6. 8. 6. 5. 4. 7. 7.
      4. 7. 7. 18. 30. 36. 36. 36. 36. 37. 7. 6. 6. 5. 5. 6. 7. 7. 7. 6.
      6. 6. 5. 5. 5. 10. 24. 34. 35. 36. 35. 36. 37. 36. 33. 6. 6. 6. 5.
      5. 6. 6. 6. 7. 6. 7. 8. 7. 5. 5. 15. 37. 36. 37. 36. 35. 36. 39.
      39. 37. 7. 7. 6. 6. 6. 6. 6. 6. 7. 13. 9. 6. 5. 7. 6. 13. 34. 36.
      35. 32. 31. 34. 38. 37. 33. 7. 6. 6. 6. 6. 6. 6. 6. 9. 18. 9. 9.
      5. 7. 5. 13. 34. 30. 20. 9. 20. 34. 37. 38. 35. 7. 6. 6. 6. 6. 6.
      6. 7. 10. 26. 10. 5. 3. 8. 6. 5. 12. 8. 6. 4. 21. 38. 39. 39. 34.
      7. 6. 6. 6. 6. 6. 6. 7. 11. 31. 12. 9. 6. 9. 7. 4. 5. 4. 5. 5. 21.
      36. 37. 37. 34. 7. 6. 6. 6. 6. 6. 6. 7. 13. 28. 10. 10. 6. 5. 5.
      7. 7. 7. 7. 6. 20. 34. 37. 40. 38. 7. 6. 6. 6. 6. 6. 7. 7. 13. 30.
      10. 9. 5. 4. 6. 7. 5. 5. 6. 5. 20. 35. 38. 39. 36. 7. 6. 6. 6. 6.
      6. 7. 7. 13. 31. 12. 10. 7. 6. 7. 7. 5. 6. 6. 6. 21. 36. 38. 36.
      31. 7. 6. 6. 6. 6. 6. 6. 7. 13. 26. 9. 9. 6. 5. 4. 5. 6. 5. 5. 4.
      20. 36. 39. 39. 33. 7. 6. 6. 6. 6. 6. 6. 7. 12. 27. 10. 8. 5. 7.
      5. 5. 7. 6. 6. 5. 20. 36. 38. 37. 30. 7. 6. 6. 6. 6. 6. 6. 7. 10.
      22. 13. 6. 7. 8. 6. 5. 7. 4. 6. 6. 21. 34. 36. 38. 34. 6. 6. 6. 6.
      6. 6. 6. 6. 9. 16. 10. 6. 6. 7. 5. 5. 7. 6. 6. 5. 20. 34. 37. 39.
      35. 6. 6. 6. 6. 6. 6. 6. 6. 7. 9. 7. 6. 6. 6. 5. 6. 7. 8. 6. 5.
      20. 35. 36. 36. 33. 6. 6. 6. 6. 6. 6. 6. 6. 7. 6. 6. 6. 6. 6. 6.
      6. 6. 5. 5. 6. 22. 36. 37. 35. 33. 6. 6. 6. 6. 6. 6. 6. 6. 7. 8.
      8. 7. 7. 7. 8. 7. 6. 7. 6. 8. 18. 26. 24. 21. 20. 3. 3. 3. 3. 3.
      3. 3. 3. 3. 1. 0. 0. 0. 0. 0. 0. 0. 0. 0. 0. 1. 3. 0. 0. 0. 0. 0.
      0. 0. 0. 0. 0. 0. 0. 2. 1. 0. 1. 1. 0. 0. 1. 0. 0. 0. 0. 1. 1. 0.
      2. 0. 0. 0. 0. 0. 0. 0. 0. 0. 0. 0. 0. 1. 0. 0. 0. 1. 0. 1. 1. 0.
      0. 0. 0. 0. 0. 0. 0. 0. 0. 0. 0. 0. 0. 0. 0. 0. 0. 0. 0. 0. 0. 0.
      0. 0. 0. 0. 0. 0. 0. 0. 0. 0. 0. 0. 0. 0. 0. 0.</_>
    <_>
      10. 13. 11. 10. 15. 9. 15. 28. 43. 58. 68. 70. 69. 67. 65. 62. 57.
      42. 32. 19. 13. 10. 15. 13. 12. 11. 11. 11. 10. 13. 8. 25. 45. 60.
      58. 58. 64. 65. 59. 60. 65. 64. 63. 53. 29. 15. 10. 14. 12. 12.
      14. 11. 13. 11. 11. 6. 33. 58. 60. 61. 66. 70. 69. 66. 65. 66. 64.
      69. 64. 42. 22. 8. 8. 12. 13. 14. 9. 14. 11. 10. 7. 35. 56. 62.
      57. 46. 31. 26. 36. 49. 59. 65. 66. 65. 51. 28. 11. 11. 15. 14.
      11. 8. 12. 11. 11. 10. 30. 39. 31. 23. 16. 12. 14. 20. 32. 52. 65.
      63. 66. 54. 23. 12. 16. 14. 14. 11. 10. 11. 12. 11. 11. 19. 19.
      14. 11. 11. 11. 12. 9. 16. 44. 62. 57. 66. 60. 23. 8. 13. 12. 13.
      12. 13. 10. 13. 10. 11. 12. 11. 12. 16. 16. 10. 10. 5. 13. 48. 62.
      57. 66. 64. 27. 8. 11. 14. 13. 11. 12. 8. 13. 9. 12. 12. 14. 10.
      12. 12. 10. 14. 7. 12. 51. 63. 64. 65. 55. 21. 10. 11. 13. 12. 11.
      10. 11. 11. 11. 10. 10. 12. 11. 11. 12. 10. 10. 10. 24. 57. 63.
      64. 66. 46. 16. 13. 14. 13. 13. 11. 11. 11. 11. 10. 9. 11. 13. 11.
      9. 13. 10. 6. 19. 42. 63. 61. 65. 57. 36. 15. 12. 11. 13. 13. 12.
      12. 12. 11. 10. 10. 11. 12. 12. 10. 13. 11. 17. 41. 59. 61. 64.
      63. 41. 23. 15. 13. 10. 13. 11. 12. 12. 12. 10. 10. 10. 10. 10.
      11. 10. 10. 19. 38. 56. 61. 61. 65. 54. 24. 14. 15. 14. 12. 12.
      11. 12. 12. 11. 11. 11. 11. 10. 9. 8. 10. 19. 36. 53. 59. 62. 66.
      53. 37. 14. 13. 13. 12. 12. 11. 12. 12. 10. 10. 11. 11. 10. 10.
      11. 9. 23. 41. 54. 59. 67. 69. 55. 34. 22. 12. 16. 12. 11. 12. 11.
      11. 10. 9. 10. 12. 11. 9. 12. 16. 24. 43. 57. 62. 64. 66. 57. 32.
      20. 15. 14. 15. 11. 13. 11. 12. 11. 9. 8. 10. 12. 11. 8. 13. 20.
      44. 57. 58. 62. 65. 49. 31. 21. 15. 14. 13. 11. 10. 15. 10. 11.
      12. 7. 9. 9. 11. 10. 4. 15. 41. 57. 59. 67. 66. 51. 28. 12. 11.
      14. 13. 11. 14. 11. 11. 10. 12. 12. 9. 9. 9. 10. 9. 10. 28. 52.
      59. 63. 63. 48. 29. 17. 12. 13. 11. 10. 8. 12. 11. 13. 11. 12. 12.
      11. 8. 9. 8. 6. 17. 42. 60. 61. 66. 58. 30. 9. 6. 6. 5. 7. 5. 5.
      9. 8. 11. 10. 11. 12. 13. 10. 12. 8. 5. 27. 54. 62. 61. 64. 58.
      38. 25. 26. 25. 22. 28. 28. 26. 23. 14. 13. 13. 13. 13. 12. 10.
      11. 4. 5. 34. 62. 62. 63. 63. 64. 61. 59. 61. 62. 66. 65. 64. 59.
      45. 21. 13. 11. 12. 13. 10. 10. 9. 3. 8. 39. 65. 64. 61. 58. 61.
      62. 61. 60. 63. 72. 68. 68. 64. 48. 20. 11. 12. 13. 11. 12. 13.
      11. 7. 15. 40. 60. 62. 73. 71. 73. 71. 67. 65. 66. 72. 76. 74. 68.
      51. 22. 14. 13. 11. 11. 9. 11. 10. 8. 15. 32. 47. 52. 55. 57. 60.
      58. 58. 60. 58. 57. 52. 50. 46. 35. 15. 13. 15. 12. 12. 9. 12. 11.
      9. 13. 18. 19. 19. 17. 16. 19. 22. 18. 20. 17. 18. 17. 18. 21. 17.
      12. 13. 13. 12. 12.</_>
    <_>
      13. 10. 12. 12. 8. 12. 26. 38. 52. 61. 62. 64. 69. 59. 54. 46. 30.
      12. 13. 11. 16. 16. 10. 12. 12. 11. 11. 14. 13. 10. 23. 46. 59.
      64. 63. 59. 56. 63. 63. 62. 59. 49. 27. 18. 11. 13. 14. 12. 12.
      12. 13. 12. 13. 8. 8. 29. 54. 62. 68. 68. 70. 63. 62. 61. 62. 64.
      64. 44. 23. 9. 10. 11. 13. 12. 12. 13. 12. 12. 7. 11. 36. 55. 53.
      50. 42. 37. 36. 45. 53. 61. 59. 63. 57. 29. 7. 11. 11. 12. 12. 12.
      10. 11. 12. 9. 13. 32. 42. 33. 21. 13. 4. 11. 25. 39. 62. 61. 58.
      68. 38. 8. 14. 13. 11. 13. 12. 9. 12. 13. 11. 10. 17. 19. 13. 9.
      13. 12. 16. 14. 21. 58. 66. 58. 72. 45. 11. 14. 12. 10. 13. 12. 9.
      11. 12. 11. 11. 11. 11. 12. 13. 13. 13. 13. 6. 15. 54. 65. 61. 68.
      47. 15. 12. 11. 11. 12. 13. 12. 11. 9. 10. 12. 9. 8. 14. 13. 10.
      14. 13. 7. 18. 53. 64. 63. 62. 46. 19. 11. 12. 14. 11. 13. 10. 11.
      12. 11. 9. 11. 14. 13. 14. 9. 11. 10. 6. 28. 59. 63. 63. 61. 40.
      16. 12. 15. 13. 12. 12. 11. 10. 11. 12. 12. 12. 12. 10. 11. 14.
      13. 8. 13. 38. 61. 63. 65. 55. 33. 15. 12. 13. 11. 11. 11. 10. 9.
      10. 11. 12. 11. 9. 9. 11. 12. 9. 11. 30. 52. 60. 62. 65. 45. 24.
      14. 13. 12. 11. 12. 11. 9. 10. 11. 10. 10. 9. 9. 11. 12. 10. 15.
      29. 51. 62. 61. 66. 57. 34. 17. 14. 14. 13. 13. 13. 12. 10. 13.
      12. 10. 11. 10. 9. 10. 7. 15. 31. 48. 60. 65. 63. 63. 43. 24. 13.
      13. 13. 13. 14. 13. 13. 11. 13. 10. 9. 12. 11. 8. 9. 12. 30. 47.
      57. 61. 64. 61. 45. 28. 18. 12. 12. 11. 12. 13. 11. 13. 11. 11. 9.
      10. 13. 9. 9. 17. 35. 51. 57. 64. 64. 58. 49. 26. 17. 14. 12. 13.
      12. 11. 12. 11. 11. 11. 11. 10. 12. 12. 7. 13. 29. 51. 61. 58. 67.
      64. 42. 30. 16. 12. 12. 12. 13. 13. 12. 12. 12. 11. 11. 9. 10. 13.
      7. 9. 24. 46. 60. 63. 66. 61. 45. 27. 16. 14. 12. 14. 13. 11. 12.
      12. 11. 12. 11. 11. 10. 11. 11. 6. 16. 36. 57. 58. 65. 61. 43. 25.
      17. 16. 14. 15. 14. 13. 12. 13. 12. 10. 11. 12. 10. 11. 12. 9. 5.
      26. 48. 63. 65. 62. 49. 27. 12. 9. 11. 11. 11. 9. 8. 10. 11. 10.
      10. 12. 12. 9. 11. 12. 8. 7. 37. 55. 60. 66. 58. 42. 25. 13. 9. 9.
      9. 10. 10. 11. 11. 9. 9. 12. 14. 11. 9. 10. 11. 7. 10. 47. 59. 59.
      62. 63. 57. 46. 41. 43. 44. 41. 42. 42. 40. 29. 16. 11. 12. 12.
      12. 9. 10. 8. 6. 12. 52. 62. 62. 63. 63. 64. 65. 66. 68. 69. 69.
      67. 68. 64. 46. 22. 12. 12. 10. 12. 9. 11. 9. 6. 12. 51. 59. 65.
      63. 60. 60. 64. 65. 62. 61. 62. 65. 66. 64. 48. 23. 11. 13. 12.
      11. 11. 14. 11. 8. 12. 49. 56. 65. 66. 71. 74. 71. 68. 68. 69. 69.
      70. 69. 68. 52. 25. 11. 11. 12. 11. 11. 11. 11. 11. 17. 30. 41.
      45. 46. 48. 47. 49. 48. 47. 51. 54. 54. 57. 53. 40. 22. 11. 13.
      13. 11.</_>
    <_>
      8. 13. 8. 10. 11. 10. 5. 13. 26. 45. 51. 58. 60. 61. 57. 47. 31.
      16. 7. 13. 14. 13. 12. 9. 12. 11. 12. 8. 9. 10. 8. 16. 36. 55. 63.
      62. 67. 64. 63. 63. 60. 53. 42. 22. 12. 10. 14. 11. 11. 12. 11. 9.
      9. 11. 10. 5. 23. 53. 62. 62. 58. 61. 59. 61. 63. 64. 63. 61. 42.
      17. 8. 15. 9. 11. 12. 8. 7. 10. 11. 11. 4. 26. 58. 63. 60. 55. 54.
      54. 59. 58. 60. 60. 65. 57. 31. 9. 13. 8. 13. 13. 10. 8. 10. 10.
      10. 7. 26. 50. 49. 38. 23. 12. 11. 23. 35. 55. 62. 63. 65. 46. 11.
      11. 10. 15. 12. 10. 10. 11. 10. 10. 7. 16. 28. 20. 15. 12. 10. 9.
      11. 16. 47. 63. 59. 65. 56. 14. 11. 12. 12. 11. 9. 10. 10. 11. 9.
      8. 7. 10. 10. 10. 12. 12. 14. 9. 6. 39. 61. 59. 65. 60. 15. 9. 12.
      10. 11. 10. 10. 7. 9. 7. 10. 9. 10. 12. 13. 10. 7. 12. 12. 6. 38.
      63. 65. 67. 59. 13. 6. 13. 13. 11. 10. 10. 10. 9. 8. 8. 9. 10. 10.
      9. 11. 9. 14. 10. 10. 43. 62. 60. 68. 51. 14. 11. 12. 12. 11. 10.
      10. 10. 10. 9. 9. 9. 10. 10. 8. 9. 11. 10. 9. 24. 54. 63. 62. 63.
      45. 14. 10. 10. 9. 11. 9. 10. 10. 10. 10. 10. 10. 10. 12. 8. 11.
      12. 3. 14. 44. 56. 60. 63. 55. 34. 12. 11. 12. 10. 10. 9. 9. 10.
      10. 10. 10. 10. 10. 9. 9. 8. 7. 13. 36. 58. 58. 60. 63. 46. 23.
      10. 11. 14. 12. 9. 9. 9. 9. 9. 10. 10. 10. 10. 8. 10. 8. 13. 39.
      56. 57. 61. 63. 55. 32. 15. 11. 10. 11. 11. 8. 9. 9. 9. 9. 9. 10.
      10. 10. 9. 7. 22. 42. 55. 60. 60. 65. 56. 35. 17. 11. 14. 10. 9.
      12. 10. 9. 9. 9. 9. 10. 10. 9. 9. 10. 18. 42. 62. 60. 61. 65. 56.
      35. 16. 12. 10. 13. 12. 11. 12. 11. 9. 9. 9. 10. 10. 10. 9. 8. 18.
      48. 57. 60. 65. 65. 56. 32. 16. 8. 17. 11. 9. 12. 12. 10. 11. 10.
      11. 9. 10. 11. 9. 8. 16. 41. 59. 61. 62. 64. 51. 31. 15. 11. 12.
      11. 9. 13. 15. 12. 10. 11. 10. 10. 11. 9. 12. 10. 10. 31. 53. 58.
      63. 65. 50. 25. 13. 10. 11. 11. 16. 12. 10. 11. 8. 13. 10. 10. 10.
      11. 9. 12. 9. 15. 49. 62. 61. 63. 54. 28. 10. 12. 13. 13. 9. 14.
      9. 10. 14. 9. 13. 11. 11. 9. 11. 9. 9. 5. 24. 58. 59. 61. 60. 46.
      23. 13. 12. 5. 6. 4. 5. 5. 7. 13. 11. 8. 11. 11. 10. 9. 11. 7. 5.
      38. 61. 64. 61. 58. 52. 49. 49. 51. 53. 53. 54. 49. 47. 32. 15.
      14. 9. 10. 10. 10. 9. 12. 8. 8. 48. 62. 60. 62. 64. 65. 69. 68.
      63. 66. 66. 66. 63. 69. 46. 11. 12. 12. 12. 10. 10. 10. 10. 9. 10.
      47. 61. 60. 62. 65. 62. 63. 65. 62. 65. 62. 61. 61. 70. 46. 11.
      11. 12. 13. 10. 10. 11. 7. 9. 10. 41. 59. 64. 63. 69. 70. 68. 67.
      64. 66. 69. 69. 71. 71. 44. 14. 11. 12. 11. 10. 9. 9. 9. 9. 9. 23.
      30. 33. 32. 31. 32. 32. 32. 31. 29. 27. 27. 30. 27. 24. 15. 12.
      11. 11.</_>
    <_>
      13. 11. 9. 10. 18. 34. 51. 62. 66. 65. 63. 56. 46. 36. 25. 15. 13.
      11. 11. 11. 10. 10. 11. 10. 9. 11. 12. 16. 26. 41. 55. 62. 64. 66.
      66. 66. 64. 59. 51. 40. 28. 17. 13. 11. 12. 11. 11. 11. 10. 10.
      11. 12. 19. 32. 48. 59. 62. 61. 65. 64. 64. 63. 61. 56. 46. 35.
      22. 15. 12. 13. 13. 11. 11. 10. 10. 9. 13. 23. 39. 55. 64. 65. 63.
      56. 56. 59. 62. 64. 62. 54. 44. 29. 18. 12. 13. 13. 11. 11. 11.
      10. 11. 13. 22. 35. 45. 42. 31. 20. 23. 28. 39. 50. 58. 60. 55.
      45. 34. 21. 12. 12. 13. 11. 11. 11. 10. 8. 10. 16. 24. 27. 22. 12.
      5. 8. 14. 27. 41. 53. 59. 57. 50. 37. 23. 12. 12. 12. 11. 11. 11.
      10. 10. 11. 13. 15. 14. 12. 12. 13. 10. 14. 23. 36. 48. 56. 57.
      51. 38. 24. 13. 11. 12. 12. 11. 10. 10. 11. 9. 9. 12. 13. 12. 12.
      12. 9. 13. 23. 36. 48. 57. 57. 50. 38. 25. 14. 12. 12. 13. 12. 9.
      10. 10. 11. 10. 11. 11. 9. 10. 14. 9. 12. 24. 39. 50. 58. 56. 48.
      35. 24. 14. 11. 10. 11. 11. 9. 9. 10. 11. 10. 9. 10. 10. 10. 11.
      11. 16. 29. 44. 53. 56. 53. 45. 33. 22. 13. 11. 10. 10. 10. 8. 9.
      8. 11. 10. 9. 10. 11. 10. 9. 12. 21. 36. 50. 56. 57. 51. 42. 30.
      20. 12. 12. 11. 10. 9. 8. 8. 8. 10. 10. 10. 11. 10. 9. 11. 15. 28.
      44. 54. 59. 59. 49. 38. 26. 17. 12. 13. 12. 10. 9. 9. 9. 9. 10.
      10. 11. 10. 7. 9. 15. 27. 41. 53. 57. 59. 56. 43. 29. 21. 14. 11.
      13. 12. 10. 10. 10. 10. 10. 10. 10. 10. 9. 7. 13. 24. 41. 52. 59.
      58. 56. 49. 35. 22. 15. 11. 11. 12. 10. 9. 10. 10. 10. 10. 10. 9.
      9. 11. 15. 27. 40. 52. 58. 59. 56. 50. 38. 24. 17. 12. 11. 12. 11.
      9. 9. 10. 9. 9. 9. 10. 9. 9. 14. 25. 40. 54. 60. 61. 59. 54. 45.
      28. 14. 12. 11. 12. 13. 11. 8. 9. 10. 10. 10. 9. 12. 9. 12. 24.
      38. 52. 60. 61. 60. 55. 44. 29. 18. 14. 11. 11. 12. 12. 11. 10. 9.
      9. 10. 11. 10. 10. 10. 20. 36. 48. 57. 61. 60. 52. 41. 30. 18. 12.
      12. 12. 11. 11. 11. 11. 10. 10. 9. 9. 9. 9. 9. 14. 31. 46. 55. 60.
      58. 54. 41. 27. 18. 11. 9. 10. 10. 10. 10. 9. 10. 10. 10. 10. 9.
      10. 9. 11. 21. 39. 50. 56. 58. 52. 42. 29. 19. 15. 14. 13. 13. 12.
      11. 10. 10. 9. 9. 9. 10. 10. 9. 9. 15. 28. 44. 53. 56. 54. 44. 29.
      18. 10. 10. 10. 11. 12. 11. 9. 9. 10. 10. 10. 9. 9. 9. 9. 8. 18.
      31. 47. 57. 59. 53. 41. 25. 16. 8. 6. 5. 5. 7. 7. 6. 7. 8. 10. 10.
      10. 10. 10. 11. 9. 21. 35. 50. 60. 60. 57. 51. 41. 36. 32. 30. 27.
      25. 23. 19. 17. 14. 11. 10. 11. 12. 11. 11. 11. 11. 25. 39. 53.
      62. 60. 61. 65. 64. 64. 67. 68. 65. 61. 54. 46. 35. 28. 19. 13.
      12. 12. 11. 10. 10. 12. 25. 38. 52. 60. 61. 63. 64. 61. 59. 65.
      65. 66. 63. 62. 56. 48. 35. 25. 17. 12. 11. 9. 10. 11.</_>
    <_>
      10. 9. 7. 4. 3. 5. 9. 12. 21. 30. 32. 28. 20. 14. 13. 9. 13. 15.
      13. 12. 14. 13. 9. 10. 10. 9. 13. 16. 17. 18. 28. 46. 60. 66. 70.
      67. 63. 55. 43. 31. 18. 14. 13. 11. 11. 12. 12. 10. 10. 12. 15.
      12. 13. 22. 36. 50. 58. 61. 61. 63. 60. 62. 62. 58. 48. 35. 21.
      14. 10. 10. 11. 11. 11. 10. 10. 14. 10. 12. 24. 44. 59. 62. 60.
      66. 67. 64. 65. 66. 64. 58. 48. 31. 18. 11. 12. 11. 10. 11. 10. 9.
      11. 10. 14. 26. 41. 49. 48. 43. 31. 36. 40. 49. 57. 61. 60. 54.
      40. 24. 14. 12. 11. 10. 11. 10. 10. 13. 11. 12. 20. 28. 28. 20.
      12. 10. 13. 18. 31. 47. 57. 60. 56. 44. 29. 15. 12. 11. 11. 10.
      10. 10. 12. 12. 12. 13. 14. 15. 15. 15. 14. 13. 13. 24. 40. 51.
      56. 53. 46. 32. 16. 11. 12. 12. 10. 10. 10. 12. 11. 11. 11. 12.
      13. 12. 11. 13. 13. 13. 24. 39. 50. 57. 56. 47. 34. 17. 10. 13.
      12. 10. 11. 10. 11. 12. 12. 12. 14. 13. 10. 10. 11. 10. 13. 26.
      41. 52. 57. 52. 47. 32. 18. 11. 11. 12. 12. 9. 10. 11. 13. 13. 11.
      11. 11. 11. 12. 11. 11. 15. 31. 45. 53. 57. 53. 43. 29. 16. 12.
      11. 12. 12. 10. 10. 11. 13. 12. 11. 12. 12. 11. 12. 10. 14. 25.
      42. 53. 56. 56. 50. 36. 24. 14. 12. 12. 11. 11. 10. 10. 12. 11.
      10. 12. 14. 13. 11. 11. 15. 25. 37. 51. 58. 58. 54. 44. 28. 18.
      12. 13. 12. 11. 10. 10. 10. 12. 10. 10. 13. 13. 10. 11. 17. 28.
      40. 50. 57. 57. 55. 49. 37. 21. 14. 11. 13. 12. 10. 10. 10. 10.
      12. 11. 11. 12. 11. 10. 18. 30. 41. 52. 60. 62. 56. 48. 39. 26.
      16. 12. 11. 13. 11. 10. 10. 9. 10. 12. 12. 12. 11. 12. 18. 31. 45.
      51. 58. 61. 59. 48. 35. 26. 16. 13. 12. 12. 12. 10. 10. 10. 9. 10.
      11. 13. 11. 10. 17. 29. 43. 54. 60. 59. 55. 49. 35. 22. 17. 13.
      11. 12. 13. 12. 10. 10. 10. 8. 10. 11. 12. 12. 16. 25. 39. 52. 60.
      60. 54. 47. 31. 18. 15. 12. 10. 12. 12. 12. 11. 10. 9. 9. 10. 10.
      13. 12. 12. 19. 34. 50. 58. 58. 55. 44. 34. 22. 14. 13. 10. 10.
      13. 11. 11. 12. 13. 11. 8. 6. 10. 11. 11. 15. 26. 44. 57. 58. 54.
      51. 34. 21. 13. 11. 13. 13. 16. 11. 10. 11. 11. 11. 9. 9. 10. 9.
      10. 11. 18. 32. 48. 57. 58. 57. 49. 33. 21. 14. 10. 9. 7. 7. 7. 7.
      9. 11. 11. 10. 10. 11. 10. 11. 11. 19. 36. 50. 57. 61. 64. 63. 56.
      54. 53. 51. 51. 47. 45. 37. 28. 18. 14. 13. 11. 10. 10. 11. 11.
      10. 20. 39. 55. 60. 60. 62. 60. 59. 63. 64. 65. 69. 69. 68. 64.
      51. 34. 23. 16. 12. 11. 12. 10. 11. 10. 18. 36. 52. 60. 62. 62.
      65. 63. 64. 62. 60. 62. 61. 61. 58. 50. 40. 31. 21. 12. 10. 11.
      10. 11. 10. 14. 26. 43. 58. 68. 72. 71. 69. 72. 74. 73. 74. 72.
      71. 66. 54. 40. 28. 19. 12. 10. 12. 10. 13. 11. 10. 12. 14. 17.
      20. 22. 21. 25. 30. 34. 39. 42. 46. 51. 52. 44. 34. 24. 18. 14.
      12. 12. 11.</_>
    <_>
      16. 17. 12. 16. 12. 18. 30. 31. 38. 39. 40. 44. 49. 50. 51. 54.
      55. 53. 53. 38. 23. 18. 16. 14. 13. 14. 17. 15. 19. 16. 16. 17.
      15. 7. 11. 15. 18. 21. 21. 20. 19. 18. 11. 14. 17. 18. 18. 15. 16.
      15. 15. 15. 14. 16. 16. 17. 12. 16. 27. 38. 48. 54. 59. 60. 56.
      52. 40. 27. 18. 17. 18. 17. 13. 15. 14. 15. 13. 11. 11. 13. 16.
      15. 33. 53. 59. 61. 60. 61. 61. 60. 60. 63. 56. 41. 25. 15. 17.
      16. 16. 14. 15. 12. 13. 13. 14. 14. 15. 41. 58. 60. 61. 62. 62.
      59. 60. 64. 57. 63. 53. 35. 16. 17. 18. 16. 15. 15. 13. 15. 15.
      14. 13. 14. 39. 59. 51. 40. 34. 32. 33. 43. 56. 60. 66. 61. 50.
      23. 16. 15. 13. 15. 15. 15. 14. 14. 14. 15. 14. 30. 32. 26. 19.
      16. 15. 14. 22. 33. 57. 60. 60. 57. 27. 15. 16. 16. 14. 14. 15.
      13. 14. 15. 17. 13. 18. 16. 15. 15. 17. 18. 15. 17. 24. 56. 59.
      62. 64. 30. 16. 17. 17. 14. 14. 14. 13. 13. 14. 14. 14. 14. 17.
      16. 14. 16. 16. 15. 10. 21. 53. 64. 59. 63. 34. 15. 18. 14. 15.
      14. 14. 13. 13. 14. 14. 14. 13. 12. 14. 14. 15. 14. 15. 15. 29.
      58. 60. 60. 60. 30. 17. 17. 15. 16. 14. 14. 14. 14. 14. 14. 14.
      14. 16. 13. 12. 14. 14. 14. 21. 40. 58. 57. 62. 51. 22. 18. 15.
      15. 14. 13. 14. 15. 15. 14. 14. 14. 15. 13. 14. 15. 14. 13. 18.
      36. 59. 57. 61. 60. 38. 15. 19. 14. 13. 12. 11. 12. 13. 14. 14.
      13. 14. 14. 13. 15. 12. 12. 23. 38. 53. 60. 60. 62. 47. 25. 15.
      18. 14. 13. 13. 11. 12. 13. 13. 14. 14. 14. 14. 16. 12. 13. 25.
      46. 57. 62. 58. 59. 50. 28. 16. 17. 16. 13. 14. 14. 12. 13. 13.
      14. 14. 14. 14. 13. 9. 17. 32. 48. 60. 58. 62. 58. 44. 27. 16. 14.
      16. 14. 13. 14. 15. 12. 12. 13. 13. 14. 14. 13. 12. 15. 33. 50.
      56. 62. 61. 56. 36. 25. 10. 14. 16. 13. 14. 15. 14. 15. 14. 12.
      13. 15. 14. 14. 12. 15. 31. 53. 57. 56. 62. 54. 35. 20. 19. 13.
      13. 13. 15. 14. 14. 14. 15. 15. 12. 13. 13. 11. 15. 11. 23. 49.
      55. 59. 60. 50. 31. 20. 18. 15. 17. 17. 15. 11. 12. 12. 14. 12.
      14. 11. 12. 14. 10. 16. 13. 37. 57. 57. 59. 54. 32. 14. 11. 9. 6.
      10. 7. 9. 13. 18. 14. 14. 13. 12. 11. 13. 14. 12. 13. 18. 47. 57.
      60. 61. 55. 42. 36. 36. 30. 31. 36. 34. 32. 27. 16. 11. 15. 15.
      11. 13. 12. 12. 14. 7. 24. 51. 58. 61. 59. 60. 60. 56. 56. 55. 57.
      58. 60. 57. 51. 22. 15. 18. 15. 12. 13. 12. 11. 16. 8. 30. 52. 59.
      62. 57. 58. 62. 58. 57. 60. 58. 55. 58. 58. 56. 22. 14. 12. 14.
      13. 11. 12. 12. 15. 12. 27. 42. 56. 60. 57. 56. 60. 60. 59. 59.
      57. 58. 59. 56. 47. 18. 16. 14. 13. 13. 10. 12. 12. 12. 11. 15.
      25. 27. 26. 23. 26. 28. 27. 26. 23. 24. 24. 22. 25. 24. 14. 17.
      12. 13. 12. 13. 13. 13. 12. 14. 10. 13. 10. 11. 11. 12. 13. 12.
      11. 12. 11. 10. 12. 12. 11. 10. 15. 11. 13.</_>
    <_>
      6. 6. 8. 5. 3. 7. 6. 4. 8. 4. 3. 6. 6. 5. 5. 5. 6. 6. 6. 5. 3. 4.
      6. 5. 6. 6. 6. 8. 6. 5. 6. 4. 5. 4. 7. 9. 7. 3. 4. 6. 5. 4. 3. 4.
      5. 4. 5. 5. 4. 6. 6. 6. 7. 6. 7. 5. 4. 11. 17. 20. 23. 25. 26. 27.
      21. 12. 8. 5. 3. 3. 5. 5. 5. 4. 4. 7. 6. 6. 5. 7. 5. 7. 21. 27.
      26. 26. 27. 25. 25. 26. 25. 19. 12. 5. 3. 4. 5. 4. 5. 6. 6. 6. 6.
      5. 7. 5. 9. 25. 26. 25. 26. 28. 27. 27. 27. 26. 27. 21. 10. 3. 4.
      4. 4. 6. 6. 6. 5. 7. 7. 7. 6. 8. 19. 20. 15. 11. 9. 12. 21. 27.
      27. 29. 25. 15. 6. 5. 4. 3. 5. 6. 7. 6. 7. 7. 6. 6. 6. 10. 3. 5.
      8. 7. 4. 9. 19. 26. 27. 27. 18. 8. 6. 4. 3. 6. 8. 10. 6. 7. 5. 5.
      7. 6. 5. 10. 5. 5. 6. 4. 5. 14. 25. 25. 29. 20. 8. 5. 4. 4. 7. 5.
      15. 9. 7. 6. 7. 4. 8. 6. 5. 5. 5. 8. 5. 4. 15. 26. 26. 29. 19. 7.
      6. 6. 5. 6. 6. 17. 10. 7. 6. 7. 5. 8. 6. 7. 7. 5. 5. 5. 7. 17. 25.
      26. 25. 16. 7. 5. 6. 6. 7. 8. 22. 11. 7. 5. 7. 5. 8. 6. 6. 6. 3.
      5. 12. 21. 27. 26. 28. 20. 9. 4. 5. 7. 7. 6. 8. 27. 12. 8. 6. 6.
      5. 7. 6. 12. 23. 27. 24. 20. 23. 27. 25. 18. 10. 4. 4. 5. 6. 7. 6.
      8. 31. 12. 8. 6. 6. 6. 7. 5. 13. 22. 25. 25. 26. 28. 26. 17. 8. 5.
      5. 6. 6. 5. 6. 6. 8. 33. 11. 9. 7. 6. 6. 6. 5. 14. 23. 27. 27. 25.
      25. 27. 24. 19. 14. 7. 4. 5. 6. 6. 6. 12. 32. 9. 8. 7. 6. 6. 6. 5.
      6. 8. 8. 13. 18. 22. 27. 27. 29. 26. 14. 4. 5. 7. 6. 6. 7. 31. 7.
      7. 7. 6. 6. 6. 5. 5. 6. 5. 6. 5. 5. 15. 22. 21. 28. 23. 11. 7. 6.
      5. 8. 9. 17. 9. 7. 4. 5. 7. 4. 6. 5. 7. 3. 7. 5. 3. 6. 21. 25. 27.
      23. 13. 6. 7. 7. 5. 8. 14. 8. 7. 5. 6. 7. 4. 4. 5. 6. 3. 7. 7. 6.
      6. 18. 25. 27. 24. 15. 7. 4. 5. 7. 7. 10. 6. 6. 6. 6. 6. 4. 5. 4.
      7. 5. 7. 5. 3. 6. 17. 23. 26. 25. 16. 7. 3. 4. 6. 6. 7. 6. 6. 5.
      5. 6. 8. 12. 4. 6. 5. 6. 6. 7. 13. 24. 22. 27. 24. 13. 5. 5. 6. 3.
      6. 6. 6. 5. 5. 5. 7. 15. 21. 17. 14. 11. 11. 15. 17. 21. 24. 26.
      26. 19. 9. 4. 6. 6. 3. 5. 5. 7. 5. 6. 5. 8. 18. 26. 26. 24. 23.
      21. 24. 24. 25. 23. 28. 20. 12. 6. 4. 4. 5. 6. 4. 5. 7. 5. 6. 6.
      6. 16. 21. 21. 22. 26. 25. 26. 24. 26. 22. 18. 11. 6. 5. 5. 3. 4.
      6. 4. 5. 7. 4. 6. 6. 4. 11. 13. 23. 21. 24. 21. 23. 20. 18. 10. 5.
      4. 4. 4. 5. 5. 5. 4. 4. 5. 6. 6. 6. 6. 6. 6. 6. 5. 5. 7. 7. 4. 4.
      5. 5. 4. 5. 6. 5. 5. 5. 5. 5. 4.</_>
    <_>
      7. 6. 6. 6. 5. 7. 7. 5. 8. 10. 10. 7. 7. 6. 6. 6. 7. 7. 7. 5. 4.
      6. 7. 4. 6. 5. 5. 5. 6. 6. 4. 3. 4. 4. 6. 7. 7. 9. 9. 7. 5. 5. 5.
      5. 5. 5. 6. 7. 5. 6. 5. 5. 5. 6. 7. 3. 5. 12. 21. 23. 25. 26. 26.
      24. 20. 16. 9. 6. 4. 5. 6. 5. 5. 6. 5. 6. 6. 5. 5. 6. 4. 12. 29.
      35. 37. 40. 40. 38. 36. 34. 31. 21. 13. 6. 4. 5. 4. 4. 7. 6. 4. 6.
      5. 4. 5. 5. 18. 40. 40. 38. 38. 38. 37. 39. 39. 35. 33. 23. 10. 4.
      5. 4. 4. 7. 6. 4. 6. 6. 6. 5. 6. 18. 34. 31. 25. 23. 24. 27. 35.
      39. 36. 39. 30. 15. 5. 6. 6. 4. 6. 6. 6. 6. 7. 6. 6. 7. 12. 18. 9.
      5. 5. 7. 10. 23. 35. 38. 38. 34. 19. 6. 5. 7. 5. 6. 6. 8. 6. 5. 5.
      5. 6. 7. 5. 6. 5. 8. 6. 3. 14. 31. 39. 37. 35. 20. 5. 3. 6. 6. 6.
      7. 14. 7. 6. 6. 5. 6. 5. 7. 5. 7. 5. 6. 2. 10. 33. 38. 35. 37. 13.
      6. 4. 6. 8. 4. 7. 15. 8. 7. 7. 6. 5. 3. 4. 5. 5. 2. 5. 8. 19. 37.
      37. 40. 30. 7. 6. 6. 5. 6. 7. 9. 16. 7. 6. 6. 6. 5. 3. 4. 9. 10.
      9. 15. 20. 30. 39. 34. 32. 17. 4. 6. 7. 5. 4. 9. 10. 19. 9. 6. 5.
      5. 5. 4. 6. 24. 29. 31. 34. 35. 37. 38. 29. 16. 6. 5. 6. 6. 7. 5.
      8. 10. 22. 11. 7. 6. 5. 5. 5. 7. 29. 34. 37. 37. 36. 34. 29. 21.
      13. 6. 7. 4. 5. 8. 6. 7. 11. 17. 8. 6. 6. 6. 6. 5. 7. 28. 30. 31.
      32. 34. 36. 34. 31. 27. 16. 11. 4. 6. 7. 5. 8. 11. 13. 6. 5. 6. 6.
      6. 5. 7. 15. 15. 15. 16. 21. 27. 32. 37. 37. 28. 18. 6. 8. 5. 6.
      8. 9. 16. 8. 7. 6. 5. 5. 4. 6. 5. 5. 5. 4. 7. 14. 23. 34. 35. 35.
      26. 9. 8. 5. 6. 8. 10. 14. 7. 5. 6. 5. 4. 5. 6. 6. 6. 5. 6. 6. 6.
      16. 33. 36. 34. 33. 10. 6. 4. 5. 8. 11. 11. 6. 4. 5. 3. 3. 3. 3.
      4. 4. 5. 5. 4. 5. 16. 30. 36. 35. 35. 12. 8. 7. 7. 6. 7. 8. 6. 6.
      6. 6. 7. 8. 8. 6. 5. 5. 4. 2. 9. 23. 36. 37. 36. 31. 8. 4. 6. 7.
      6. 7. 1. 1. 2. 3. 2. 5. 7. 6. 3. 2. 4. 5. 6. 16. 30. 38. 37. 34.
      28. 10. 6. 6. 6. 5. 7. 0. 0. 1. 0. 0. 0. 2. 0. 1. 0. 1. 1. 0. 0.
      3. 1. 0. 0. 0. 0. 0. 0. 0. 2. 2. 1. 1. 2. 1. 0. 1. 1. 0. 0. 0. 0.
      0. 0. 1. 0. 0. 0. 0. 0. 1. 2. 0. 0. 1. 0. 0. 0. 0. 0. 0. 0. 1. 0.
      1. 2. 0. 0. 0. 1. 0. 1. 1. 1. 0. 0. 0. 0. 0. 0. 0. 1. 0. 0. 0. 0.
      0. 1. 0. 0. 2. 0. 0. 1. 0. 0. 1. 0. 1. 0. 0. 1. 1. 0. 0. 0. 0. 0.
      0. 0. 0. 0. 0. 0. 0. 0. 0. 0. 0. 0. 0. 0. 0. 0. 0. 0. 0. 0. 0. 0.
      0.</_>
    <_>
      25. 23. 24. 23. 21. 21. 24. 26. 23. 25. 22. 20. 24. 28. 30. 34.
      38. 47. 53. 55. 50. 43. 39. 33. 30. 23. 24. 25. 24. 23. 23. 25.
      26. 25. 25. 23. 24. 28. 31. 38. 46. 54. 63. 67. 66. 60. 52. 46.
      38. 31. 23. 27. 26. 23. 23. 25. 26. 26. 25. 25. 25. 28. 33. 38.
      49. 61. 68. 76. 78. 76. 70. 62. 53. 42. 29. 26. 29. 27. 23. 24.
      27. 26. 26. 25. 26. 29. 33. 39. 48. 61. 73. 80. 87. 89. 87. 82.
      72. 58. 43. 29. 28. 28. 26. 24. 26. 28. 27. 26. 26. 29. 35. 40.
      47. 59. 72. 81. 88. 95. 97. 96. 91. 77. 59. 41. 33. 28. 24. 24.
      27. 27. 26. 27. 26. 28. 32. 40. 47. 54. 66. 78. 84. 93. 99. 102.
      102. 94. 78. 59. 42. 32. 33. 23. 25. 30. 26. 24. 29. 32. 33. 36.
      46. 56. 62. 71. 84. 90. 99. 105. 108. 106. 95. 76. 59. 45. 34. 41.
      27. 28. 33. 25. 23. 33. 39. 40. 42. 53. 64. 69. 77. 90. 98. 102.
      108. 109. 105. 88. 66. 51. 41. 22. 41. 23. 32. 34. 31. 37. 33. 42.
      46. 54. 62. 65. 70. 81. 93. 100. 101. 109. 106. 98. 82. 60. 55.
      36. 23. 48. 32. 33. 42. 39. 37. 42. 48. 60. 61. 62. 65. 73. 84.
      92. 95. 104. 102. 106. 92. 74. 67. 50. 23. 38. 74. 44. 30. 40. 43.
      43. 53. 58. 65. 63. 62. 66. 75. 85. 91. 93. 101. 100. 101. 89. 73.
      58. 33. 22. 43. 96. 46. 30. 37. 48. 55. 60. 66. 64. 63. 66. 72.
      78. 84. 89. 94. 98. 102. 95. 90. 74. 49. 28. 31. 47. 100. 47. 35.
      47. 61. 65. 66. 70. 70. 71. 75. 79. 81. 83. 88. 93. 97. 101. 98.
      90. 71. 56. 40. 31. 42. 104. 53. 41. 56. 71. 72. 78. 77. 81. 80.
      80. 81. 83. 84. 88. 91. 96. 101. 102. 87. 71. 59. 37. 30. 47. 97.
      52. 52. 66. 79. 80. 85. 87. 87. 85. 83. 83. 84. 86. 90. 92. 98.
      104. 102. 88. 76. 55. 37. 37. 38. 73. 39. 66. 79. 86. 87. 82. 92.
      91. 90. 89. 86. 85. 87. 91. 94. 103. 106. 101. 95. 80. 57. 55. 43.
      33. 47. 46. 67. 75. 77. 89. 90. 90. 92. 89. 87. 88. 89. 92. 96.
      100. 103. 101. 97. 86. 72. 59. 46. 35. 40. 33. 47. 67. 72. 77. 87.
      86. 86. 84. 84. 85. 88. 92. 95. 99. 101. 98. 92. 84. 74. 64. 55.
      45. 35. 38. 34. 55. 64. 62. 69. 77. 77. 77. 75. 78. 82. 89. 96.
      101. 103. 102. 98. 87. 74. 64. 57. 53. 48. 40. 33. 38. 53. 51. 49.
      57. 63. 65. 63. 63. 67. 75. 84. 94. 101. 102. 99. 93. 80. 64. 52.
      46. 46. 45. 41. 32. 28. 34. 34. 41. 46. 47. 49. 45. 46. 51. 59.
      69. 82. 91. 93. 90. 80. 67. 52. 39. 32. 32. 34. 33. 31. 23. 23.
      27. 37. 36. 32. 35. 32. 32. 35. 41. 52. 65. 75. 78. 77. 72. 61.
      47. 34. 26. 25. 26. 26. 26. 28. 26. 27. 31. 30. 28. 30. 29. 28.
      28. 31. 40. 52. 60. 63. 64. 63. 52. 41. 32. 27. 26. 27. 26. 26.
      29. 28. 26. 26. 29. 32. 31. 31. 30. 27. 28. 35. 44. 50. 53. 54.
      47. 37. 28. 25. 25. 28. 29. 27. 27. 29. 29. 30. 32. 32. 31. 32.
      33. 33. 33. 33. 34. 35. 39. 41. 39. 36. 32. 30. 28. 26. 25. 25.
      24. 24.</_>
    <_>
      20. 21. 19. 20. 22. 20. 21. 22. 21. 23. 27. 35. 45. 57. 72. 86.
      94. 99. 102. 104. 99. 90. 76. 61. 45. 18. 20. 19. 21. 22. 20. 21.
      23. 24. 27. 32. 42. 55. 68. 82. 94. 98. 102. 105. 105. 99. 87. 72.
      56. 39. 19. 20. 19. 23. 24. 19. 20. 23. 26. 30. 38. 51. 66. 79.
      91. 100. 103. 107. 107. 105. 96. 82. 67. 50. 39. 19. 20. 19. 24.
      26. 21. 21. 24. 27. 34. 45. 60. 75. 87. 96. 102. 106. 109. 108.
      103. 92. 77. 62. 46. 36. 20. 18. 17. 23. 27. 24. 25. 27. 31. 42.
      55. 70. 84. 94. 100. 105. 108. 110. 106. 99. 86. 71. 56. 41. 30.
      23. 21. 17. 21. 26. 25. 27. 29. 37. 50. 65. 78. 90. 98. 103. 106.
      109. 108. 102. 93. 79. 64. 50. 35. 23. 28. 25. 20. 21. 25. 26. 30.
      32. 47. 60. 73. 83. 92. 98. 102. 104. 106. 104. 97. 87. 72. 56.
      42. 27. 14. 28. 26. 21. 22. 26. 29. 35. 38. 56. 68. 80. 87. 94.
      99. 100. 101. 102. 100. 92. 82. 66. 51. 37. 22. 9. 27. 26. 28. 20.
      25. 31. 39. 53. 65. 77. 84. 87. 93. 96. 97. 101. 103. 97. 90. 76.
      59. 46. 32. 14. 15. 35. 26. 26. 22. 29. 37. 48. 62. 75. 80. 83.
      87. 92. 95. 96. 100. 101. 94. 83. 70. 55. 37. 22. 15. 30. 40. 26.
      27. 26. 35. 47. 60. 72. 79. 80. 82. 85. 90. 92. 96. 102. 101. 94.
      80. 66. 51. 31. 20. 26. 40. 42. 28. 31. 33. 43. 58. 71. 76. 77.
      79. 81. 83. 86. 90. 97. 104. 98. 90. 76. 60. 43. 28. 27. 36. 43.
      51. 31. 33. 41. 54. 68. 77. 78. 77. 77. 77. 79. 84. 93. 101. 104.
      97. 86. 73. 56. 40. 34. 35. 36. 32. 58. 34. 36. 50. 66. 74. 78.
      78. 75. 71. 70. 75. 85. 100. 106. 104. 98. 85. 71. 57. 44. 40. 38.
      28. 27. 50. 37. 48. 63. 76. 80. 78. 76. 71. 67. 70. 79. 91. 103.
      108. 104. 96. 85. 72. 58. 48. 40. 32. 26. 46. 36. 41. 64. 75. 83.
      85. 80. 75. 70. 68. 75. 87. 95. 102. 104. 101. 96. 90. 77. 64. 53.
      39. 30. 33. 62. 35. 50. 74. 90. 92. 89. 86. 80. 74. 74. 82. 94.
      102. 106. 105. 102. 99. 88. 77. 60. 51. 41. 32. 42. 61. 44. 59.
      82. 95. 95. 92. 89. 85. 81. 83. 91. 99. 104. 107. 107. 104. 95.
      86. 74. 58. 56. 53. 34. 28. 64. 48. 65. 87. 98. 97. 94. 92. 90.
      88. 92. 98. 101. 103. 105. 104. 101. 93. 77. 70. 65. 56. 37. 24.
      35. 66. 43. 60. 80. 90. 91. 89. 89. 89. 92. 96. 101. 101. 101.
      103. 100. 94. 85. 72. 63. 57. 49. 34. 25. 32. 48. 34. 46. 60. 68.
      70. 71. 73. 76. 86. 92. 98. 100. 99. 99. 91. 80. 68. 61. 52. 46.
      43. 39. 30. 24. 35. 24. 30. 36. 40. 42. 43. 47. 54. 73. 82. 94.
      98. 98. 93. 80. 65. 53. 44. 37. 37. 34. 28. 23. 22. 20. 20. 22.
      22. 23. 24. 23. 27. 37. 58. 71. 87. 94. 91. 83. 68. 54. 41. 35.
      26. 23. 23. 24. 21. 15. 17. 22. 22. 21. 22. 22. 18. 21. 31. 42.
      58. 76. 83. 78. 68. 55. 42. 31. 29. 25. 23. 20. 20. 21. 18. 11.
      24. 24. 23. 23. 24. 22. 22. 25. 31. 46. 61. 67. 62. 54. 41. 23.
      18. 18. 21. 22. 21. 21. 23. 24. 21.</_>
    <_>
      18. 18. 19. 19. 17. 21. 22. 17. 18. 24. 21. 19. 22. 22. 27. 39.
      60. 72. 72. 69. 53. 37. 22. 18. 18. 22. 20. 20. 21. 20. 21. 21.
      20. 21. 23. 19. 18. 17. 25. 45. 72. 98. 97. 95. 86. 70. 39. 24.
      16. 19. 23. 24. 21. 18. 19. 21. 21. 19. 22. 23. 20. 20. 24. 43.
      72. 102. 108. 102. 103. 96. 72. 36. 24. 21. 20. 29. 28. 22. 19.
      22. 23. 22. 23. 24. 23. 22. 26. 45. 70. 96. 109. 103. 100. 101.
      100. 64. 32. 20. 22. 21. 45. 36. 25. 25. 28. 22. 18. 22. 23. 21.
      30. 42. 72. 91. 104. 103. 100. 100. 101. 97. 60. 31. 21. 18. 15.
      45. 30. 16. 14. 21. 24. 23. 23. 20. 27. 48. 71. 96. 98. 97. 94.
      93. 99. 106. 90. 56. 27. 24. 18. 13. 85. 54. 25. 17. 21. 25. 25.
      24. 31. 51. 76. 96. 100. 88. 79. 83. 93. 105. 111. 87. 51. 24. 21.
      15. 24. 117. 62. 21. 18. 21. 16. 19. 29. 52. 81. 97. 104. 87. 72.
      61. 72. 94. 107. 105. 84. 45. 26. 17. 9. 34. 95. 27. 15. 21. 22.
      25. 32. 49. 81. 101. 104. 84. 65. 42. 47. 71. 97. 111. 106. 75.
      42. 23. 13. 9. 38. 49. 17. 20. 26. 31. 40. 58. 81. 97. 102. 85.
      55. 35. 31. 48. 77. 111. 112. 101. 72. 40. 19. 14. 17. 42. 24. 16.
      23. 29. 46. 64. 83. 101. 100. 89. 60. 34. 21. 33. 62. 94. 114.
      107. 92. 68. 42. 23. 15. 15. 37. 21. 17. 24. 40. 70. 90. 100. 101.
      92. 71. 46. 35. 32. 47. 76. 105. 113. 110. 99. 77. 54. 38. 26. 15.
      33. 23. 20. 38. 67. 94. 104. 104. 95. 75. 56. 45. 45. 53. 67. 92.
      110. 106. 109. 106. 91. 74. 61. 46. 30. 30. 30. 33. 62. 93. 109.
      110. 106. 97. 92. 82. 79. 76. 82. 89. 101. 102. 103. 104. 106.
      102. 92. 80. 59. 36. 23. 34. 49. 84. 105. 113. 112. 111. 108. 112.
      110. 110. 108. 108. 112. 113. 108. 111. 110. 110. 105. 93. 79. 56.
      30. 12. 35. 63. 102. 112. 111. 109. 109. 112. 117. 116. 114. 115.
      110. 112. 110. 109. 108. 111. 111. 97. 78. 67. 52. 32. 27. 44. 71.
      99. 108. 104. 100. 99. 99. 96. 94. 95. 97. 100. 102. 106. 109.
      110. 104. 99. 73. 53. 44. 37. 28. 25. 49. 65. 83. 89. 86. 81. 75.
      70. 56. 55. 55. 60. 70. 83. 97. 106. 110. 104. 85. 53. 36. 30. 25.
      23. 13. 38. 39. 39. 37. 36. 36. 37. 37. 35. 34. 34. 40. 56. 78.
      99. 111. 111. 105. 70. 36. 24. 22. 20. 22. 18. 23. 20. 17. 14. 12.
      13. 17. 21. 21. 21. 24. 34. 54. 80. 101. 112. 110. 97. 56. 31. 22.
      22. 21. 23. 23. 22. 20. 19. 19. 17. 15. 17. 20. 17. 19. 24. 37.
      60. 84. 101. 108. 105. 82. 44. 28. 19. 21. 22. 20. 21. 25. 21. 18.
      19. 20. 19. 19. 21. 18. 20. 26. 40. 61. 81. 93. 98. 96. 65. 36.
      26. 18. 20. 23. 19. 22. 23. 21. 21. 24. 26. 25. 22. 20. 20. 21.
      27. 40. 56. 70. 79. 84. 72. 47. 31. 23. 20. 20. 23. 21. 19. 22.
      21. 22. 24. 25. 24. 22. 21. 21. 21. 25. 34. 42. 49. 54. 58. 45.
      29. 24. 18. 20. 20. 19. 20. 20. 19. 20. 22. 23. 23. 22. 22. 21.
      20. 20. 23. 27. 30. 35. 39. 38. 28. 22. 20. 18. 22. 19. 20. 20.
      19.</_>
    <_>
      17. 18. 20. 19. 19. 19. 18. 21. 20. 22. 23. 23. 24. 29. 39. 50.
      63. 71. 75. 72. 65. 52. 37. 27. 23. 18. 18. 19. 18. 19. 21. 20.
      23. 24. 22. 22. 26. 32. 41. 58. 76. 88. 91. 92. 88. 74. 54. 40.
      33. 23. 20. 19. 21. 20. 20. 23. 22. 24. 23. 23. 26. 34. 47. 62.
      81. 98. 102. 103. 99. 92. 73. 51. 40. 30. 12. 21. 19. 21. 21. 20.
      22. 22. 23. 23. 29. 34. 44. 63. 84. 97. 104. 100. 105. 98. 87. 69.
      53. 41. 24. 12. 31. 25. 26. 24. 21. 23. 25. 27. 29. 36. 46. 60.
      81. 97. 103. 102. 97. 102. 95. 84. 69. 54. 36. 15. 26. 49. 36. 30.
      26. 22. 23. 27. 32. 36. 45. 61. 80. 95. 99. 96. 94. 96. 97. 93.
      83. 69. 47. 23. 9. 38. 57. 37. 28. 25. 23. 25. 31. 38. 50. 62. 78.
      91. 95. 90. 87. 89. 95. 95. 93. 80. 65. 41. 17. 16. 35. 58. 36.
      27. 29. 30. 35. 43. 51. 65. 80. 91. 91. 85. 81. 84. 90. 90. 91.
      91. 73. 58. 37. 16. 26. 41. 61. 34. 23. 30. 39. 44. 52. 70. 86.
      90. 87. 79. 74. 73. 78. 87. 92. 93. 88. 75. 55. 36. 29. 33. 49.
      49. 28. 26. 37. 45. 56. 71. 86. 88. 84. 75. 66. 63. 67. 78. 88.
      95. 96. 90. 77. 57. 36. 26. 26. 42. 42. 29. 37. 52. 61. 75. 88.
      91. 83. 71. 58. 52. 54. 65. 81. 92. 95. 92. 83. 70. 53. 35. 25.
      24. 41. 36. 41. 56. 69. 79. 90. 92. 85. 73. 59. 49. 49. 56. 71.
      87. 95. 95. 91. 81. 69. 56. 42. 32. 30. 41. 33. 57. 75. 83. 90.
      95. 90. 81. 67. 56. 52. 58. 68. 81. 93. 96. 96. 93. 86. 78. 68.
      55. 44. 40. 55. 52. 76. 88. 91. 97. 96. 88. 78. 70. 64. 64. 72.
      82. 91. 98. 100. 98. 96. 90. 82. 75. 66. 58. 56. 62. 76. 88. 92.
      95. 98. 96. 90. 81. 80. 81. 82. 86. 94. 99. 100. 101. 101. 99. 92.
      84. 78. 72. 69. 69. 74. 84. 88. 91. 97. 96. 93. 96. 91. 91. 96.
      97. 97. 101. 101. 99. 99. 97. 97. 93. 85. 78. 71. 67. 68. 69. 85.
      91. 95. 97. 99. 99. 99. 100. 104. 103. 102. 102. 102. 101. 99. 98.
      99. 98. 92. 84. 74. 65. 57. 52. 49. 84. 90. 95. 98. 99. 98. 96.
      97. 99. 100. 100. 100. 99. 98. 98. 97. 98. 95. 89. 80. 68. 56. 46.
      40. 34. 73. 78. 80. 81. 82. 82. 83. 86. 86. 89. 93. 94. 95. 96.
      97. 98. 97. 92. 83. 72. 58. 46. 36. 30. 27. 60. 61. 58. 55. 52.
      51. 54. 59. 65. 71. 78. 84. 89. 94. 97. 98. 94. 86. 73. 59. 46.
      35. 28. 24. 24. 38. 39. 37. 33. 31. 30. 33. 38. 48. 56. 66. 75.
      85. 92. 95. 95. 88. 77. 62. 47. 34. 26. 21. 20. 20. 20. 21. 19.
      18. 19. 22. 28. 35. 42. 50. 61. 73. 83. 90. 91. 89. 81. 70. 54.
      40. 30. 22. 19. 18. 19. 20. 19. 16. 16. 17. 19. 25. 33. 40. 49.
      62. 73. 82. 87. 85. 81. 73. 62. 47. 36. 27. 21. 19. 19. 19. 20.
      21. 21. 23. 25. 25. 28. 33. 38. 48. 61. 72. 79. 83. 80. 74. 66.
      54. 40. 30. 23. 19. 19. 20. 20. 23. 24. 25. 25. 26. 27. 28. 30.
      35. 47. 58. 65. 71. 73. 70. 66. 56. 45. 35. 28. 22. 20. 20. 20.
      20.</_>
    <_>
      18. 18. 22. 21. 19. 20. 24. 33. 39. 57. 73. 83. 86. 83. 77. 67.
      52. 39. 27. 20. 19. 16. 18. 24. 27. 16. 15. 19. 19. 19. 21. 27.
      37. 49. 67. 84. 93. 95. 93. 88. 78. 59. 42. 29. 21. 18. 19. 24.
      30. 33. 25. 22. 24. 23. 22. 23. 30. 42. 58. 77. 92. 98. 98. 97.
      91. 80. 63. 45. 30. 23. 20. 23. 27. 34. 42. 22. 19. 22. 23. 23.
      27. 36. 50. 67. 85. 98. 100. 99. 98. 92. 81. 64. 48. 32. 27. 27.
      24. 22. 39. 65. 19. 17. 21. 22. 24. 31. 42. 57. 73. 89. 99. 100.
      99. 99. 95. 84. 66. 53. 35. 32. 32. 22. 16. 48. 89. 26. 24. 27.
      27. 28. 36. 48. 62. 80. 92. 97. 96. 96. 97. 94. 85. 70. 56. 37.
      32. 28. 15. 13. 59. 114. 25. 26. 29. 28. 31. 42. 56. 71. 86. 94.
      94. 93. 94. 96. 96. 88. 74. 58. 40. 33. 20. 11. 19. 73. 126. 26.
      28. 31. 30. 33. 47. 63. 77. 86. 91. 89. 88. 91. 95. 97. 91. 78.
      59. 45. 36. 16. 12. 29. 84. 131. 33. 28. 29. 33. 42. 54. 72. 77.
      88. 85. 85. 83. 88. 93. 97. 93. 80. 65. 49. 38. 24. 6. 40. 88.
      130. 42. 29. 30. 41. 54. 62. 76. 82. 82. 79. 79. 77. 84. 91. 98.
      96. 84. 69. 53. 39. 21. 7. 43. 90. 127. 43. 33. 38. 47. 60. 68.
      77. 76. 75. 69. 68. 68. 78. 88. 98. 98. 86. 72. 57. 41. 21. 11.
      46. 89. 122. 48. 38. 44. 54. 67. 76. 81. 75. 70. 62. 59. 61. 74.
      87. 99. 100. 90. 75. 59. 41. 18. 9. 35. 67. 108. 53. 35. 43. 62.
      79. 85. 85. 79. 65. 56. 54. 58. 74. 88. 100. 102. 94. 79. 61. 43.
      21. 14. 28. 49. 83. 45. 34. 54. 75. 89. 92. 86. 76. 62. 53. 53.
      60. 75. 87. 98. 100. 96. 82. 66. 50. 34. 29. 33. 46. 75. 42. 41.
      69. 88. 95. 97. 90. 78. 67. 60. 62. 68. 80. 88. 97. 99. 98. 89.
      75. 62. 49. 42. 35. 45. 67. 50. 42. 68. 89. 96. 96. 92. 86. 77.
      72. 74. 79. 87. 91. 98. 100. 98. 94. 84. 75. 64. 56. 45. 52. 62.
      45. 50. 68. 88. 95. 98. 97. 93. 88. 88. 89. 93. 97. 99. 99. 98.
      100. 99. 93. 83. 71. 59. 52. 53. 56. 41. 47. 68. 88. 96. 100. 102.
      99. 99. 99. 100. 101. 101. 102. 101. 101. 100. 100. 96. 88. 77.
      64. 55. 53. 57. 36. 41. 56. 72. 79. 86. 93. 96. 98. 99. 100. 101.
      100. 99. 99. 99. 99. 99. 97. 91. 81. 68. 58. 53. 58. 30. 31. 39.
      47. 52. 59. 68. 72. 77. 80. 85. 90. 94. 97. 98. 99. 97. 96. 95.
      90. 79. 67. 58. 51. 47. 23. 24. 28. 32. 34. 36. 39. 40. 46. 50.
      58. 68. 79. 89. 97. 100. 99. 96. 93. 84. 71. 60. 52. 45. 35. 21.
      21. 22. 24. 25. 24. 23. 22. 23. 26. 32. 44. 61. 77. 90. 98. 101.
      97. 92. 79. 61. 49. 42. 35. 28. 21. 21. 21. 20. 21. 20. 19. 20.
      20. 20. 25. 34. 50. 68. 83. 92. 97. 94. 89. 75. 52. 38. 31. 25.
      22. 20. 22. 23. 22. 23. 22. 20. 22. 22. 22. 25. 32. 44. 60. 75.
      84. 91. 89. 86. 72. 47. 32. 25. 18. 19. 22. 21. 21. 23. 24. 25.
      24. 23. 24. 24. 25. 29. 38. 51. 66. 79. 86. 85. 81. 65. 47. 33.
      21. 17. 20.</_>
    <_>
      19. 17. 16. 16. 14. 14. 17. 18. 17. 19. 19. 18. 19. 19. 20. 22.
      28. 39. 48. 63. 74. 77. 76. 62. 34. 18. 20. 20. 18. 18. 21. 20.
      18. 17. 19. 19. 21. 22. 21. 22. 26. 40. 57. 69. 82. 88. 88. 80.
      59. 33. 21. 24. 25. 25. 25. 23. 19. 19. 20. 19. 18. 19. 20. 20.
      25. 34. 52. 72. 86. 93. 94. 91. 76. 49. 34. 25. 27. 26. 25. 23.
      18. 17. 19. 20. 19. 18. 19. 19. 20. 31. 46. 66. 83. 93. 94. 93.
      88. 71. 44. 29. 49. 46. 38. 29. 22. 18. 16. 16. 18. 20. 21. 22.
      23. 29. 44. 62. 81. 89. 93. 91. 89. 83. 65. 42. 25. 80. 69. 60.
      51. 36. 22. 17. 18. 20. 23. 24. 24. 29. 42. 62. 80. 88. 89. 90.
      89. 86. 77. 58. 37. 20. 103. 94. 87. 70. 42. 24. 22. 23. 25. 28.
      28. 28. 39. 58. 76. 87. 87. 87. 89. 89. 86. 76. 54. 34. 20. 129.
      132. 121. 78. 33. 22. 26. 20. 26. 31. 34. 38. 52. 71. 81. 84. 81.
      82. 86. 88. 84. 74. 52. 32. 19. 156. 158. 110. 56. 34. 25. 23. 20.
      30. 36. 43. 52. 67. 78. 79. 76. 76. 81. 83. 87. 83. 64. 52. 26.
      31. 177. 136. 78. 44. 30. 19. 22. 33. 36. 43. 55. 68. 78. 79. 73.
      69. 71. 79. 84. 83. 79. 64. 40. 17. 48. 163. 111. 65. 44. 30. 22.
      25. 36. 47. 55. 67. 78. 81. 72. 64. 62. 66. 77. 86. 82. 75. 58.
      26. 16. 61. 140. 100. 69. 43. 26. 28. 35. 44. 55. 65. 75. 79. 73.
      61. 56. 58. 66. 79. 89. 86. 72. 49. 22. 30. 65. 134. 94. 62. 38.
      28. 34. 42. 56. 64. 74. 80. 75. 64. 54. 53. 59. 72. 86. 89. 86.
      69. 45. 30. 45. 63. 120. 78. 46. 31. 32. 43. 53. 69. 79. 84. 79.
      66. 53. 49. 55. 64. 80. 90. 88. 83. 68. 49. 44. 50. 73. 95. 57.
      33. 29. 39. 58. 73. 85. 90. 86. 73. 57. 50. 53. 64. 74. 88. 89.
      87. 83. 72. 56. 53. 53. 96. 74. 40. 28. 40. 54. 73. 87. 89. 88.
      80. 66. 56. 56. 63. 74. 83. 93. 85. 88. 87. 77. 60. 56. 56. 110.
      51. 31. 36. 55. 72. 87. 91. 90. 84. 73. 63. 62. 68. 76. 86. 93.
      94. 92. 92. 89. 78. 66. 57. 51. 71. 36. 37. 52. 71. 82. 90. 90.
      86. 81. 75. 71. 73. 79. 87. 92. 96. 94. 95. 95. 89. 79. 66. 48.
      32. 31. 36. 51. 67. 80. 87. 90. 91. 87. 84. 83. 83. 85. 90. 95.
      96. 95. 94. 95. 91. 82. 71. 61. 42. 22. 37. 49. 65. 73. 80. 87.
      90. 93. 91. 91. 90. 90. 91. 93. 95. 95. 94. 96. 93. 86. 74. 61.
      51. 38. 25. 34. 60. 73. 77. 84. 92. 94. 96. 94. 95. 92. 91. 92.
      93. 91. 92. 95. 95. 89. 80. 66. 47. 31. 24. 21. 26. 65. 76. 82.
      89. 95. 95. 95. 95. 91. 88. 87. 89. 89. 87. 89. 93. 92. 82. 69.
      52. 31. 16. 14. 18. 17. 66. 72. 80. 82. 85. 85. 81. 81. 76. 75.
      76. 77. 78. 80. 84. 89. 88. 76. 58. 39. 22. 16. 19. 22. 17. 63.
      65. 72. 71. 70. 70. 62. 59. 58. 59. 61. 63. 67. 74. 81. 86. 77.
      66. 47. 28. 17. 19. 21. 19. 19. 56. 59. 60. 58. 54. 49. 46. 44.
      45. 47. 51. 55. 64. 71. 81. 79. 72. 56. 37. 26. 21. 21. 21. 19.
      19.</_>
    <_>
      20. 16. 17. 20. 18. 18. 19. 18. 19. 18. 18. 19. 18. 21. 26. 30.
      35. 43. 54. 69. 80. 84. 87. 86. 82. 23. 19. 19. 20. 17. 18. 20.
      19. 18. 19. 19. 19. 21. 25. 29. 32. 41. 52. 65. 80. 89. 91. 91.
      87. 82. 24. 20. 19. 18. 17. 17. 19. 19. 17. 20. 20. 20. 25. 29.
      33. 38. 51. 65. 79. 91. 97. 97. 94. 87. 76. 24. 22. 20. 19. 18.
      18. 19. 19. 18. 21. 21. 23. 30. 33. 37. 48. 62. 78. 90. 97. 99.
      97. 93. 85. 70. 25. 24. 21. 19. 19. 19. 18. 18. 19. 22. 23. 28.
      34. 36. 45. 60. 74. 88. 98. 100. 99. 96. 90. 80. 64. 26. 25. 21.
      17. 18. 18. 17. 18. 20. 22. 26. 32. 38. 42. 54. 72. 82. 94. 101.
      101. 98. 93. 85. 72. 59. 42. 40. 30. 21. 19. 18. 17. 19. 20. 23.
      29. 36. 42. 51. 66. 81. 88. 97. 99. 98. 95. 89. 80. 67. 53. 67.
      62. 46. 31. 24. 20. 17. 19. 22. 26. 33. 39. 46. 59. 76. 87. 92.
      97. 97. 94. 91. 86. 77. 65. 46. 95. 78. 55. 39. 27. 25. 20. 21.
      23. 29. 37. 43. 53. 71. 84. 86. 91. 95. 96. 91. 87. 88. 76. 56.
      36. 113. 85. 61. 43. 29. 23. 21. 19. 24. 33. 41. 50. 66. 80. 85.
      88. 91. 90. 90. 89. 89. 85. 68. 47. 27. 122. 94. 66. 39. 29. 23.
      23. 24. 30. 41. 48. 60. 79. 86. 84. 86. 87. 84. 86. 90. 89. 78.
      55. 34. 31. 132. 103. 65. 37. 31. 24. 23. 33. 41. 49. 57. 69. 83.
      86. 81. 81. 81. 82. 85. 88. 83. 68. 48. 32. 34. 143. 106. 64. 41.
      31. 27. 28. 42. 50. 55. 66. 77. 82. 81. 79. 76. 78. 82. 84. 83.
      76. 62. 46. 36. 34. 154. 123. 81. 48. 27. 36. 43. 49. 55. 60. 71.
      79. 76. 74. 74. 73. 77. 83. 86. 83. 73. 58. 41. 31. 31. 168. 147.
      98. 48. 34. 46. 51. 54. 62. 69. 75. 75. 70. 65. 67. 71. 78. 85.
      88. 82. 70. 51. 36. 31. 59. 168. 145. 85. 36. 47. 51. 48. 61. 70.
      79. 78. 71. 66. 60. 61. 71. 80. 86. 86. 77. 61. 44. 37. 41. 100.
      168. 126. 54. 39. 49. 53. 62. 74. 82. 80. 75. 66. 58. 58. 67. 77.
      85. 92. 81. 72. 54. 40. 42. 75. 119. 161. 95. 45. 50. 60. 64. 75.
      84. 83. 77. 68. 60. 58. 64. 76. 85. 93. 91. 81. 72. 55. 48. 51.
      81. 137. 147. 65. 45. 64. 68. 73. 82. 86. 84. 75. 65. 62. 66. 76.
      86. 93. 94. 90. 86. 69. 60. 41. 24. 90. 149. 113. 48. 51. 65. 68.
      82. 88. 87. 81. 75. 70. 72. 80. 88. 93. 95. 94. 90. 83. 85. 64.
      44. 66. 119. 154. 86. 51. 59. 61. 70. 88. 90. 90. 81. 79. 79. 84.
      90. 94. 94. 94. 94. 89. 83. 82. 60. 60. 92. 104. 116. 77. 65. 63.
      62. 75. 88. 86. 88. 88. 87. 88. 91. 94. 94. 94. 93. 88. 87. 80.
      62. 60. 70. 71. 78. 83. 65. 63. 54. 61. 72. 77. 78. 78. 81. 80.
      82. 86. 89. 91. 91. 91. 89. 80. 59. 44. 36. 37. 47. 47. 55. 50.
      53. 44. 58. 62. 61. 64. 59. 60. 62. 67. 75. 82. 86. 87. 87. 77.
      57. 41. 25. 12. 14. 25. 29. 26. 38. 34. 33. 37. 40. 41. 39. 38.
      39. 40. 48. 60. 71. 82. 83. 76. 60. 41. 28. 22. 21. 17. 19. 17.
      12.</_>
    <_>
      8. 9. 10. 10. 9. 8. 8. 8. 7. 10. 9. 8. 11. 6. 10. 7. 7. 8. 8. 5.
      5. 7. 6. 8. 9. 8. 9. 9. 9. 8. 8. 8. 8. 6. 6. 7. 10. 7. 6. 7. 6. 6.
      7. 8. 8. 10. 10. 7. 7. 8. 8. 8. 8. 8. 8. 7. 8. 8. 10. 8. 8. 8. 4.
      14. 18. 20. 22. 18. 9. 5. 8. 8. 6. 7. 9. 8. 7. 7. 7. 7. 7. 8. 9.
      7. 8. 8. 4. 12. 35. 42. 45. 48. 38. 17. 7. 8. 9. 9. 11. 9. 9. 8.
      7. 7. 7. 7. 8. 8. 7. 8. 7. 7. 32. 51. 52. 51. 50. 42. 18. 6. 8. 8.
      7. 7. 9. 11. 10. 8. 7. 7. 7. 7. 7. 12. 7. 7. 18. 47. 54. 50. 48.
      50. 46. 22. 9. 12. 11. 10. 9. 10. 11. 10. 9. 8. 8. 8. 8. 8. 10. 7.
      15. 36. 51. 51. 52. 52. 49. 48. 23. 7. 9. 9. 11. 9. 12. 11. 10. 9.
      9. 9. 9. 9. 9. 7. 13. 30. 54. 49. 45. 50. 50. 50. 51. 26. 9. 10.
      11. 13. 12. 16. 10. 11. 9. 7. 10. 8. 9. 7. 6. 32. 51. 52. 48. 36.
      49. 51. 51. 50. 26. 11. 14. 12. 10. 12. 13. 10. 10. 12. 9. 7. 7.
      8. 8. 22. 45. 54. 46. 34. 18. 37. 49. 50. 50. 28. 9. 10. 9. 11.
      16. 11. 9. 12. 11. 8. 11. 9. 6. 21. 45. 52. 53. 39. 14. 7. 44. 52.
      46. 48. 32. 11. 13. 10. 13. 14. 13. 22. 13. 10. 9. 11. 14. 17. 40.
      52. 48. 37. 23. 3. 7. 48. 50. 49. 47. 31. 7. 10. 9. 13. 14. 13.
      37. 9. 12. 12. 5. 21. 41. 49. 49. 44. 21. 11. 9. 12. 39. 50. 49.
      48. 36. 11. 12. 10. 13. 14. 13. 27. 8. 12. 13. 16. 35. 52. 48. 41.
      30. 10. 8. 11. 14. 36. 52. 46. 47. 38. 15. 11. 9. 11. 14. 13. 13.
      11. 12. 12. 39. 46. 49. 48. 36. 22. 16. 20. 17. 22. 39. 48. 48.
      46. 37. 19. 14. 14. 12. 15. 12. 16. 14. 12. 16. 50. 48. 49. 49.
      44. 43. 44. 46. 45. 47. 47. 48. 48. 49. 47. 41. 38. 34. 18. 12.
      14. 10. 13. 11. 21. 44. 52. 48. 50. 46. 46. 49. 47. 47. 50. 49.
      50. 49. 52. 46. 52. 48. 42. 20. 12. 14. 10. 12. 10. 15. 30. 37.
      37. 41. 38. 39. 43. 43. 44. 44. 44. 49. 51. 50. 49. 46. 43. 36.
      19. 11. 11. 11. 11. 10. 9. 10. 9. 7. 8. 11. 10. 9. 8. 11. 17. 28.
      48. 50. 45. 47. 29. 22. 16. 11. 8. 9. 6. 7. 10. 10. 8. 8. 9. 9. 9.
      9. 8. 6. 8. 11. 26. 53. 49. 46. 49. 20. 5. 6. 8. 10. 9. 9. 8. 8.
      8. 5. 6. 8. 8. 5. 7. 8. 6. 7. 7. 19. 46. 48. 48. 49. 21. 3. 9. 9.
      9. 9. 8. 6. 7. 8. 8. 9. 10. 8. 7. 7. 7. 6. 7. 9. 21. 43. 46. 45.
      39. 18. 4. 12. 7. 5. 9. 6. 7. 8. 8. 8. 7. 5. 4. 7. 6. 8. 8. 8. 8.
      12. 23. 31. 29. 22. 12. 6. 11. 7. 8. 9. 7. 8. 7. 6. 6. 6. 7. 10.
      7. 5. 6. 6. 6. 7. 6. 9. 5. 7. 6. 7. 9. 8. 6. 10. 8. 7. 8. 7. 5. 7.
      7. 6. 7. 8. 8. 8. 7. 7. 9. 9. 9. 7. 8. 7. 7. 9. 9. 9. 9. 7.</_>
    <_>
      7. 7. 7. 7. 7. 7. 8. 9. 9. 7. 6. 9. 8. 5. 9. 8. 7. 7. 8. 6. 7. 6.
      4. 7. 7. 6. 6. 6. 6. 6. 6. 6. 7. 6. 8. 6. 4. 8. 7. 5. 8. 7. 8. 7.
      5. 7. 8. 7. 9. 7. 6. 7. 7. 6. 6. 6. 6. 6. 4. 6. 2. 9. 7. 8. 5. 3.
      4. 8. 7. 5. 7. 8. 6. 4. 6. 7. 7. 7. 7. 7. 7. 6. 6. 7. 5. 8. 7. 2.
      6. 45. 50. 50. 45. 24. 5. 2. 5. 8. 9. 5. 6. 6. 6. 6. 6. 6. 6. 6.
      7. 5. 4. 9. 7. 26. 47. 44. 47. 46. 25. 8. 6. 7. 7. 4. 6. 7. 6. 6.
      6. 6. 6. 6. 6. 3. 8. 7. 5. 14. 44. 44. 50. 46. 46. 22. 5. 4. 5. 6.
      4. 7. 9. 8. 7. 6. 6. 6. 6. 6. 7. 5. 7. 3. 39. 47. 47. 45. 47. 47.
      22. 5. 6. 6. 8. 8. 9. 10. 9. 7. 6. 6. 6. 6. 6. 3. 10. 3. 30. 44.
      44. 46. 47. 45. 46. 22. 6. 7. 5. 5. 4. 9. 16. 6. 10. 6. 3. 8. 6.
      5. 6. 4. 18. 45. 46. 42. 33. 43. 45. 44. 23. 6. 6. 6. 5. 8. 12.
      14. 14. 7. 7. 8. 4. 5. 9. 5. 15. 42. 39. 48. 16. 26. 47. 45. 45.
      23. 4. 4. 7. 7. 9. 13. 19. 14. 8. 8. 6. 5. 7. 4. 9. 37. 41. 47.
      28. 4. 26. 43. 44. 44. 23. 5. 6. 7. 7. 9. 16. 30. 9. 9. 8. 5. 6.
      5. 8. 33. 44. 45. 30. 8. 8. 24. 45. 45. 42. 20. 4. 5. 5. 6. 11.
      17. 30. 12. 7. 8. 8. 4. 6. 30. 42. 46. 37. 11. 8. 4. 20. 43. 44.
      43. 23. 8. 9. 8. 7. 9. 16. 17. 15. 10. 7. 3. 8. 28. 45. 44. 39.
      12. 8. 5. 0. 29. 41. 43. 44. 23. 4. 4. 6. 7. 9. 15. 10. 12. 12. 7.
      6. 25. 46. 44. 44. 17. 10. 2. 4. 9. 31. 40. 45. 45. 25. 9. 8. 6.
      6. 11. 13. 14. 8. 8. 6. 22. 43. 43. 43. 41. 34. 37. 38. 39. 41.
      41. 45. 42. 46. 42. 43. 42. 22. 7. 7. 11. 11. 9. 5. 7. 22. 40. 47.
      44. 43. 45. 43. 46. 43. 44. 42. 45. 43. 43. 46. 44. 43. 22. 7. 9.
      9. 7. 7. 6. 10. 23. 38. 44. 42. 41. 44. 40. 36. 37. 42. 43. 44.
      46. 47. 36. 27. 26. 13. 4. 7. 7. 9. 8. 6. 4. 6. 9. 9. 6. 7. 5. 6.
      7. 7. 6. 23. 44. 43. 45. 21. 5. 6. 6. 5. 8. 6. 5. 5. 6. 6. 7. 7.
      7. 7. 5. 5. 7. 4. 6. 7. 24. 41. 42. 48. 20. 6. 6. 7. 5. 3. 6. 6.
      5. 5. 6. 6. 5. 5. 6. 8. 7. 7. 4. 6. 8. 26. 44. 42. 45. 18. 6. 6.
      8. 7. 8. 6. 6. 5. 5. 6. 6. 6. 6. 7. 6. 4. 6. 7. 7. 6. 21. 41. 41.
      39. 18. 7. 5. 5. 6. 8. 4. 6. 6. 6. 6. 6. 6. 6. 6. 4. 7. 6. 5. 6.
      9. 6. 3. 5. 6. 5. 4. 7. 5. 5. 6. 4. 6. 7. 7. 6. 6. 6. 6. 6. 7. 8.
      4. 6. 5. 6. 4. 7. 6. 5. 9. 6. 8. 5. 6. 7. 5. 5. 4. 5. 6. 6. 5. 5.
      7. 7. 7. 9. 8. 11. 10. 14. 16. 19. 23. 20. 25. 35. 46. 49. 36. 44.</_>
    <_>
      26. 30. 36. 42. 50. 67. 84. 94. 98. 104. 103. 101. 98. 94. 93. 90.
      90. 89. 75. 60. 43. 28. 24. 22. 18. 26. 29. 34. 42. 51. 64. 82.
      96. 99. 104. 103. 100. 97. 94. 92. 90. 89. 90. 81. 71. 56. 37. 26.
      19. 17. 25. 27. 32. 40. 51. 60. 77. 96. 103. 105. 104. 99. 94. 90.
      85. 86. 85. 87. 83. 78. 66. 47. 29. 18. 16. 23. 27. 30. 38. 50.
      58. 72. 92. 104. 104. 104. 97. 90. 84. 77. 78. 78. 79. 77. 76. 69.
      52. 31. 19. 14. 22. 26. 29. 35. 48. 58. 71. 86. 101. 103. 103. 95.
      87. 77. 69. 67. 67. 67. 69. 70. 68. 53. 32. 20. 14. 22. 26. 28.
      34. 45. 57. 70. 82. 97. 104. 102. 96. 84. 70. 61. 54. 52. 52. 56.
      59. 59. 47. 27. 18. 16. 23. 25. 28. 33. 41. 53. 68. 79. 93. 106.
      102. 97. 84. 66. 57. 44. 39. 37. 40. 42. 43. 35. 21. 17. 15. 25.
      24. 27. 32. 37. 48. 64. 76. 88. 104. 101. 98. 86. 66. 58. 43. 34.
      29. 29. 29. 30. 27. 19. 20. 20. 27. 24. 27. 31. 36. 46. 60. 75.
      87. 98. 105. 101. 91. 75. 58. 47. 38. 26. 25. 29. 26. 21. 20. 25.
      34. 27. 25. 27. 29. 34. 42. 55. 71. 84. 96. 105. 104. 97. 83. 67.
      56. 47. 36. 29. 26. 23. 22. 22. 26. 35. 27. 27. 28. 29. 32. 37.
      47. 66. 80. 92. 102. 104. 100. 89. 76. 67. 61. 51. 41. 31. 26. 26.
      25. 26. 39. 27. 27. 29. 30. 32. 34. 42. 59. 77. 89. 100. 103. 100.
      93. 84. 79. 73. 67. 59. 46. 38. 33. 27. 28. 46. 30. 28. 30. 32.
      34. 34. 38. 51. 68. 81. 93. 98. 97. 93. 89. 87. 85. 82. 76. 63.
      51. 40. 31. 32. 54. 38. 30. 29. 32. 34. 34. 37. 44. 56. 69. 82.
      89. 91. 90. 89. 91. 92. 91. 87. 76. 65. 50. 37. 38. 63. 50. 32.
      27. 29. 31. 33. 35. 37. 46. 57. 68. 75. 79. 81. 83. 86. 89. 92.
      92. 86. 79. 64. 44. 39. 72. 59. 35. 25. 27. 27. 31. 33. 32. 37.
      44. 51. 57. 62. 66. 70. 74. 81. 87. 92. 92. 89. 74. 48. 36. 77.
      63. 45. 28. 21. 26. 28. 26. 29. 30. 31. 35. 38. 41. 44. 48. 52.
      60. 69. 78. 90. 94. 81. 59. 35. 72. 60. 45. 32. 24. 22. 23. 22.
      24. 22. 23. 24. 25. 27. 30. 35. 38. 46. 56. 69. 85. 93. 85. 64.
      38. 60. 52. 39. 31. 24. 19. 20. 21. 23. 23. 22. 21. 20. 20. 21.
      25. 29. 34. 44. 63. 85. 98. 94. 71. 40. 48. 44. 27. 21. 19. 16.
      19. 23. 25. 26. 25. 23. 21. 20. 21. 24. 27. 29. 38. 57. 82. 98.
      95. 69. 35. 38. 43. 21. 11. 13. 15. 19. 22. 24. 26. 26. 25. 25.
      24. 24. 27. 29. 33. 40. 61. 85. 100. 94. 62. 30. 32. 48. 25. 12.
      12. 17. 21. 21. 23. 25. 26. 28. 29. 30. 30. 33. 35. 41. 52. 75.
      97. 106. 88. 50. 23. 26. 43. 27. 16. 12. 16. 20. 21. 24. 23. 26.
      30. 35. 39. 43. 48. 51. 58. 69. 88. 100. 95. 66. 30. 16. 20. 30.
      23. 15. 9. 12. 17. 19. 24. 25. 29. 36. 45. 54. 62. 70. 76. 82. 88.
      96. 94. 78. 45. 16. 17. 19. 15. 12. 12. 14. 17. 19. 21. 22. 27.
      35. 45. 58. 70. 79. 87. 88. 92. 95. 93. 79. 52. 26. 15. 18. 22.</_>
    <_>
      58. 69. 80. 87. 93. 97. 100. 102. 99. 99. 97. 95. 94. 94. 91. 87.
      79. 68. 63. 56. 44. 40. 39. 39. 35. 63. 73. 84. 96. 106. 111. 113.
      115. 114. 113. 110. 108. 107. 107. 104. 101. 91. 80. 75. 65. 49.
      42. 41. 42. 38. 69. 76. 88. 103. 115. 120. 120. 122. 120. 118.
      116. 115. 114. 113. 111. 108. 101. 91. 85. 73. 55. 45. 43. 44. 41.
      70. 79. 91. 104. 116. 121. 121. 121. 119. 118. 118. 117. 118. 116.
      114. 111. 105. 95. 88. 75. 61. 51. 46. 46. 45. 66. 79. 92. 102.
      114. 122. 123. 122. 119. 117. 116. 115. 115. 114. 112. 111. 104.
      93. 84. 73. 63. 56. 49. 49. 52. 65. 78. 91. 100. 112. 121. 124.
      122. 119. 114. 108. 104. 101. 100. 100. 101. 96. 86. 77. 68. 61.
      57. 53. 55. 59. 65. 75. 86. 97. 111. 120. 122. 120. 118. 110. 100.
      91. 85. 82. 82. 83. 80. 73. 67. 60. 55. 55. 58. 67. 70. 65. 72.
      82. 96. 112. 122. 122. 121. 114. 105. 92. 81. 72. 66. 64. 65. 66.
      64. 61. 55. 51. 53. 63. 78. 82. 63. 75. 77. 94. 110. 123. 124.
      119. 113. 101. 88. 79. 69. 62. 59. 59. 57. 59. 58. 53. 52. 55. 68.
      91. 100. 47. 67. 77. 92. 107. 122. 125. 119. 112. 103. 93. 85. 76.
      69. 65. 62. 60. 60. 58. 53. 56. 62. 76. 97. 119. 42. 60. 74. 87.
      99. 116. 123. 120. 114. 108. 102. 96. 89. 84. 79. 75. 69. 65. 60.
      58. 60. 64. 80. 107. 138. 49. 57. 72. 84. 95. 109. 119. 122. 117.
      114. 111. 108. 104. 101. 97. 92. 84. 75. 69. 67. 62. 59. 78. 115.
      152. 52. 54. 71. 81. 88. 101. 112. 119. 117. 117. 118. 117. 115.
      113. 111. 107. 100. 90. 82. 76. 67. 61. 80. 118. 159. 50. 47. 64.
      67. 71. 86. 100. 107. 109. 110. 115. 119. 119. 118. 118. 117. 111.
      104. 97. 86. 75. 68. 85. 118. 153. 57. 43. 54. 54. 57. 69. 80. 86.
      90. 91. 98. 105. 108. 111. 116. 119. 117. 112. 108. 98. 83. 69.
      83. 117. 160. 69. 42. 51. 54. 57. 61. 63. 66. 70. 70. 77. 87. 93.
      100. 110. 117. 119. 114. 113. 108. 87. 63. 75. 115. 167. 76. 45.
      44. 58. 54. 51. 55. 55. 58. 59. 62. 70. 79. 88. 99. 111. 118. 119.
      113. 109. 96. 68. 70. 108. 157. 92. 46. 33. 51. 57. 54. 54. 56.
      56. 56. 58. 64. 72. 81. 93. 106. 115. 118. 115. 112. 99. 71. 70.
      99. 128. 64. 43. 43. 55. 59. 58. 60. 65. 63. 62. 62. 65. 73. 81.
      93. 104. 115. 117. 116. 111. 96. 73. 70. 87. 104. 50. 53. 57. 56.
      57. 66. 73. 78. 80. 80. 79. 81. 86. 92. 101. 109. 114. 115. 114.
      106. 89. 70. 66. 74. 71. 40. 45. 49. 48. 53. 68. 83. 96. 99. 99.
      97. 97. 100. 103. 107. 112. 114. 113. 110. 98. 79. 63. 58. 58. 61.
      42. 46. 50. 49. 54. 66. 82. 99. 111. 112. 111. 110. 111. 112. 112.
      113. 115. 107. 96. 80. 62. 51. 47. 46. 48. 41. 38. 38. 38. 46. 60.
      73. 86. 101. 106. 109. 110. 111. 110. 105. 102. 98. 87. 73. 59.
      48. 43. 42. 42. 41. 40. 36. 38. 41. 41. 43. 52. 68. 74. 82. 90.
      94. 96. 93. 85. 79. 71. 62. 52. 47. 45. 44. 43. 42. 44. 34. 36.
      37. 39. 37. 34. 41. 47. 51. 54. 56. 57. 58. 57. 56. 53. 51. 49.
      48. 46. 43. 44. 45. 44. 44.</_>
    <_>
      32. 36. 35. 37. 43. 47. 55. 64. 68. 74. 77. 75. 73. 73. 75. 76.
      73. 69. 62. 51. 48. 43. 42. 36. 35. 35. 39. 40. 46. 54. 62. 73.
      84. 97. 103. 106. 104. 101. 101. 101. 101. 95. 88. 80. 68. 59. 48.
      46. 43. 45. 40. 42. 45. 52. 63. 74. 88. 100. 112. 115. 117. 115.
      112. 112. 111. 109. 106. 98. 91. 79. 64. 50. 49. 50. 50. 43. 43.
      47. 54. 66. 80. 94. 108. 118. 118. 116. 113. 110. 109. 107. 105.
      100. 92. 86. 76. 62. 51. 51. 57. 61. 48. 44. 49. 57. 69. 86. 101.
      114. 118. 115. 109. 102. 97. 94. 90. 87. 85. 80. 76. 68. 58. 53.
      55. 67. 81. 56. 49. 53. 60. 72. 90. 104. 117. 120. 114. 104. 95.
      88. 82. 76. 72. 68. 67. 63. 58. 56. 57. 59. 79. 103. 65. 54. 58.
      64. 74. 92. 104. 117. 117. 110. 101. 92. 84. 77. 70. 65. 62. 62.
      58. 57. 59. 61. 64. 93. 125. 70. 57. 61. 66. 77. 94. 106. 118.
      117. 111. 103. 95. 89. 82. 75. 70. 68. 67. 62. 62. 67. 66. 69.
      104. 148. 65. 59. 61. 67. 78. 94. 107. 116. 116. 110. 106. 102.
      95. 92. 88. 82. 79. 78. 72. 71. 73. 74. 71. 106. 154. 65. 57. 57.
      64. 77. 93. 106. 115. 113. 110. 109. 107. 104. 103. 101. 96. 94.
      90. 83. 78. 78. 77. 68. 103. 156. 67. 56. 54. 60. 71. 86. 98. 108.
      109. 108. 110. 111. 111. 112. 112. 109. 107. 102. 94. 86. 85. 81.
      65. 98. 158. 72. 60. 56. 59. 68. 80. 90. 99. 103. 104. 106. 108.
      109. 112. 113. 112. 115. 110. 103. 95. 95. 88. 66. 96. 154. 69.
      58. 54. 55. 59. 68. 76. 84. 87. 90. 93. 96. 101. 106. 110. 112.
      117. 115. 110. 104. 103. 95. 70. 94. 143. 61. 53. 51. 49. 50. 55.
      59. 63. 66. 70. 74. 79. 88. 97. 104. 110. 115. 116. 112. 109. 106.
      96. 72. 86. 131. 56. 52. 52. 50. 50. 53. 54. 55. 54. 59. 63. 69.
      80. 90. 98. 107. 112. 116. 112. 111. 105. 94. 71. 77. 119. 50. 48.
      51. 51. 53. 57. 56. 55. 54. 60. 63. 68. 78. 88. 96. 105. 112. 117.
      113. 114. 105. 93. 73. 73. 101. 44. 46. 49. 53. 56. 58. 58. 57.
      59. 61. 64. 71. 80. 89. 97. 106. 113. 116. 115. 112. 105. 91. 75.
      69. 83. 47. 49. 53. 59. 64. 68. 70. 71. 71. 73. 76. 80. 86. 92.
      100. 107. 112. 114. 113. 109. 102. 88. 74. 68. 71. 47. 49. 54. 60.
      67. 73. 77. 80. 82. 85. 87. 89. 93. 97. 103. 109. 112. 112. 109.
      103. 94. 80. 67. 61. 63. 48. 52. 58. 67. 75. 83. 88. 91. 94. 97.
      98. 99. 102. 104. 107. 111. 113. 111. 105. 97. 86. 73. 62. 56. 55.
      43. 48. 58. 69. 80. 90. 97. 100. 102. 104. 103. 104. 107. 108.
      107. 108. 107. 102. 95. 86. 74. 63. 55. 51. 48. 37. 43. 54. 67.
      79. 89. 96. 100. 102. 104. 104. 104. 107. 108. 105. 105. 98. 91.
      82. 73. 62. 53. 48. 44. 46. 40. 45. 55. 65. 76. 86. 93. 97. 98.
      100. 101. 100. 102. 101. 98. 96. 87. 78. 70. 62. 53. 49. 47. 44.
      44. 36. 40. 48. 57. 67. 76. 83. 87. 91. 93. 93. 90. 89. 86. 82.
      79. 73. 64. 57. 52. 46. 45. 46. 44. 44. 32. 34. 38. 45. 51. 56.
      60. 63. 67. 70. 72. 71. 70. 68. 65. 61. 58. 54. 49. 47. 45. 44.
      45. 46. 44.</_>
    <_>
      19. 19. 21. 20. 25. 43. 63. 86. 102. 117. 132. 141. 141. 137. 129.
      119. 92. 67. 39. 24. 20. 19. 19. 21. 20. 18. 18. 23. 23. 44. 76.
      98. 116. 119. 123. 128. 129. 127. 125. 117. 104. 78. 55. 31. 21.
      22. 22. 21. 19. 20. 17. 17. 19. 25. 55. 104. 118. 126. 124. 118.
      117. 112. 101. 96. 88. 75. 52. 35. 19. 16. 19. 21. 19. 18. 21. 17.
      18. 17. 29. 62. 119. 121. 119. 120. 100. 91. 81. 63. 52. 43. 31.
      25. 18. 13. 13. 15. 16. 18. 20. 22. 21. 20. 21. 31. 70. 119. 118.
      107. 83. 51. 38. 36. 28. 26. 25. 20. 16. 14. 15. 17. 17. 16. 19.
      23. 24. 21. 17. 21. 25. 74. 113. 118. 98. 48. 15. 5. 8. 5. 8. 11.
      14. 18. 18. 19. 21. 20. 19. 21. 24. 31. 17. 15. 17. 25. 79. 117.
      125. 101. 45. 17. 12. 15. 13. 15. 16. 20. 19. 20. 21. 22. 20. 18.
      20. 23. 38. 20. 22. 16. 30. 78. 121. 125. 98. 48. 20. 13. 14. 14.
      16. 13. 13. 16. 19. 22. 21. 17. 15. 18. 23. 40. 19. 16. 19. 28.
      78. 122. 123. 99. 57. 28. 12. 14. 12. 7. 9. 12. 15. 17. 17. 17.
      17. 18. 21. 25. 42. 45. 16. 14. 29. 73. 116. 122. 107. 86. 70. 64.
      65. 59. 49. 40. 32. 26. 22. 19. 17. 17. 19. 23. 26. 38. 65. 14.
      10. 30. 75. 116. 119. 110. 104. 103. 105. 106. 101. 93. 80. 64.
      51. 37. 24. 15. 12. 17. 24. 26. 31. 69. 16. 19. 33. 76. 113. 119.
      121. 122. 123. 124. 121. 119. 117. 107. 93. 74. 53. 32. 18. 9. 14.
      22. 22. 22. 81. 12. 17. 26. 67. 106. 120. 119. 126. 126. 124. 122.
      124. 127. 120. 109. 89. 68. 46. 28. 16. 15. 18. 15. 16. 91. 12.
      19. 27. 53. 89. 103. 97. 99. 101. 103. 109. 119. 125. 123. 117.
      107. 87. 63. 40. 23. 17. 15. 12. 22. 67. 11. 21. 22. 26. 45. 48.
      49. 54. 59. 67. 80. 97. 112. 118. 119. 122. 104. 77. 50. 29. 17.
      12. 11. 30. 52. 19. 19. 13. 16. 25. 5. 8. 11. 19. 31. 47. 72. 96.
      114. 124. 123. 109. 84. 56. 34. 18. 9. 9. 24. 65. 18. 22. 20. 15.
      17. 9. 15. 16. 10. 9. 19. 38. 79. 107. 119. 123. 110. 92. 61. 32.
      19. 10. 8. 17. 64. 19. 22. 18. 21. 18. 15. 22. 24. 20. 15. 18. 35.
      77. 106. 118. 123. 117. 97. 63. 33. 17. 8. 6. 10. 31. 15. 23. 18.
      18. 18. 15. 15. 13. 16. 16. 20. 41. 81. 106. 118. 124. 123. 97.
      60. 33. 16. 9. 7. 9. 16. 20. 23. 20. 16. 26. 20. 16. 15. 17. 20.
      28. 52. 88. 111. 124. 126. 121. 86. 50. 29. 13. 9. 9. 10. 17. 18.
      13. 18. 28. 43. 34. 25. 27. 27. 35. 48. 74. 99. 115. 126. 125.
      112. 74. 42. 22. 7. 7. 11. 12. 18. 18. 18. 20. 50. 75. 79. 67. 56.
      55. 66. 79. 99. 111. 117. 119. 118. 98. 66. 38. 17. 5. 8. 15. 17.
      18. 20. 21. 14. 48. 88. 114. 112. 104. 100. 104. 104. 112. 119.
      119. 111. 102. 76. 52. 31. 12. 7. 13. 19. 18. 16. 16. 18. 16. 42.
      82. 112. 124. 122. 121. 125. 118. 119. 123. 118. 102. 86. 54. 35.
      19. 6. 10. 17. 20. 19. 15. 17. 17. 17. 27. 60. 86. 103. 112. 113.
      113. 108. 106. 106. 91. 73. 57. 35. 22. 13. 7. 12. 18. 18. 18.</_>
    <_>
      17. 11. 11. 16. 21. 27. 34. 40. 58. 77. 94. 111. 119. 110. 112.
      117. 119. 113. 110. 104. 92. 72. 44. 25. 18. 39. 22. 13. 15. 19.
      23. 30. 38. 57. 78. 95. 111. 116. 107. 106. 108. 108. 107. 110.
      107. 98. 80. 51. 27. 17. 69. 39. 22. 22. 25. 27. 31. 41. 59. 82.
      100. 114. 116. 105. 97. 91. 90. 90. 94. 94. 92. 81. 52. 26. 14.
      82. 45. 26. 26. 29. 30. 32. 40. 59. 83. 99. 114. 114. 103. 86. 69.
      65. 63. 65. 66. 67. 63. 43. 24. 13. 84. 45. 28. 28. 31. 34. 34.
      40. 62. 84. 99. 113. 112. 102. 77. 51. 37. 33. 34. 35. 36. 36. 28.
      21. 13. 87. 47. 31. 31. 33. 37. 39. 46. 67. 88. 99. 112. 108. 97.
      68. 37. 22. 13. 11. 14. 18. 20. 15. 12. 9. 87. 44. 28. 29. 31. 36.
      39. 49. 70. 90. 99. 110. 102. 93. 66. 37. 28. 16. 11. 11. 13. 15.
      13. 12. 9. 86. 41. 26. 28. 31. 36. 39. 51. 72. 93. 103. 114. 105.
      99. 76. 50. 39. 32. 28. 20. 14. 14. 17. 23. 16. 79. 38. 28. 28.
      30. 35. 40. 52. 73. 96. 105. 114. 112. 102. 90. 76. 67. 58. 44.
      34. 22. 15. 20. 23. 21. 74. 33. 25. 27. 31. 35. 41. 54. 73. 95.
      104. 114. 116. 114. 109. 102. 97. 89. 76. 61. 44. 28. 20. 18. 23.
      72. 31. 25. 27. 30. 33. 39. 52. 70. 90. 99. 110. 115. 118. 119.
      118. 120. 116. 106. 88. 68. 45. 23. 13. 21. 70. 30. 24. 27. 29.
      30. 35. 47. 66. 83. 93. 103. 107. 110. 112. 114. 117. 118. 115.
      101. 84. 61. 31. 15. 27. 65. 27. 23. 26. 27. 28. 31. 42. 55. 69.
      77. 86. 88. 91. 92. 96. 101. 109. 113. 108. 97. 77. 46. 23. 29.
      61. 27. 25. 26. 27. 27. 27. 34. 44. 52. 55. 60. 61. 64. 65. 73.
      85. 99. 109. 113. 106. 88. 59. 27. 29. 58. 27. 27. 27. 26. 25. 21.
      25. 33. 36. 33. 34. 34. 38. 41. 52. 66. 85. 101. 114. 110. 93. 66.
      25. 21. 52. 23. 25. 26. 25. 23. 18. 20. 19. 18. 13. 12. 12. 18.
      23. 35. 50. 72. 92. 113. 110. 94. 69. 22. 21. 48. 22. 23. 25. 22.
      20. 19. 16. 17. 15. 11. 9. 14. 18. 20. 28. 36. 56. 86. 107. 111.
      101. 68. 22. 20. 42. 19. 22. 24. 23. 23. 22. 20. 19. 16. 13. 13.
      19. 22. 20. 24. 36. 58. 85. 107. 116. 105. 67. 21. 18. 36. 18. 20.
      21. 22. 22. 21. 19. 19. 16. 15. 16. 22. 22. 20. 26. 36. 63. 89.
      108. 115. 96. 55. 15. 15. 29. 16. 18. 18. 19. 19. 19. 17. 19. 18.
      18. 18. 19. 18. 21. 32. 50. 76. 96. 109. 110. 82. 41. 14. 13. 21.
      14. 15. 14. 17. 17. 20. 20. 22. 21. 22. 20. 21. 22. 30. 46. 70.
      88. 99. 107. 102. 67. 31. 14. 12. 18. 14. 14. 13. 17. 17. 22. 27.
      32. 32. 33. 34. 40. 46. 55. 70. 85. 100. 107. 108. 89. 50. 20. 12.
      13. 17. 17. 16. 15. 21. 21. 29. 38. 50. 53. 59. 64. 72. 79. 85.
      97. 103. 110. 110. 98. 68. 32. 16. 15. 14. 17. 18. 18. 19. 26. 27.
      39. 51. 68. 75. 85. 91. 97. 101. 104. 113. 115. 111. 98. 75. 42.
      17. 14. 18. 15. 18. 19. 21. 25. 30. 35. 45. 61. 78. 87. 97. 105.
      110. 113. 113. 112. 106. 93. 71. 48. 24. 13. 17. 19. 16.</_>
    <_>
      21. 22. 20. 21. 23. 25. 25. 22. 19. 23. 29. 41. 65. 86. 107. 131.
      150. 154. 149. 131. 117. 105. 80. 53. 26. 24. 27. 28. 27. 25. 24.
      27. 28. 31. 33. 40. 48. 52. 54. 57. 63. 69. 76. 78. 73. 67. 59.
      46. 33. 26. 27. 29. 30. 28. 24. 24. 30. 36. 42. 49. 65. 77. 78.
      75. 73. 69. 66. 66. 63. 60. 59. 53. 40. 31. 26. 26. 24. 27. 30.
      33. 35. 39. 46. 59. 77. 97. 110. 115. 118. 120. 116. 116. 115.
      108. 100. 94. 78. 52. 32. 28. 42. 32. 28. 29. 33. 38. 43. 52. 70.
      97. 111. 114. 114. 109. 105. 100. 96. 97. 94. 87. 78. 64. 44. 30.
      30. 68. 49. 38. 32. 34. 40. 47. 61. 80. 108. 117. 113. 104. 86.
      72. 62. 60. 56. 53. 50. 43. 36. 33. 29. 27. 70. 47. 34. 30. 36.
      44. 49. 63. 90. 109. 114. 110. 94. 72. 56. 43. 35. 31. 33. 36. 33.
      36. 37. 30. 38. 87. 54. 32. 26. 35. 49. 58. 75. 104. 111. 112.
      110. 93. 72. 63. 49. 45. 42. 43. 37. 30. 35. 35. 22. 39. 105. 64.
      19. 22. 47. 51. 61. 87. 104. 116. 114. 112. 111. 104. 99. 96. 91.
      87. 80. 71. 58. 48. 35. 14. 43. 92. 36. 21. 42. 54. 57. 68. 86.
      108. 117. 117. 118. 119. 118. 121. 121. 119. 115. 107. 97. 81. 66.
      51. 30. 44. 64. 20. 32. 52. 49. 56. 71. 89. 111. 115. 115. 116.
      114. 112. 115. 117. 120. 122. 121. 116. 102. 84. 64. 41. 41. 35.
      27. 42. 43. 38. 49. 60. 76. 81. 81. 82. 83. 80. 80. 87. 92. 101.
      112. 120. 120. 111. 96. 74. 48. 36. 29. 42. 45. 37. 38. 44. 46.
      52. 52. 47. 46. 45. 43. 47. 58. 68. 88. 104. 115. 116. 111. 101.
      79. 51. 32. 37. 45. 41. 37. 37. 34. 35. 36. 31. 29. 29. 29. 30.
      37. 48. 62. 77. 98. 111. 114. 111. 101. 78. 50. 34. 37. 39. 35.
      33. 30. 26. 30. 30. 32. 32. 33. 30. 31. 35. 42. 56. 77. 99. 114.
      117. 112. 97. 72. 47. 31. 34. 38. 36. 33. 33. 34. 34. 31. 32. 34.
      35. 32. 37. 45. 53. 70. 87. 105. 117. 117. 107. 87. 62. 41. 33.
      32. 34. 37. 39. 38. 38. 40. 42. 44. 43. 44. 48. 54. 63. 75. 85.
      101. 109. 112. 107. 95. 78. 54. 34. 28. 31. 35. 40. 45. 48. 52.
      57. 60. 62. 63. 66. 70. 77. 85. 95. 104. 108. 111. 109. 98. 81.
      63. 43. 28. 28. 35. 41. 49. 57. 66. 75. 82. 85. 87. 89. 91. 94.
      98. 104. 110. 113. 110. 108. 99. 82. 64. 47. 34. 27. 30. 40. 48.
      59. 69. 81. 93. 101. 103. 105. 106. 107. 107. 109. 111. 111. 108.
      102. 93. 79. 63. 48. 37. 32. 30. 31. 43. 53. 65. 78. 91. 103. 110.
      111. 114. 115. 114. 113. 113. 110. 102. 94. 81. 70. 55. 44. 37.
      32. 31. 32. 32. 47. 56. 70. 83. 95. 104. 108. 109. 112. 112. 109.
      105. 100. 92. 80. 69. 55. 45. 35. 31. 31. 32. 33. 34. 30. 46. 54.
      65. 76. 84. 88. 89. 89. 88. 85. 80. 74. 68. 61. 51. 43. 35. 30.
      26. 27. 30. 32. 33. 32. 28. 40. 46. 54. 63. 66. 65. 63. 62. 55.
      52. 46. 42. 38. 36. 33. 31. 28. 26. 26. 28. 30. 31. 29. 27. 27.
      35. 39. 44. 47. 46. 44. 41. 38. 34. 30. 26. 25. 25. 26. 27. 27.
      27. 28. 28. 29. 30. 30. 29. 28. 29.</_>
    <_>
      37. 43. 49. 55. 64. 72. 76. 79. 82. 84. 88. 93. 99. 104. 105. 103.
      97. 92. 85. 80. 73. 62. 47. 36. 26. 41. 47. 52. 58. 66. 74. 80.
      85. 83. 84. 84. 84. 85. 85. 83. 81. 79. 76. 72. 69. 65. 56. 44.
      35. 26. 43. 48. 55. 63. 72. 79. 86. 92. 91. 90. 89. 86. 84. 82.
      80. 77. 74. 72. 70. 65. 60. 51. 40. 32. 27. 42. 48. 57. 68. 79.
      87. 93. 99. 98. 97. 94. 93. 92. 90. 88. 86. 84. 83. 79. 72. 62.
      51. 40. 33. 30. 42. 48. 57. 70. 85. 95. 102. 107. 105. 102. 99.
      98. 98. 97. 96. 94. 95. 94. 89. 80. 67. 54. 42. 36. 34. 42. 48.
      57. 70. 87. 100. 108. 111. 109. 106. 103. 102. 102. 102. 102. 101.
      101. 100. 94. 83. 69. 54. 42. 36. 36. 39. 48. 58. 69. 86. 100.
      107. 109. 106. 103. 99. 97. 95. 93. 92. 93. 94. 93. 88. 78. 65.
      52. 42. 36. 35. 34. 46. 58. 69. 85. 98. 103. 103. 105. 101. 96.
      89. 82. 76. 74. 75. 76. 76. 74. 68. 60. 51. 43. 39. 34. 39. 42.
      53. 66. 82. 95. 102. 105. 105. 101. 94. 82. 69. 60. 58. 56. 57.
      57. 59. 54. 47. 41. 36. 38. 35. 35. 40. 50. 61. 77. 95. 108. 113.
      108. 102. 93. 80. 66. 56. 52. 49. 47. 45. 45. 41. 40. 41. 39. 40.
      44. 42. 39. 46. 65. 80. 92. 104. 114. 108. 102. 94. 83. 71. 62.
      56. 50. 46. 43. 42. 39. 40. 43. 39. 37. 46. 49. 30. 26. 51. 71.
      83. 99. 114. 112. 108. 102. 94. 85. 78. 71. 65. 60. 56. 53. 48.
      44. 42. 37. 36. 54. 66. 40. 27. 50. 68. 83. 97. 107. 103. 102.
      102. 100. 98. 98. 98. 94. 87. 80. 74. 63. 52. 46. 43. 46. 63. 68.
      35. 19. 49. 67. 76. 88. 98. 107. 107. 107. 103. 101. 103. 106.
      105. 106. 101. 95. 82. 68. 57. 50. 51. 67. 90. 42. 12. 41. 54. 57.
      65. 76. 91. 94. 96. 95. 93. 98. 105. 107. 106. 107. 106. 96. 82.
      69. 54. 45. 60. 101. 50. 12. 35. 46. 51. 53. 53. 60. 66. 73. 74.
      75. 82. 92. 96. 104. 108. 110. 102. 92. 81. 61. 45. 62. 96. 51.
      17. 34. 48. 39. 40. 44. 41. 40. 40. 43. 49. 57. 69. 82. 94. 105.
      112. 111. 104. 93. 72. 44. 70. 88. 49. 20. 34. 48. 41. 39. 38. 36.
      37. 37. 36. 37. 43. 57. 72. 86. 99. 107. 110. 109. 97. 65. 26. 66.
      69. 42. 19. 29. 42. 41. 42. 41. 41. 44. 43. 40. 39. 44. 57. 71.
      83. 100. 108. 110. 110. 97. 63. 25. 60. 42. 32. 25. 35. 44. 43.
      45. 46. 56. 60. 60. 59. 60. 63. 70. 77. 90. 104. 109. 109. 105.
      87. 57. 30. 48. 31. 31. 33. 40. 44. 43. 50. 61. 77. 83. 85. 84.
      85. 88. 89. 91. 96. 102. 103. 103. 94. 72. 48. 33. 35. 30. 32. 32.
      34. 37. 40. 53. 72. 82. 90. 95. 94. 95. 97. 98. 98. 100. 101. 96.
      90. 75. 52. 40. 36. 32. 25. 28. 29. 31. 36. 38. 44. 58. 74. 84.
      90. 90. 92. 94. 93. 92. 89. 87. 78. 66. 49. 36. 34. 33. 33. 29.
      29. 26. 26. 33. 35. 35. 43. 53. 63. 69. 69. 72. 74. 70. 65. 58.
      54. 46. 38. 32. 34. 37. 31. 31. 30. 30. 31. 31. 33. 35. 36. 37.
      41. 42. 42. 42. 42. 43. 41. 38. 36. 36. 36. 34. 35. 32. 32. 29.
      31.</_>
    <_>
      53. 66. 82. 97. 109. 114. 114. 114. 113. 114. 112. 109. 108. 107.
      104. 99. 90. 81. 74. 62. 51. 44. 33. 31. 30. 53. 64. 78. 91. 104.
      111. 114. 115. 114. 113. 111. 109. 109. 109. 108. 106. 101. 94.
      87. 75. 60. 48. 37. 31. 32. 50. 61. 75. 89. 102. 111. 112. 112.
      112. 109. 105. 104. 105. 107. 108. 109. 106. 101. 95. 85. 67. 51.
      41. 32. 31. 48. 59. 72. 86. 100. 110. 111. 111. 109. 105. 100. 96.
      95. 97. 100. 103. 101. 100. 94. 88. 69. 51. 44. 34. 28. 49. 58.
      68. 80. 95. 107. 112. 113. 110. 105. 98. 91. 85. 83. 85. 88. 92.
      92. 88. 83. 68. 53. 47. 39. 34. 49. 57. 66. 77. 92. 105. 111. 113.
      111. 107. 98. 87. 76. 69. 66. 67. 72. 74. 72. 69. 63. 53. 47. 44.
      38. 47. 56. 65. 74. 89. 103. 110. 112. 112. 109. 100. 86. 72. 61.
      53. 49. 49. 52. 53. 52. 53. 49. 41. 42. 43. 49. 56. 61. 68. 82.
      99. 109. 114. 114. 111. 102. 88. 74. 61. 49. 41. 37. 40. 42. 41.
      46. 44. 34. 37. 36. 49. 48. 57. 61. 73. 97. 110. 110. 116. 114.
      108. 97. 82. 68. 56. 49. 45. 38. 39. 39. 41. 40. 33. 42. 50. 55.
      43. 47. 62. 76. 91. 105. 114. 115. 115. 112. 104. 94. 85. 75. 68.
      58. 51. 49. 43. 40. 40. 40. 50. 75. 66. 44. 37. 57. 73. 80. 94.
      104. 113. 115. 114. 110. 105. 101. 94. 87. 79. 68. 61. 49. 41. 40.
      40. 46. 80. 72. 48. 30. 44. 61. 71. 87. 95. 106. 111. 115. 115.
      114. 114. 111. 107. 101. 90. 82. 68. 51. 44. 41. 44. 77. 73. 52.
      31. 36. 49. 61. 78. 86. 98. 105. 111. 113. 113. 116. 117. 116.
      113. 108. 105. 92. 68. 51. 47. 49. 69. 70. 53. 38. 40. 47. 52. 61.
      69. 83. 89. 96. 98. 99. 103. 109. 114. 117. 117. 116. 107. 87. 67.
      55. 51. 62. 75. 54. 39. 38. 47. 50. 49. 53. 58. 63. 68. 72. 75.
      81. 92. 100. 109. 116. 118. 115. 106. 89. 69. 54. 61. 95. 65. 39.
      30. 40. 48. 42. 42. 41. 43. 45. 46. 47. 52. 63. 73. 91. 106. 115.
      117. 115. 102. 79. 60. 47. 97. 64. 42. 26. 33. 43. 43. 39. 37. 35.
      31. 30. 34. 38. 45. 51. 71. 91. 105. 116. 119. 107. 86. 57. 37.
      88. 59. 41. 29. 37. 46. 46. 42. 39. 37. 32. 31. 33. 36. 41. 47.
      58. 79. 97. 112. 118. 112. 94. 65. 34. 73. 52. 39. 31. 38. 46. 46.
      45. 45. 45. 42. 40. 40. 40. 43. 48. 59. 74. 91. 108. 115. 113. 96.
      64. 31. 56. 44. 38. 34. 38. 44. 45. 47. 52. 56. 58. 57. 55. 54.
      55. 58. 67. 79. 94. 109. 113. 112. 95. 64. 30. 38. 36. 36. 38. 40.
      44. 45. 50. 59. 67. 75. 78. 77. 74. 74. 77. 79. 88. 102. 110. 108.
      102. 85. 57. 34. 25. 31. 35. 40. 41. 44. 45. 52. 64. 76. 89. 96.
      99. 97. 96. 97. 100. 100. 106. 108. 103. 93. 70. 43. 34. 23. 30.
      32. 37. 37. 39. 42. 50. 62. 75. 90. 101. 108. 109. 107. 107. 108.
      104. 102. 99. 93. 81. 59. 39. 30. 28. 33. 29. 32. 31. 33. 37. 46.
      54. 66. 81. 94. 105. 108. 107. 105. 99. 98. 95. 85. 72. 58. 43.
      35. 32. 28. 30. 29. 28. 27. 31. 38. 37. 39. 47. 57. 68. 76. 81.
      82. 80. 75. 69. 63. 55. 44. 34. 32. 34. 34.</_>
    <_>
      22. 29. 44. 59. 80. 84. 81. 81. 81. 78. 74. 66. 59. 53. 40. 26.
      23. 23. 23. 24. 41. 60. 65. 72. 71. 23. 30. 46. 68. 88. 89. 85.
      82. 77. 75. 72. 65. 58. 51. 40. 28. 26. 25. 23. 22. 44. 69. 75.
      82. 85. 26. 33. 50. 75. 93. 88. 85. 77. 72. 69. 66. 60. 52. 45.
      37. 30. 26. 25. 21. 22. 53. 87. 96. 99. 99. 25. 35. 52. 77. 91.
      85. 84. 73. 67. 61. 56. 51. 45. 40. 34. 29. 24. 24. 19. 23. 65.
      108. 117. 117. 115. 21. 33. 53. 77. 89. 86. 86. 72. 61. 52. 46.
      43. 41. 38. 31. 25. 25. 26. 19. 25. 74. 125. 135. 134. 132. 23.
      31. 53. 76. 88. 88. 87. 69. 53. 45. 40. 39. 39. 37. 29. 20. 27.
      30. 22. 26. 80. 136. 151. 152. 151. 32. 31. 50. 73. 87. 90. 85.
      65. 51. 45. 41. 39. 38. 36. 29. 20. 29. 34. 26. 28. 81. 138. 156.
      162. 167. 40. 30. 47. 70. 86. 92. 85. 66. 54. 49. 44. 40. 37. 36.
      31. 23. 30. 37. 29. 30. 78. 133. 153. 161. 169. 41. 38. 46. 67.
      82. 88. 84. 72. 61. 58. 54. 48. 42. 39. 36. 32. 33. 31. 24. 24.
      80. 135. 153. 163. 169. 39. 41. 47. 62. 79. 88. 86. 80. 72. 65.
      60. 57. 52. 48. 44. 40. 38. 32. 22. 24. 82. 138. 154. 165. 172.
      45. 45. 44. 54. 76. 87. 85. 81. 79. 71. 68. 69. 66. 60. 53. 48.
      42. 35. 19. 21. 83. 139. 157. 169. 176. 57. 45. 41. 49. 70. 84.
      85. 81. 80. 74. 74. 78. 77. 71. 61. 54. 50. 43. 24. 22. 81. 136.
      156. 170. 177. 69. 44. 40. 47. 61. 74. 84. 84. 82. 80. 81. 83. 82.
      78. 69. 59. 61. 55. 34. 26. 76. 126. 150. 165. 174. 80. 43. 37.
      41. 52. 63. 74. 76. 80. 83. 85. 85. 83. 82. 76. 67. 65. 59. 39.
      30. 67. 108. 135. 153. 168. 81. 43. 33. 33. 45. 49. 56. 59. 67.
      74. 81. 82. 81. 83. 80. 74. 68. 59. 42. 34. 58. 87. 115. 137. 157.
      72. 41. 33. 29. 39. 38. 41. 48. 51. 61. 73. 78. 79. 81. 81. 78.
      76. 62. 46. 39. 54. 73. 100. 124. 145. 62. 40. 30. 30. 31. 29. 33.
      34. 39. 50. 61. 68. 75. 80. 82. 84. 81. 71. 49. 39. 46. 61. 87.
      110. 135. 51. 33. 27. 27. 29. 27. 32. 32. 32. 42. 52. 62. 72. 79.
      83. 86. 86. 77. 55. 40. 38. 46. 72. 99. 125. 44. 31. 26. 25. 26.
      25. 29. 28. 29. 34. 42. 54. 68. 78. 84. 88. 92. 84. 65. 47. 34.
      33. 59. 88. 118. 38. 30. 28. 25. 26. 24. 28. 28. 30. 32. 37. 49.
      64. 76. 82. 86. 92. 87. 73. 58. 40. 31. 51. 78. 112. 26. 25. 27.
      26. 28. 28. 32. 31. 31. 31. 34. 45. 60. 72. 79. 84. 88. 85. 77.
      66. 47. 34. 45. 63. 98. 16. 19. 25. 27. 32. 32. 35. 35. 34. 35.
      38. 46. 59. 70. 78. 84. 86. 84. 79. 71. 53. 37. 40. 48. 75. 14.
      18. 24. 27. 35. 36. 40. 42. 42. 45. 48. 52. 61. 71. 79. 84. 85.
      85. 81. 73. 57. 43. 43. 43. 56. 17. 19. 24. 27. 36. 40. 46. 50.
      50. 54. 56. 57. 63. 71. 79. 84. 85. 86. 82. 74. 59. 49. 48. 46.
      54. 17. 20. 25. 29. 36. 45. 51. 57. 56. 56. 64. 68. 68. 73. 80.
      85. 87. 86. 83. 74. 59. 48. 47. 49. 53.</_>
    <_>
      115. 119. 136. 145. 147. 147. 146. 145. 146. 144. 143. 141. 138.
      136. 135. 133. 130. 123. 119. 109. 102. 102. 117. 119. 122. 118.
      122. 141. 149. 151. 150. 151. 151. 150. 149. 148. 147. 145. 143.
      142. 139. 138. 131. 127. 117. 108. 108. 123. 130. 134. 123. 127.
      149. 157. 158. 157. 158. 159. 157. 156. 154. 153. 151. 150. 148.
      147. 144. 138. 135. 124. 113. 110. 123. 134. 138. 128. 129. 154.
