<?xml version="1.0"?>
<opencv_storage>
<opencv_ml_svm>
  <format>3</format>
  <svmType>C_SVC</svmType>
  <kernel>
    <type>LINEAR</type></kernel>
  <C>1.</C>
  <term_criteria><iterations>100</iterations></term_criteria>
  <var_count>625</var_count>
  <class_count>2</class_count>
  <class_labels type_id="opencv-matrix">
    <rows>2</rows>
    <cols>1</cols>
    <dt>i</dt>
    <data>
      0 1</data></class_labels>
  <sv_total>1</sv_total>
  <support_vectors>
    <_>
      3.79530771e-04 1.52744062e-04 1.28774045e-04 2.21880822e-04
      1.75029436e-05 -1.85383498e-04 -7.93934378e-05 -1.00384932e-04
      -2.06549783e-04 -2.17023320e-04 -1.51156433e-04 -2.27769386e-04
      3.98827888e-06 7.21555261e-05 6.67484492e-05 5.44953291e-05
      2.34770661e-04 3.52917006e-04 1.55964808e-04 1.28066735e-04
      4.66661913e-05 6.60160367e-05 -1.59957010e-04 -1.52054927e-04
      1.17444892e-04 2.89512041e-04 1.05109415e-04 1.04180341e-04
      9.73272763e-05 -9.55044379e-05 -2.50909216e-04 -1.09000939e-04
      -9.06241985e-05 -2.10074621e-04 -1.04387676e-04 -9.56393851e-05
      -4.45026271e-05 -9.15399141e-05 5.20792019e-05 1.29019638e-04
      2.00271243e-04 3.88079090e-04 3.66756198e-04 1.83597513e-04
      -4.73909313e-05 1.14579372e-04 9.74758223e-05 2.81296652e-05
      -2.20674978e-04 1.51206885e-04 -5.05790013e-05 -4.27437371e-05
      -1.66492919e-05 6.53194147e-05 -1.84775025e-04 -3.08215676e-04
      -1.48110601e-04 2.08269848e-05 3.29585710e-05 1.68143597e-04
      6.63633591e-06 -1.68676619e-04 -2.61326844e-04 -2.35894069e-04
      -8.46744297e-06 1.80748248e-04 1.71860316e-04 1.17020441e-04
      -5.42210691e-05 -8.75652477e-05 1.42580775e-05 4.88519800e-05
      -8.28366537e-05 -2.42348367e-04 2.46936397e-04 -1.58640702e-04
      -4.83860422e-05 -7.16997165e-05 8.63238165e-05 -1.29744498e-04
      -2.30499427e-04 9.73458918e-06 2.38418506e-04 2.94458558e-04
      -4.50222506e-05 -9.94535294e-05 -2.39124507e-04 -4.57870454e-04
      -2.79953412e-04 -5.89931333e-05 6.40145081e-05 -2.48714459e-05
      -2.33113868e-04 -2.06785247e-04 -1.65977210e-04 -1.05607804e-04
      -1.45372076e-04 -2.34195570e-04 -1.40705539e-04 1.99353264e-04
      3.14685312e-05 -1.16528965e-04 -6.60298538e-05 -9.62470731e-05
      -6.16795805e-05 1.16378949e-04 1.09522247e-04 2.33344224e-04
      4.22350975e-04 1.62583863e-04 -2.79824744e-05 -1.28783839e-04
      -2.89461663e-04 -1.62084107e-04 4.66914280e-05 -1.02110040e-04
      -9.42835613e-05 -5.69085933e-05 -6.46020198e-05 -1.24211656e-05
      7.84215263e-06 -1.22202851e-04 -6.82870086e-05 6.69947622e-05
      4.53456269e-05 7.52649212e-04 4.16023577e-05 -2.74947743e-05
      5.01617433e-05 5.31925143e-05 1.06697858e-04 9.05403940e-05
      1.20752637e-04 1.39377909e-04 2.93818623e-04 1.79784256e-04
      -2.51685560e-05 -7.98556284e-05 -3.34284887e-05 -5.12500192e-05
      -2.77952466e-04 -9.91259876e-05 9.86583036e-05 3.70760972e-05
      1.83653392e-05 -8.07263204e-05 1.73752298e-04 1.20500015e-04
      1.11895213e-04 9.79709075e-05 -8.96447091e-05 6.72627822e-04
      7.66570520e-06 -8.24843592e-05 -5.19940841e-05 1.78538146e-04
      2.17531924e-04 4.93938751e-05 4.89792510e-05 2.15074164e-04
      1.21202887e-04 9.95337905e-05 1.12072965e-04 5.24474854e-05
      -2.09744918e-04 -2.42847527e-04 -1.28223313e-04 3.87688888e-05
      6.99823941e-05 1.62352182e-04 2.30497797e-04 1.47108556e-04
      6.36733312e-05 -3.21541847e-05 1.75268928e-04 -5.58426022e-04
      -2.00209513e-04 -7.68786122e-05 -1.18011281e-04 -1.82024069e-05
      1.30480461e-04 1.71440290e-04 1.06362284e-04 -6.30752038e-05
      -2.48968154e-05 1.34194372e-04 1.39103242e-04 1.22671918e-04
      -9.77677846e-05 -1.43967482e-04 -2.20914026e-05 7.51647603e-05
      5.69646545e-05 1.05989930e-04 6.24000793e-04 4.42570046e-04
      1.70887681e-04 -9.69207322e-05 -7.36987067e-06 1.81661962e-04
      -4.82542062e-04 -2.91471748e-04 -6.33285526e-05 3.87168329e-05
      9.34901836e-05 1.52295048e-04 1.19760669e-04 -1.15124101e-04
      -1.10873916e-04 7.86276505e-05 8.55968392e-05 1.54591271e-05
      -2.14674044e-04 -1.12719928e-04 1.29036052e-04 2.02231196e-04
      8.29134442e-05 9.58511446e-05 3.72595416e-04 3.84121377e-04
      4.00934281e-04 1.09330504e-04 -7.80669507e-05 -8.32827354e-05
      -2.50644207e-05 -3.92411923e-04 -6.70347072e-05 1.28715474e-04
      1.26315572e-04 6.36967015e-05 3.76085263e-05 1.01609630e-05
      -1.24985236e-04 -1.34744350e-05 -5.27087686e-05 6.46631088e-05
      -8.68469360e-05 -3.32363212e-04 -2.32197053e-04 -1.09457367e-04
      -1.10688081e-04 6.08641385e-05 -6.70084592e-06 1.92362102e-04
      3.35330667e-04 1.63583521e-04 3.77141769e-05 1.78936243e-04
      -4.31312110e-05 -1.78866612e-04 -1.85471334e-04 1.65365142e-04
      1.88701306e-04 1.41985161e-04 6.40557337e-05 5.15238280e-05
      -1.37918789e-04 -2.81412184e-04 -1.45752521e-04 -1.27033811e-04
      1.36118266e-04 -2.27366327e-04 -4.75369481e-04 -4.37172304e-04
      -3.38127691e-04 3.45405133e-05 -1.29470354e-04 -8.08097247e-05
      -1.09351560e-04 2.08936195e-04 1.67757535e-04 8.54124883e-05
      1.48035935e-04 -2.41778180e-05 -1.45809347e-04 -6.45678738e-05
      2.17579829e-04 1.51152242e-04 2.31009733e-04 -1.32689665e-05
      -1.25900362e-04 -8.31222715e-05 -2.07668360e-04 -1.29360531e-04
      -1.39606175e-06 -2.30377205e-04 -3.88012617e-04 -3.45179113e-04
      -1.66645150e-05 3.66290536e-04 3.46685818e-04 -1.78109112e-04
      -1.46425111e-04 2.12662671e-05 -2.49784134e-05 -7.68694881e-05
      3.02474800e-04 7.44698118e-05 -1.97386093e-04 -4.06055886e-04
      -8.81265732e-05 3.58467914e-05 -1.57860904e-05 1.57540235e-05
      8.31296202e-05 -1.37802926e-05 5.89740885e-05 -1.73977300e-04
      -1.90075632e-04 -2.40333588e-06 -2.56238098e-04 -3.01433465e-04
      -2.92920391e-04 2.52437661e-04 2.99939798e-04 3.60756501e-04
      -4.57873903e-05 -2.95359438e-04 -7.30897300e-05 5.46444026e-05
      -5.34386309e-05 1.94943677e-05 4.41751041e-07 -2.38132998e-04
      -2.32156875e-04 -2.38275752e-05 7.58796523e-05 9.07380891e-05
      4.32235538e-05 1.63646982e-04 2.05108794e-04 -1.86323916e-04
      -3.28640832e-04 -2.86609109e-04 -5.11422229e-04 -3.73523188e-04
      -3.29032773e-04 -2.07349804e-04 -1.18967379e-04 1.90747465e-04
      1.69670690e-04 3.76537093e-04 -3.89143330e-04 -2.14088159e-05
      2.16008222e-04 2.03963355e-04 -1.25967272e-04 -1.25122911e-04
      -7.66630328e-05 -7.36922011e-05 -1.15703733e-04 6.77710486e-05
      6.19706552e-05 2.56942119e-04 2.14901971e-04 -6.96892948e-06
      -8.24441377e-05 -1.31109075e-04 -4.13868198e-04 -2.80113542e-04
      -1.29558335e-04 -1.07239728e-04 -2.18943911e-04 -4.03667218e-04
      -1.05701358e-04 -1.14812370e-04 -1.55055022e-04 4.22384765e-04
      3.21699736e-05 -1.56987735e-05 -1.42024976e-04 1.15679632e-05
      4.41659176e-06 7.65463774e-05 -1.83662502e-04 -1.90211838e-04
      7.57550952e-05 1.12719994e-04 3.06077127e-04 1.46315375e-04
      1.26950530e-04 1.86692749e-04 -2.19463909e-04 -2.21145354e-04
      -1.57877672e-04 1.52400826e-04 9.09370574e-05 1.21954210e-04
      1.18184391e-04 -7.07306185e-07 8.48095879e-05 -8.38178166e-05
      -3.27194197e-04 2.29541140e-04 -6.81100792e-05 -1.96150955e-04
      6.80558733e-05 1.44648278e-04 1.41027980e-04 -3.02890199e-04
      -9.43274717e-05 -1.51112454e-05 1.84362012e-04 2.30999969e-04
      6.32230731e-05 1.05995590e-04 2.54766637e-04 -1.10263310e-04
      -2.16273547e-04 -1.38327941e-05 2.04879670e-05 -1.95092580e-05
      -1.10191759e-04 -2.49259629e-05 -4.31492663e-05 2.41576723e-04
      1.23385791e-04 -3.40280152e-04 -2.10966246e-04 3.78452649e-04
      -3.13232420e-04 -2.18530084e-04 9.36879806e-05 2.03983160e-04
      -1.14725910e-04 -1.48142892e-04 1.33327558e-05 1.89753759e-04
      4.65210032e-05 -2.01113744e-05 1.98576832e-04 -1.14848677e-04
      -1.00008649e-04 1.02230064e-04 1.66514714e-04 -2.88860811e-05
      -1.39919997e-04 -1.94456326e-04 -2.18734116e-04 -1.27691499e-04
      -8.79325162e-05 -1.06907071e-04 -2.34070132e-04 -2.04529671e-04
      -3.76067474e-05 5.79771731e-05 -3.05789144e-04 4.42245037e-05
      1.63496428e-04 -3.50172122e-05 -1.07599422e-04 1.63562232e-04
      1.13853217e-04 -7.62448908e-05 -6.47082052e-05 8.53745878e-05
      -7.58373862e-05 -1.39739699e-04 5.92098695e-05 1.51584114e-04
      9.93989306e-05 -1.07138192e-04 -3.95547046e-04 -2.30145248e-04
      -1.32964866e-04 -4.49435793e-05 -3.19306200e-05 -3.60468198e-06
      -2.95196132e-05 -2.06006793e-04 -1.97007277e-04 -1.03518047e-04
      6.31847579e-05 1.22503989e-04 -1.25852093e-04 1.75187561e-05
      1.62823431e-04 9.27895162e-05 -5.47552663e-05 -1.22018446e-05
      1.60848082e-04 -1.12895643e-04 -1.82619347e-04 7.39593961e-05
      1.12326808e-04 -2.63615984e-05 2.66833013e-05 -3.43635365e-05
      5.87653849e-05 1.29725086e-04 -1.40583288e-04 -1.69415958e-04
      -3.44916807e-05 9.07092617e-05 1.65236648e-04 7.37840237e-05
      -5.63993526e-05 -1.57529445e-04 1.86805516e-06 -7.08143998e-05
      8.24158560e-05 2.34755615e-04 1.35845868e-04 2.79110172e-05
      1.70635594e-05 4.26403822e-05 -6.88039290e-05 -9.85766819e-05
      5.37465785e-05 -3.61931561e-05 -2.18157948e-05 1.72800588e-04
      1.25917897e-04 6.41250335e-06 3.47773821e-05 -3.14270088e-04
      -6.44270767e-05 -5.40588153e-05 5.56312625e-05 -7.46180667e-05
      -3.93114751e-05 1.27570340e-04 -1.92100430e-04 1.50709879e-04
      8.58317653e-05 9.01384701e-05 1.86960679e-04 1.76977905e-04
      -8.55657636e-05 -1.49779116e-05 1.12783982e-05 -1.13022950e-04
      -1.32282643e-04 1.07769783e-05 1.12028038e-05 -5.93536315e-05
      3.59879123e-05 2.25684544e-05 -5.50179138e-05 -4.37300536e-04
      -8.48320851e-05 -2.64156726e-04 -1.98325324e-06 9.67669112e-05
      7.22984114e-05 3.04455516e-05 1.94797089e-04 -1.49280255e-04
      -7.50345362e-06 3.16413905e-04 1.12978450e-04 1.17013522e-04
      6.94645860e-05 5.98051047e-05 -4.45216210e-05 -1.61201577e-04
      -1.09448534e-04 1.64396442e-05 1.31378038e-04 1.76131780e-05
      1.14596396e-05 1.02172096e-04 -1.40451855e-04 -2.34331572e-04
      -2.38907873e-04 -2.92495242e-04 2.97928025e-04 1.08034743e-04
      -9.43714895e-06 7.77362802e-05 2.61635159e-05 9.77619784e-05
      -1.64503945e-04 -7.79091060e-05 3.97922326e-04 2.46373820e-04
      2.18542380e-04 1.52976121e-04 -7.77716341e-05 -1.86850899e-04
      -6.80311496e-05 -7.99083136e-06 6.71372254e-05 2.34830964e-04
      9.85816732e-05 -1.40388684e-05 -2.22133676e-05 -1.26281593e-04
      8.96230631e-05 -9.78711905e-05 -2.14718428e-04 -5.88891089e-05
      1.90072999e-04 3.25731053e-05 -1.09250592e-04 -4.14849019e-05
      8.17988621e-05 -9.60532634e-05 -6.65896732e-05 3.98697652e-04
      2.37173634e-04 1.38878415e-04 1.60114378e-05 -1.51923405e-05
      4.55181289e-05 1.25085557e-04 1.03539227e-04 2.33540733e-04
      3.67112516e-04 1.78267539e-04 3.81673104e-04 1.39243741e-04
      4.42404016e-05 1.07910368e-04 2.60739151e-04 1.25345265e-04
      1.73328517e-04 1.41792072e-04 -1.98141988e-05 4.61013551e-05
      1.98832247e-04 1.26092986e-04 -5.41012969e-06 1.18312791e-07
      3.77675984e-04</_></support_vectors>
  <uncompressed_sv_total>95</uncompressed_sv_total>
  <uncompressed_support_vectors>
    <_>
      8. 7. 6. 5. 5. 6. 6. 5. 7. 4. 6. 6. 5. 7. 6. 5. 6. 6. 6. 6. 6. 5.
      5. 5. 6. 5. 6. 7. 7. 6. 6. 6. 6. 7. 6. 7. 8. 9. 14. 15. 14. 6. 6.
      6. 5. 5. 6. 6. 6. 6. 5. 7. 8. 7. 6. 6. 5. 5. 4. 3. 6. 15. 28. 37.
      33. 21. 7. 6. 6. 5. 5. 6. 7. 8. 5. 7. 7. 7. 7. 6. 5. 5. 6. 8. 15.
      23. 31. 38. 42. 37. 25. 7. 6. 6. 5. 5. 6. 7. 8. 6. 6. 6. 6. 7. 5.
      5. 11. 18. 25. 33. 37. 39. 38. 38. 36. 26. 7. 6. 6. 6. 6. 6. 6. 7.
      6. 6. 5. 7. 8. 5. 5. 19. 35. 38. 40. 37. 39. 40. 41. 38. 26. 6. 6.
      6. 6. 6. 6. 6. 5. 6. 14. 8. 6. 7. 5. 6. 21. 41. 38. 40. 36. 37.
      38. 37. 37. 26. 6. 6. 6. 6. 6. 6. 6. 6. 7. 25. 12. 5. 6. 6. 7. 20.
      38. 39. 33. 22. 27. 37. 42. 40. 24. 6. 6. 6. 6. 6. 6. 6. 6. 9. 28.
      9. 9. 5. 4. 7. 16. 28. 21. 15. 8. 25. 38. 39. 40. 24. 7. 6. 6. 6.
      6. 5. 6. 7. 10. 40. 11. 7. 5. 6. 8. 7. 9. 7. 6. 4. 25. 40. 41. 42.
      26. 7. 6. 6. 6. 6. 5. 6. 7. 12. 38. 9. 8. 8. 5. 5. 6. 7. 5. 6. 6.
      27. 39. 38. 38. 23. 6. 6. 6. 6. 6. 6. 6. 7. 13. 43. 9. 6. 7. 5. 6.
      7. 5. 5. 6. 7. 27. 39. 38. 39. 25. 6. 6. 6. 6. 6. 6. 7. 8. 14. 43.
      10. 8. 7. 5. 6. 6. 5. 5. 5. 5. 26. 39. 39. 40. 26. 6. 6. 6. 6. 6.
      6. 7. 8. 14. 35. 9. 9. 8. 5. 6. 7. 7. 7. 7. 6. 27. 40. 39. 38. 22.
      6. 6. 6. 6. 6. 6. 7. 8. 14. 34. 9. 6. 5. 7. 9. 5. 2. 5. 5. 5. 27.
      40. 40. 39. 23. 6. 6. 6. 6. 6. 6. 7. 8. 12. 26. 8. 10. 6. 5. 5. 5.
      9. 6. 6. 5. 26. 38. 37. 37. 22. 6. 6. 6. 6. 6. 5. 6. 7. 12. 21.
      11. 5. 6. 7. 6. 6. 7. 5. 6. 6. 26. 37. 37. 38. 24. 7. 6. 6. 6. 6.
      6. 7. 7. 10. 15. 9. 6. 6. 6. 6. 6. 6. 5. 6. 6. 25. 37. 38. 40. 24.
      7. 6. 6. 6. 6. 6. 6. 7. 8. 8. 6. 6. 6. 6. 6. 7. 5. 5. 7. 7. 26.
      38. 39. 40. 25. 6. 6. 6. 5. 5. 6. 6. 6. 8. 7. 5. 6. 6. 6. 6. 7. 6.
      6. 6. 6. 27. 38. 36. 37. 24. 6. 6. 6. 5. 5. 6. 6. 6. 7. 11. 7. 5.
      6. 6. 5. 6. 6. 6. 4. 5. 28. 38. 33. 35. 24. 6. 6. 6. 6. 6. 6. 6.
      6. 6. 14. 9. 6. 7. 6. 4. 5. 6. 7. 5. 6. 28. 37. 32. 35. 25. 6. 6.
      6. 6. 6. 6. 6. 6. 5. 12. 8. 7. 7. 5. 5. 6. 5. 6. 7. 7. 25. 33. 31.
      34. 24. 6. 6. 6. 6. 6. 6. 7. 7. 6. 7. 7. 8. 7. 5. 7. 7. 4. 4. 7.
      6. 21. 28. 28. 32. 21. 6. 6. 6. 6. 6. 6. 7. 7. 6. 7. 8. 7. 7. 6.
      6. 6. 5. 6. 6. 6. 14. 13. 15. 15. 11. 6. 6. 6. 5. 6. 7. 7. 6. 6.</_>
    <_>
      7. 10. 8. 8. 10. 7. 4. 9. 7. 7. 10. 9. 7. 8. 8. 9. 8. 8. 7. 7. 7.
      7. 6. 6. 6. 7. 8. 6. 7. 10. 9. 6. 8. 9. 8. 8. 5. 5. 10. 10. 5. 8.
      8. 7. 7. 7. 7. 7. 7. 7. 7. 7. 7. 5. 4. 3. 4. 6. 6. 5. 7. 9. 7. 5.
      6. 8. 7. 7. 6. 6. 6. 6. 7. 7. 6. 6. 6. 9. 9. 6. 5. 7. 8. 5. 6. 5.
      6. 15. 28. 31. 22. 6. 6. 6. 5. 5. 6. 7. 8. 6. 6. 5. 7. 10. 9. 7.
      6. 4. 6. 8. 15. 32. 42. 42. 39. 32. 7. 7. 6. 6. 6. 6. 8. 9. 7. 8.
      6. 6. 6. 5. 4. 9. 16. 23. 35. 39. 39. 38. 40. 43. 33. 7. 6. 6. 6.
      6. 6. 7. 8. 7. 8. 8. 6. 5. 5. 6. 21. 41. 41. 43. 40. 45. 46. 42.
      41. 31. 6. 6. 6. 5. 6. 6. 6. 6. 7. 10. 10. 7. 6. 6. 7. 20. 43. 39.
      43. 38. 39. 39. 39. 40. 29. 7. 7. 6. 6. 6. 6. 6. 5. 8. 23. 9. 9.
      9. 7. 6. 22. 40. 40. 28. 15. 23. 40. 41. 41. 28. 7. 6. 6. 7. 6. 5.
      6. 7. 9. 28. 11. 7. 7. 8. 6. 10. 15. 7. 7. 6. 22. 40. 41. 41. 29.
      7. 6. 6. 7. 6. 5. 6. 8. 11. 26. 12. 10. 8. 9. 8. 7. 5. 5. 5. 6.
      23. 42. 42. 42. 29. 8. 6. 6. 6. 6. 6. 7. 9. 13. 24. 12. 10. 7. 7.
      5. 7. 6. 9. 7. 6. 21. 40. 41. 42. 30. 8. 6. 6. 6. 6. 6. 7. 9. 15.
      32. 15. 9. 6. 7. 5. 5. 5. 3. 5. 7. 23. 40. 40. 41. 31. 8. 6. 5. 6.
      6. 5. 7. 9. 15. 33. 14. 8. 7. 9. 6. 6. 6. 6. 6. 7. 24. 42. 41. 40.
      27. 7. 6. 5. 6. 6. 5. 7. 9. 15. 23. 9. 7. 7. 7. 5. 5. 7. 7. 5. 4.
      21. 41. 42. 41. 27. 7. 6. 6. 6. 6. 5. 7. 9. 13. 24. 11. 9. 8. 8.
      6. 6. 6. 5. 6. 7. 23. 40. 39. 40. 28. 7. 6. 6. 6. 6. 5. 7. 8. 10.
      16. 11. 7. 7. 9. 7. 5. 5. 6. 6. 6. 26. 38. 39. 39. 31. 7. 7. 6. 6.
      6. 6. 7. 8. 10. 9. 8. 7. 8. 8. 6. 5. 6. 6. 7. 6. 23. 38. 40. 41.
      26. 6. 6. 6. 6. 6. 6. 7. 7. 8. 8. 7. 7. 7. 6. 5. 5. 6. 5. 6. 5.
      23. 42. 40. 44. 28. 6. 6. 6. 6. 6. 6. 6. 6. 7. 13. 9. 6. 5. 6. 6.
      6. 5. 6. 4. 6. 25. 40. 30. 37. 26. 6. 6. 6. 6. 6. 6. 6. 6. 6. 13.
      10. 7. 6. 6. 6. 6. 5. 6. 5. 8. 26. 40. 30. 38. 29. 7. 7. 6. 6. 6.
      6. 7. 7. 6. 7. 9. 10. 9. 7. 5. 6. 7. 5. 5. 9. 21. 35. 34. 39. 29.
      7. 7. 6. 6. 6. 6. 7. 7. 5. 6. 8. 10. 9. 7. 5. 6. 6. 7. 6. 7. 12.
      17. 19. 19. 13. 6. 6. 6. 6. 6. 6. 7. 7. 5. 9. 9. 8. 7. 6. 7. 6. 5.
      9. 5. 6. 8. 6. 4. 4. 5. 6. 6. 6. 6. 6. 6. 6. 6. 6. 10. 8. 7. 7. 7.
      7. 7. 7. 7. 7. 7. 7. 8. 8. 8. 7. 6. 9. 7. 7. 8. 7. 7. 6. 7.</_>
    <_>
      17. 10. 11. 9. 8. 9. 10. 7. 10. 18. 29. 43. 46. 51. 53. 54. 58.
      59. 58. 34. 10. 8. 9. 8. 8. 19. 13. 12. 11. 11. 9. 10. 7. 9. 18.
      33. 50. 54. 57. 57. 60. 59. 60. 57. 33. 10. 9. 9. 8. 8. 34. 16.
      11. 10. 11. 8. 10. 8. 7. 17. 32. 52. 56. 55. 53. 57. 60. 61. 57.
      32. 10. 9. 8. 7. 7. 77. 25. 13. 11. 10. 9. 9. 9. 11. 17. 30. 48.
      52. 49. 46. 53. 59. 61. 57. 31. 9. 8. 8. 7. 8. 134. 39. 18. 14.
      10. 11. 9. 9. 10. 14. 23. 40. 44. 40. 38. 48. 56. 60. 57. 30. 9.
      8. 7. 8. 9. 166. 49. 18. 13. 10. 10. 9. 9. 8. 10. 15. 29. 32. 28.
      26. 39. 54. 60. 56. 29. 9. 8. 7. 9. 9. 166. 53. 16. 11. 11. 9. 10.
      7. 9. 11. 11. 21. 22. 17. 19. 35. 55. 60. 55. 28. 9. 9. 7. 9. 9.
      158. 57. 16. 11. 13. 7. 11. 5. 7. 8. 6. 12. 12. 9. 14. 34. 56. 61.
      55. 27. 9. 9. 7. 9. 12. 148. 48. 15. 13. 9. 10. 12. 7. 9. 8. 8. 8.
      9. 8. 15. 36. 56. 59. 53. 26. 9. 7. 9. 7. 13. 127. 39. 18. 15. 12.
      9. 9. 8. 9. 8. 8. 8. 9. 8. 16. 36. 57. 60. 53. 25. 9. 7. 9. 8. 15.
      115. 30. 16. 11. 13. 10. 7. 9. 8. 8. 8. 8. 9. 8. 16. 37. 58. 60.
      52. 23. 9. 7. 9. 9. 13. 110. 22. 14. 10. 13. 10. 8. 8. 8. 8. 8. 8.
      9. 8. 17. 38. 58. 61. 51. 22. 9. 8. 9. 9. 11. 102. 16. 15. 13. 11.
      9. 9. 8. 7. 8. 8. 8. 8. 8. 18. 40. 58. 61. 50. 21. 10. 8. 8. 9.
      13. 96. 17. 15. 13. 10. 9. 11. 7. 8. 8. 8. 8. 8. 8. 19. 43. 58.
      61. 49. 19. 10. 8. 8. 9. 15. 78. 17. 13. 11. 9. 11. 10. 8. 8. 8.
      8. 7. 8. 9. 20. 44. 58. 61. 48. 18. 9. 8. 7. 9. 14. 51. 12. 13.
      11. 10. 11. 8. 10. 8. 8. 8. 7. 7. 9. 21. 45. 59. 61. 47. 16. 8. 8.
      7. 10. 12. 37. 17. 12. 11. 11. 9. 10. 8. 9. 9. 8. 9. 7. 7. 23. 46.
      59. 61. 46. 16. 8. 8. 7. 8. 11. 38. 18. 13. 11. 10. 9. 10. 7. 8.
      8. 8. 9. 8. 8. 23. 46. 58. 60. 45. 15. 8. 8. 7. 8. 10. 36. 18. 13.
      10. 10. 9. 10. 7. 7. 8. 8. 9. 8. 9. 24. 47. 58. 60. 44. 15. 8. 8.
      7. 8. 10. 30. 16. 13. 10. 10. 9. 9. 8. 8. 8. 8. 8. 8. 10. 26. 48.
      58. 59. 44. 14. 8. 8. 7. 8. 9. 22. 13. 13. 11. 10. 8. 8. 8. 8. 9.
      8. 7. 8. 11. 27. 50. 59. 59. 43. 14. 8. 8. 7. 8. 8. 17. 12. 13.
      10. 10. 8. 7. 7. 8. 9. 7. 7. 8. 11. 29. 51. 58. 58. 42. 13. 8. 9.
      7. 8. 8. 16. 11. 12. 8. 9. 8. 7. 7. 8. 9. 7. 7. 8. 12. 29. 51. 56.
      56. 40. 11. 7. 9. 8. 8. 9. 16. 11. 10. 6. 9. 9. 8. 8. 7. 8. 7. 7.
      8. 12. 29. 50. 55. 55. 39. 10. 7. 9. 8. 8. 7. 14. 9. 10. 9. 8. 9.
      8. 8. 8. 8. 8. 7. 7. 14. 31. 51. 53. 53. 36. 11. 7. 7. 8. 9. 10.</_>
    <_>
      8. 8. 7. 6. 9. 9. 6. 7. 9. 15. 25. 47. 58. 62. 62. 63. 60. 41. 12.
      8. 8. 9. 9. 9. 8. 9. 9. 8. 6. 8. 7. 9. 16. 38. 56. 62. 61. 57. 62.
      64. 62. 61. 42. 13. 8. 8. 8. 9. 8. 8. 8. 9. 9. 7. 8. 7. 11. 28.
      49. 60. 61. 64. 64. 64. 62. 61. 61. 42. 13. 8. 8. 8. 8. 8. 8. 12.
      10. 10. 9. 10. 7. 11. 31. 50. 62. 61. 61. 60. 62. 63. 64. 61. 42.
      13. 8. 8. 8. 8. 8. 8. 22. 13. 11. 9. 10. 7. 8. 28. 48. 61. 64. 64.
      59. 59. 61. 65. 61. 42. 13. 8. 8. 8. 8. 8. 8. 30. 14. 10. 9. 9. 9.
      10. 27. 49. 58. 59. 57. 46. 47. 56. 64. 62. 43. 13. 8. 8. 8. 9. 9.
      8. 33. 12. 10. 10. 9. 10. 11. 26. 46. 56. 49. 31. 16. 33. 57. 65.
      63. 43. 14. 8. 8. 8. 8. 8. 9. 34. 12. 12. 13. 9. 9. 9. 21. 24. 18.
      11. 9. 10. 33. 57. 63. 63. 44. 14. 9. 8. 8. 8. 8. 11. 31. 16. 10.
      12. 9. 9. 9. 10. 8. 8. 9. 8. 11. 32. 58. 62. 62. 44. 15. 9. 8. 8.
      9. 9. 14. 35. 17. 11. 13. 9. 9. 9. 9. 7. 8. 8. 7. 10. 32. 57. 62.
      62. 44. 15. 9. 8. 8. 8. 9. 12. 43. 18. 12. 13. 10. 10. 8. 8. 8. 8.
      8. 7. 11. 32. 57. 62. 63. 45. 15. 9. 8. 8. 9. 9. 14. 52. 18. 13.
      13. 10. 10. 8. 8. 8. 8. 8. 8. 11. 32. 57. 62. 63. 45. 16. 9. 8. 8.
      9. 10. 15. 60. 17. 13. 12. 10. 10. 8. 8. 8. 7. 7. 8. 11. 31. 56.
      62. 63. 45. 15. 9. 8. 8. 9. 9. 15. 68. 17. 14. 12. 10. 11. 8. 9.
      9. 8. 8. 8. 11. 30. 56. 62. 63. 45. 15. 9. 8. 8. 9. 10. 16. 74.
      17. 15. 12. 10. 10. 8. 9. 9. 8. 9. 9. 11. 30. 56. 63. 64. 45. 16.
      9. 8. 8. 10. 10. 15. 77. 17. 15. 12. 10. 10. 7. 9. 8. 7. 8. 9. 10.
      29. 55. 62. 63. 44. 15. 8. 7. 8. 9. 10. 15. 73. 18. 11. 12. 12. 8.
      9. 6. 8. 7. 8. 9. 10. 29. 54. 61. 61. 46. 16. 9. 8. 7. 7. 10. 12.
      72. 16. 11. 11. 10. 9. 10. 7. 8. 7. 7. 8. 9. 28. 54. 62. 61. 47.
      17. 9. 8. 7. 7. 11. 12. 75. 17. 12. 11. 9. 11. 9. 8. 9. 8. 8. 8.
      9. 27. 54. 62. 62. 48. 18. 9. 8. 7. 8. 10. 10. 82. 21. 12. 12. 9.
      11. 7. 8. 8. 8. 9. 9. 9. 27. 52. 60. 63. 49. 18. 8. 8. 8. 7. 9.
      11. 79. 21. 11. 12. 9. 10. 6. 8. 8. 7. 8. 8. 8. 26. 52. 60. 62.
      49. 18. 8. 8. 8. 7. 7. 10. 59. 17. 8. 10. 9. 9. 6. 9. 9. 8. 8. 7.
      8. 26. 53. 62. 60. 48. 18. 8. 8. 9. 7. 6. 8. 31. 12. 8. 10. 7. 9.
      7. 9. 10. 8. 8. 8. 8. 26. 52. 59. 56. 47. 19. 8. 7. 8. 8. 8. 9.
      11. 9. 10. 11. 7. 8. 8. 7. 8. 7. 8. 8. 9. 25. 48. 54. 53. 46. 20.
      9. 7. 8. 9. 10. 9. 12. 10. 8. 8. 8. 8. 8. 8. 9. 8. 8. 8. 6. 26.
      47. 55. 55. 48. 20. 8. 8. 8. 8. 10. 8.</_>
    <_>
      8. 5. 8. 8. 7. 8. 7. 7. 7. 8. 8. 7. 7. 6. 7. 8. 7. 7. 7. 7. 7. 7.
      7. 7. 6. 7. 4. 6. 5. 5. 7. 5. 5. 6. 5. 5. 6. 7. 8. 6. 4. 6. 6. 6.
      6. 6. 6. 6. 6. 6. 5. 5. 8. 6. 5. 6. 5. 7. 8. 6. 4. 5. 10. 16. 20.
      21. 6. 6. 6. 6. 6. 6. 7. 7. 6. 5. 6. 8. 7. 7. 7. 4. 6. 5. 4. 6.
      17. 31. 40. 38. 32. 7. 7. 6. 6. 6. 7. 7. 8. 6. 8. 6. 5. 4. 7. 7.
      4. 7. 7. 18. 30. 36. 36. 36. 36. 37. 7. 6. 6. 5. 5. 6. 7. 7. 7. 6.
      6. 6. 5. 5. 5. 10. 24. 34. 35. 36. 35. 36. 37. 36. 33. 6. 6. 6. 5.
      5. 6. 6. 6. 7. 6. 7. 8. 7. 5. 5. 15. 37. 36. 37. 36. 35. 36. 39.
      39. 37. 7. 7. 6. 6. 6. 6. 6. 6. 7. 13. 9. 6. 5. 7. 6. 13. 34. 36.
      35. 32. 31. 34. 38. 37. 33. 7. 6. 6. 6. 6. 6. 6. 6. 9. 18. 9. 9.
      5. 7. 5. 13. 34. 30. 20. 9. 20. 34. 37. 38. 35. 7. 6. 6. 6. 6. 6.
      6. 7. 10. 26. 10. 5. 3. 8. 6. 5. 12. 8. 6. 4. 21. 38. 39. 39. 34.
      7. 6. 6. 6. 6. 6. 6. 7. 11. 31. 12. 9. 6. 9. 7. 4. 5. 4. 5. 5. 21.
      36. 37. 37. 34. 7. 6. 6. 6. 6. 6. 6. 7. 13. 28. 10. 10. 6. 5. 5.
      7. 7. 7. 7. 6. 20. 34. 37. 40. 38. 7. 6. 6. 6. 6. 6. 7. 7. 13. 30.
      10. 9. 5. 4. 6. 7. 5. 5. 6. 5. 20. 35. 38. 39. 36. 7. 6. 6. 6. 6.
      6. 7. 7. 13. 31. 12. 10. 7. 6. 7. 7. 5. 6. 6. 6. 21. 36. 38. 36.
      31. 7. 6. 6. 6. 6. 6. 6. 7. 13. 26. 9. 9. 6. 5. 4. 5. 6. 5. 5. 4.
      20. 36. 39. 39. 33. 7. 6. 6. 6. 6. 6. 6. 7. 12. 27. 10. 8. 5. 7.
      5. 5. 7. 6. 6. 5. 20. 36. 38. 37. 30. 7. 6. 6. 6. 6. 6. 6. 7. 10.
      22. 13. 6. 7. 8. 6. 5. 7. 4. 6. 6. 21. 34. 36. 38. 34. 6. 6. 6. 6.
      6. 6. 6. 6. 9. 16. 10. 6. 6. 7. 5. 5. 7. 6. 6. 5. 20. 34. 37. 39.
      35. 6. 6. 6. 6. 6. 6. 6. 6. 7. 9. 7. 6. 6. 6. 5. 6. 7. 8. 6. 5.
      20. 35. 36. 36. 33. 6. 6. 6. 6. 6. 6. 6. 6. 7. 6. 6. 6. 6. 6. 6.
      6. 6. 5. 5. 6. 22. 36. 37. 35. 33. 6. 6. 6. 6. 6. 6. 6. 6. 7. 8.
      8. 7. 7. 7. 8. 7. 6. 7. 6. 8. 18. 26. 24. 21. 20. 3. 3. 3. 3. 3.
      3. 3. 3. 3. 1. 0. 0. 0. 0. 0. 0. 0. 0. 0. 0. 1. 3. 0. 0. 0. 0. 0.
      0. 0. 0. 0. 0. 0. 0. 2. 1. 0. 1. 1. 0. 0. 1. 0. 0. 0. 0. 1. 1. 0.
      2. 0. 0. 0. 0. 0. 0. 0. 0. 0. 0. 0. 0. 1. 0. 0. 0. 1. 0. 1. 1. 0.
      0. 0. 0. 0. 0. 0. 0. 0. 0. 0. 0. 0. 0. 0. 0. 0. 0. 0. 0. 0. 0. 0.
      0. 0. 0. 0. 0. 0. 0. 0. 0. 0. 0. 0. 0. 0. 0. 0.</_>
    <_>
      30. 34. 30. 29. 27. 23. 34. 45. 54. 64. 68. 66. 64. 54. 37. 26.
      16. 16. 16. 16. 17. 20. 24. 27. 31. 19. 24. 23. 26. 28. 33. 51.
      64. 74. 81. 84. 82. 75. 60. 40. 26. 14. 14. 15. 17. 20. 25. 33.
      38. 42. 22. 24. 26. 31. 36. 50. 70. 82. 91. 93. 96. 94. 83. 64.
      40. 22. 14. 15. 18. 24. 29. 35. 42. 47. 52. 25. 25. 29. 38. 51.
      70. 89. 95. 96. 95. 98. 96. 83. 63. 39. 20. 13. 14. 18. 28. 37.
      44. 49. 53. 57. 25. 23. 29. 43. 62. 84. 96. 96. 94. 93. 96. 95.
      81. 61. 40. 23. 17. 17. 21. 32. 42. 50. 57. 63. 67. 30. 27. 33.
      46. 66. 85. 91. 90. 90. 92. 96. 93. 79. 60. 40. 26. 20. 22. 28.
      36. 42. 48. 60. 73. 86. 30. 29. 34. 43. 59. 74. 78. 82. 84. 91.
      96. 91. 78. 57. 37. 26. 18. 22. 28. 31. 31. 44. 74. 103. 119. 29.
      29. 32. 35. 46. 57. 60. 68. 79. 91. 97. 91. 78. 56. 35. 25. 19.
      23. 26. 24. 25. 50. 103. 151. 156. 32. 23. 26. 27. 31. 38. 44. 61.
      75. 92. 97. 95. 79. 58. 43. 21. 19. 24. 26. 22. 22. 64. 119. 153.
      161. 48. 17. 25. 26. 24. 31. 42. 53. 75. 91. 97. 94. 80. 60. 42.
      23. 22. 24. 24. 22. 31. 72. 119. 145. 152. 50. 15. 28. 25. 23. 30.
      41. 52. 74. 89. 96. 93. 81. 61. 39. 25. 25. 25. 22. 21. 42. 79.
      115. 132. 146. 30. 19. 30. 24. 27. 32. 39. 54. 72. 87. 96. 92. 81.
      61. 36. 26. 24. 22. 20. 22. 48. 77. 105. 120. 140. 15. 22. 26. 23.
      27. 29. 35. 52. 72. 88. 98. 93. 80. 58. 34. 25. 19. 18. 19. 24.
      46. 66. 92. 110. 130. 18. 20. 20. 23. 24. 26. 37. 53. 75. 91. 100.
      95. 79. 55. 34. 24. 16. 17. 20. 26. 41. 56. 79. 101. 119. 26. 18.
      19. 21. 25. 26. 39. 57. 77. 92. 99. 95. 77. 53. 37. 23. 18. 19.
      21. 27. 33. 46. 65. 85. 103. 27. 19. 24. 17. 26. 27. 36. 58. 77.
      92. 97. 93. 75. 52. 39. 22. 21. 22. 21. 25. 27. 39. 54. 70. 85.
      25. 23. 20. 17. 19. 25. 37. 55. 76. 91. 96. 89. 73. 53. 36. 23.
      19. 21. 22. 23. 25. 34. 47. 58. 70. 22. 20. 19. 17. 20. 26. 38.
      56. 77. 92. 96. 87. 71. 52. 36. 23. 16. 14. 13. 16. 22. 31. 40.
      46. 54. 20. 19. 19. 19. 23. 29. 40. 57. 78. 92. 95. 85. 70. 53.
      37. 24. 14. 11. 10. 13. 19. 27. 33. 37. 45. 21. 20. 20. 20. 24.
      30. 40. 57. 75. 90. 93. 84. 70. 54. 39. 25. 15. 13. 13. 14. 17.
      21. 27. 31. 33. 22. 21. 20. 20. 23. 28. 38. 55. 70. 85. 88. 80.
      68. 52. 37. 23. 14. 14. 14. 15. 16. 16. 18. 19. 23. 22. 21. 21.
      20. 23. 27. 35. 50. 65. 77. 80. 74. 63. 48. 33. 20. 15. 15. 15.
      18. 19. 17. 13. 10. 9. 21. 21. 22. 22. 24. 25. 31. 44. 57. 66. 66.
      63. 55. 42. 30. 20. 18. 17. 18. 21. 23. 21. 17. 13. 9. 19. 19. 21.
      22. 23. 23. 26. 38. 48. 55. 55. 52. 47. 37. 28. 20. 19. 19. 20.
      22. 24. 24. 22. 21. 18. 19. 20. 21. 24. 24. 21. 24. 33. 39. 40.
      42. 41. 39. 33. 24. 22. 22. 21. 22. 23. 23. 21. 20. 20. 21.</_>
    <_>
      8. 12. 7. 28. 53. 59. 66. 67. 69. 62. 56. 60. 61. 60. 61. 57. 38.
      12. 12. 11. 11. 13. 12. 12. 12. 11. 10. 5. 29. 56. 54. 46. 37. 32.
      30. 36. 51. 59. 61. 62. 57. 41. 12. 12. 13. 12. 12. 12. 12. 12.
      11. 11. 7. 28. 46. 37. 24. 14. 12. 11. 19. 39. 55. 60. 62. 58. 46.
      12. 10. 13. 12. 12. 12. 12. 11. 10. 13. 9. 19. 27. 19. 15. 12. 12.
      12. 11. 30. 54. 60. 60. 62. 49. 12. 8. 12. 11. 11. 12. 11. 10. 11.
      14. 9. 11. 15. 13. 14. 12. 11. 12. 6. 24. 57. 63. 58. 65. 49. 12.
      7. 10. 12. 12. 12. 11. 11. 10. 14. 12. 11. 12. 12. 13. 10. 12. 11.
      5. 24. 57. 63. 59. 66. 45. 14. 9. 10. 13. 14. 11. 11. 11. 8. 12.
      13. 12. 12. 11. 12. 10. 15. 10. 9. 31. 56. 62. 61. 63. 38. 14. 11.
      9. 13. 14. 10. 12. 11. 10. 9. 8. 10. 12. 13. 12. 11. 12. 5. 13.
      40. 59. 64. 64. 59. 32. 14. 13. 9. 13. 13. 9. 11. 11. 12. 10. 8.
      9. 11. 12. 12. 12. 10. 9. 26. 50. 56. 62. 64. 48. 26. 13. 11. 12.
      11. 12. 12. 11. 11. 9. 11. 11. 9. 10. 12. 11. 9. 8. 20. 41. 57.
      60. 65. 60. 38. 21. 11. 11. 12. 10. 12. 12. 12. 11. 9. 11. 12. 10.
      11. 12. 10. 6. 14. 36. 54. 61. 61. 62. 50. 22. 16. 10. 12. 12. 10.
      12. 12. 12. 12. 11. 10. 10. 11. 12. 11. 10. 10. 30. 50. 61. 61.
      60. 55. 39. 17. 15. 11. 13. 13. 11. 13. 12. 12. 11. 12. 8. 9. 11.
      10. 8. 15. 26. 45. 57. 61. 60. 54. 40. 26. 16. 14. 12. 13. 12. 12.
      14. 12. 11. 10. 10. 8. 9. 10. 8. 11. 28. 46. 57. 63. 62. 58. 45.
      24. 13. 13. 13. 11. 12. 10. 12. 13. 10. 10. 9. 8. 10. 10. 9. 12.
      25. 43. 57. 65. 66. 58. 47. 33. 16. 11. 14. 12. 11. 11. 11. 12.
      12. 8. 10. 9. 8. 12. 11. 9. 19. 40. 55. 58. 62. 59. 44. 28. 18.
      12. 12. 12. 12. 11. 12. 12. 12. 11. 7. 10. 9. 9. 11. 12. 8. 32.
      50. 57. 61. 60. 48. 26. 15. 14. 13. 13. 13. 13. 12. 10. 10. 10.
      11. 10. 9. 10. 8. 8. 8. 18. 42. 54. 61. 62. 44. 28. 16. 13. 14.
      15. 14. 12. 12. 13. 13. 13. 12. 11. 10. 9. 10. 10. 7. 6. 33. 51.
      55. 60. 56. 41. 18. 11. 11. 9. 12. 11. 10. 8. 9. 12. 13. 12. 11.
      12. 10. 10. 12. 8. 7. 46. 57. 55. 59. 51. 27. 8. 6. 4. 3. 6. 4. 7.
      10. 8. 10. 12. 10. 11. 12. 10. 10. 10. 8. 11. 53. 60. 58. 63. 55.
      38. 33. 36. 34. 34. 34. 26. 30. 23. 14. 10. 12. 10. 11. 12. 9. 11.
      9. 8. 17. 55. 60. 61. 64. 59. 59. 61. 64. 61. 61. 58. 51. 54. 36.
      19. 10. 12. 11. 11. 12. 10. 11. 11. 8. 23. 54. 60. 62. 62. 61. 62.
      62. 64. 64. 63. 63. 63. 64. 43. 20. 8. 12. 12. 11. 12. 11. 10. 12.
      6. 26. 54. 60. 63. 61. 64. 66. 61. 63. 67. 63. 64. 68. 65. 48. 21.
      8. 12. 11. 9. 11. 10. 9. 9. 8. 25. 44. 53. 59. 62. 64. 62. 64. 63.
      63. 62. 62. 63. 58. 43. 23. 11. 12. 12. 11. 11. 10. 10.</_>
    <_>
      8. 13. 8. 10. 11. 10. 5. 13. 26. 45. 51. 58. 60. 61. 57. 47. 31.
      16. 7. 13. 14. 13. 12. 9. 12. 11. 12. 8. 9. 10. 8. 16. 36. 55. 63.
      62. 67. 64. 63. 63. 60. 53. 42. 22. 12. 10. 14. 11. 11. 12. 11. 9.
      9. 11. 10. 5. 23. 53. 62. 62. 58. 61. 59. 61. 63. 64. 63. 61. 42.
      17. 8. 15. 9. 11. 12. 8. 7. 10. 11. 11. 4. 26. 58. 63. 60. 55. 54.
      54. 59. 58. 60. 60. 65. 57. 31. 9. 13. 8. 13. 13. 10. 8. 10. 10.
      10. 7. 26. 50. 49. 38. 23. 12. 11. 23. 35. 55. 62. 63. 65. 46. 11.
      11. 10. 15. 12. 10. 10. 11. 10. 10. 7. 16. 28. 20. 15. 12. 10. 9.
      11. 16. 47. 63. 59. 65. 56. 14. 11. 12. 12. 11. 9. 10. 10. 11. 9.
      8. 7. 10. 10. 10. 12. 12. 14. 9. 6. 39. 61. 59. 65. 60. 15. 9. 12.
      10. 11. 10. 10. 7. 9. 7. 10. 9. 10. 12. 13. 10. 7. 12. 12. 6. 38.
      63. 65. 67. 59. 13. 6. 13. 13. 11. 10. 10. 10. 9. 8. 8. 9. 10. 10.
      9. 11. 9. 14. 10. 10. 43. 62. 60. 68. 51. 14. 11. 12. 12. 11. 10.
      10. 10. 10. 9. 9. 9. 10. 10. 8. 9. 11. 10. 9. 24. 54. 63. 62. 63.
      45. 14. 10. 10. 9. 11. 9. 10. 10. 10. 10. 10. 10. 10. 12. 8. 11.
      12. 3. 14. 44. 56. 60. 63. 55. 34. 12. 11. 12. 10. 10. 9. 9. 10.
      10. 10. 10. 10. 10. 9. 9. 8. 7. 13. 36. 58. 58. 60. 63. 46. 23.
      10. 11. 14. 12. 9. 9. 9. 9. 9. 10. 10. 10. 10. 8. 10. 8. 13. 39.
      56. 57. 61. 63. 55. 32. 15. 11. 10. 11. 11. 8. 9. 9. 9. 9. 9. 10.
      10. 10. 9. 7. 22. 42. 55. 60. 60. 65. 56. 35. 17. 11. 14. 10. 9.
      12. 10. 9. 9. 9. 9. 10. 10. 9. 9. 10. 18. 42. 62. 60. 61. 65. 56.
      35. 16. 12. 10. 13. 12. 11. 12. 11. 9. 9. 9. 10. 10. 10. 9. 8. 18.
      48. 57. 60. 65. 65. 56. 32. 16. 8. 17. 11. 9. 12. 12. 10. 11. 10.
      11. 9. 10. 11. 9. 8. 16. 41. 59. 61. 62. 64. 51. 31. 15. 11. 12.
      11. 9. 13. 15. 12. 10. 11. 10. 10. 11. 9. 12. 10. 10. 31. 53. 58.
      63. 65. 50. 25. 13. 10. 11. 11. 16. 12. 10. 11. 8. 13. 10. 10. 10.
      11. 9. 12. 9. 15. 49. 62. 61. 63. 54. 28. 10. 12. 13. 13. 9. 14.
      9. 10. 14. 9. 13. 11. 11. 9. 11. 9. 9. 5. 24. 58. 59. 61. 60. 46.
      23. 13. 12. 5. 6. 4. 5. 5. 7. 13. 11. 8. 11. 11. 10. 9. 11. 7. 5.
      38. 61. 64. 61. 58. 52. 49. 49. 51. 53. 53. 54. 49. 47. 32. 15.
      14. 9. 10. 10. 10. 9. 12. 8. 8. 48. 62. 60. 62. 64. 65. 69. 68.
      63. 66. 66. 66. 63. 69. 46. 11. 12. 12. 12. 10. 10. 10. 10. 9. 10.
      47. 61. 60. 62. 65. 62. 63. 65. 62. 65. 62. 61. 61. 70. 46. 11.
      11. 12. 13. 10. 10. 11. 7. 9. 10. 41. 59. 64. 63. 69. 70. 68. 67.
      64. 66. 69. 69. 71. 71. 44. 14. 11. 12. 11. 10. 9. 9. 9. 9. 9. 23.
      30. 33. 32. 31. 32. 32. 32. 31. 29. 27. 27. 30. 27. 24. 15. 12.
      11. 11.</_>
    <_>
      13. 11. 9. 10. 18. 34. 51. 62. 66. 65. 63. 56. 46. 36. 25. 15. 13.
      11. 11. 11. 10. 10. 11. 10. 9. 11. 12. 16. 26. 41. 55. 62. 64. 66.
      66. 66. 64. 59. 51. 40. 28. 17. 13. 11. 12. 11. 11. 11. 10. 10.
      11. 12. 19. 32. 48. 59. 62. 61. 65. 64. 64. 63. 61. 56. 46. 35.
      22. 15. 12. 13. 13. 11. 11. 10. 10. 9. 13. 23. 39. 55. 64. 65. 63.
      56. 56. 59. 62. 64. 62. 54. 44. 29. 18. 12. 13. 13. 11. 11. 11.
      10. 11. 13. 22. 35. 45. 42. 31. 20. 23. 28. 39. 50. 58. 60. 55.
      45. 34. 21. 12. 12. 13. 11. 11. 11. 10. 8. 10. 16. 24. 27. 22. 12.
      5. 8. 14. 27. 41. 53. 59. 57. 50. 37. 23. 12. 12. 12. 11. 11. 11.
      10. 10. 11. 13. 15. 14. 12. 12. 13. 10. 14. 23. 36. 48. 56. 57.
      51. 38. 24. 13. 11. 12. 12. 11. 10. 10. 11. 9. 9. 12. 13. 12. 12.
      12. 9. 13. 23. 36. 48. 57. 57. 50. 38. 25. 14. 12. 12. 13. 12. 9.
      10. 10. 11. 10. 11. 11. 9. 10. 14. 9. 12. 24. 39. 50. 58. 56. 48.
      35. 24. 14. 11. 10. 11. 11. 9. 9. 10. 11. 10. 9. 10. 10. 10. 11.
      11. 16. 29. 44. 53. 56. 53. 45. 33. 22. 13. 11. 10. 10. 10. 8. 9.
      8. 11. 10. 9. 10. 11. 10. 9. 12. 21. 36. 50. 56. 57. 51. 42. 30.
      20. 12. 12. 11. 10. 9. 8. 8. 8. 10. 10. 10. 11. 10. 9. 11. 15. 28.
      44. 54. 59. 59. 49. 38. 26. 17. 12. 13. 12. 10. 9. 9. 9. 9. 10.
      10. 11. 10. 7. 9. 15. 27. 41. 53. 57. 59. 56. 43. 29. 21. 14. 11.
      13. 12. 10. 10. 10. 10. 10. 10. 10. 10. 9. 7. 13. 24. 41. 52. 59.
      58. 56. 49. 35. 22. 15. 11. 11. 12. 10. 9. 10. 10. 10. 10. 10. 9.
      9. 11. 15. 27. 40. 52. 58. 59. 56. 50. 38. 24. 17. 12. 11. 12. 11.
      9. 9. 10. 9. 9. 9. 10. 9. 9. 14. 25. 40. 54. 60. 61. 59. 54. 45.
      28. 14. 12. 11. 12. 13. 11. 8. 9. 10. 10. 10. 9. 12. 9. 12. 24.
      38. 52. 60. 61. 60. 55. 44. 29. 18. 14. 11. 11. 12. 12. 11. 10. 9.
      9. 10. 11. 10. 10. 10. 20. 36. 48. 57. 61. 60. 52. 41. 30. 18. 12.
      12. 12. 11. 11. 11. 11. 10. 10. 9. 9. 9. 9. 9. 14. 31. 46. 55. 60.
      58. 54. 41. 27. 18. 11. 9. 10. 10. 10. 10. 9. 10. 10. 10. 10. 9.
      10. 9. 11. 21. 39. 50. 56. 58. 52. 42. 29. 19. 15. 14. 13. 13. 12.
      11. 10. 10. 9. 9. 9. 10. 10. 9. 9. 15. 28. 44. 53. 56. 54. 44. 29.
      18. 10. 10. 10. 11. 12. 11. 9. 9. 10. 10. 10. 9. 9. 9. 9. 8. 18.
      31. 47. 57. 59. 53. 41. 25. 16. 8. 6. 5. 5. 7. 7. 6. 7. 8. 10. 10.
      10. 10. 10. 11. 9. 21. 35. 50. 60. 60. 57. 51. 41. 36. 32. 30. 27.
      25. 23. 19. 17. 14. 11. 10. 11. 12. 11. 11. 11. 11. 25. 39. 53.
      62. 60. 61. 65. 64. 64. 67. 68. 65. 61. 54. 46. 35. 28. 19. 13.
      12. 12. 11. 10. 10. 12. 25. 38. 52. 60. 61. 63. 64. 61. 59. 65.
      65. 66. 63. 62. 56. 48. 35. 25. 17. 12. 11. 9. 10. 11.</_>
    <_>
      14. 14. 8. 10. 9. 8. 4. 7. 19. 34. 42. 46. 53. 49. 41. 23. 14. 9.
      12. 13. 12. 10. 11. 10. 10. 10. 12. 11. 12. 8. 11. 25. 36. 56. 66.
      69. 67. 66. 63. 62. 56. 41. 23. 13. 11. 14. 11. 10. 11. 10. 13.
      13. 13. 15. 10. 17. 48. 59. 60. 61. 60. 61. 63. 66. 66. 64. 64.
      42. 21. 8. 13. 12. 9. 10. 10. 13. 11. 11. 11. 7. 20. 60. 65. 63.
      69. 73. 72. 63. 59. 59. 61. 66. 56. 36. 8. 10. 12. 10. 8. 10. 11.
      10. 10. 8. 4. 22. 62. 63. 56. 43. 30. 29. 39. 54. 65. 66. 61. 63.
      50. 11. 9. 13. 11. 9. 10. 12. 12. 12. 11. 8. 22. 45. 37. 18. 13.
      7. 6. 13. 25. 53. 61. 61. 63. 54. 14. 9. 11. 11. 10. 9. 11. 11.
      10. 12. 9. 16. 21. 10. 9. 12. 13. 9. 6. 6. 48. 66. 62. 63. 56. 15.
      9. 11. 11. 10. 9. 11. 12. 12. 13. 7. 12. 13. 11. 11. 10. 11. 11.
      12. 5. 47. 61. 62. 65. 60. 15. 8. 11. 12. 9. 9. 12. 12. 12. 12.
      11. 11. 11. 13. 13. 15. 10. 12. 10. 9. 50. 63. 60. 66. 54. 7. 12.
      10. 11. 10. 9. 9. 11. 12. 12. 12. 12. 12. 13. 13. 12. 13. 9. 12.
      25. 59. 63. 64. 65. 42. 8. 10. 9. 11. 9. 10. 10. 12. 13. 12. 11.
      12. 12. 11. 11. 10. 12. 2. 17. 44. 62. 60. 64. 56. 25. 8. 9. 10.
      11. 9. 10. 12. 13. 12. 10. 10. 12. 12. 11. 13. 10. 10. 11. 37. 56.
      61. 63. 59. 41. 15. 9. 9. 11. 10. 10. 9. 12. 12. 10. 9. 10. 12.
      12. 10. 11. 7. 16. 36. 56. 60. 62. 63. 48. 26. 13. 9. 11. 11. 8.
      9. 9. 12. 11. 10. 10. 11. 10. 9. 8. 8. 18. 38. 57. 60. 63. 65. 49.
      30. 13. 11. 9. 12. 11. 8. 10. 9. 12. 11. 11. 11. 10. 9. 10. 12.
      24. 43. 59. 64. 62. 62. 51. 29. 14. 10. 10. 10. 11. 9. 10. 11. 10.
      11. 10. 10. 11. 10. 9. 14. 21. 45. 58. 61. 61. 65. 50. 22. 13. 10.
      14. 11. 13. 10. 8. 11. 9. 10. 13. 9. 11. 8. 11. 6. 22. 50. 62. 63.
      63. 59. 43. 23. 14. 11. 13. 8. 11. 13. 10. 11. 9. 9. 10. 11. 10.
      13. 12. 8. 13. 39. 59. 62. 64. 56. 41. 24. 12. 12. 12. 13. 13. 11.
      11. 8. 8. 12. 10. 9. 11. 10. 10. 13. 7. 27. 58. 63. 64. 61. 41.
      19. 10. 10. 13. 13. 7. 9. 7. 10. 10. 8. 12. 8. 8. 11. 10. 8. 10.
      9. 42. 64. 61. 64. 55. 28. 8. 6. 8. 7. 4. 8. 7. 6. 7. 12. 9. 10.
      10. 9. 8. 11. 11. 9. 14. 53. 62. 61. 63. 60. 47. 41. 45. 46. 49.
      52. 49. 45. 38. 16. 12. 10. 6. 10. 10. 9. 13. 12. 8. 23. 60. 60.
      62. 63. 64. 60. 62. 65. 61. 62. 66. 60. 63. 55. 15. 8. 11. 8. 13.
      10. 11. 14. 10. 8. 26. 58. 59. 62. 62. 63. 62. 64. 64. 62. 63. 61.
      61. 67. 56. 15. 10. 12. 9. 10. 9. 9. 15. 10. 9. 23. 48. 58. 64.
      62. 65. 64. 63. 63. 66. 70. 66. 61. 63. 46. 13. 14. 12. 10. 10. 9.
      11. 12. 11. 9. 11. 19. 23. 21. 20. 18. 15. 19. 21. 20. 22. 22. 22.
      23. 18. 13. 12. 11. 10. 9. 9.</_>
    <_>
      14. 14. 13. 12. 13. 13. 13. 12. 16. 15. 16. 21. 31. 42. 50. 54.
      59. 65. 62. 55. 42. 25. 20. 22. 22. 14. 14. 13. 13. 13. 14. 14.
      13. 13. 14. 20. 32. 45. 55. 60. 61. 61. 63. 63. 67. 63. 48. 31.
      20. 23. 13. 14. 14. 14. 14. 15. 14. 13. 14. 15. 21. 36. 51. 60.
      62. 63. 63. 63. 62. 66. 68. 62. 46. 26. 23. 13. 14. 14. 14. 15.
      15. 14. 14. 15. 14. 21. 37. 52. 59. 60. 59. 58. 63. 64. 63. 63.
      65. 57. 37. 23. 13. 14. 14. 14. 14. 14. 14. 14. 13. 14. 21. 36.
      47. 47. 42. 38. 31. 40. 49. 58. 64. 68. 63. 46. 26. 12. 13. 14.
      14. 13. 14. 14. 13. 14. 14. 19. 27. 32. 29. 22. 18. 15. 16. 24.
      43. 60. 67. 63. 51. 29. 12. 13. 14. 13. 13. 13. 14. 14. 14. 14.
      15. 18. 20. 20. 19. 18. 21. 18. 16. 31. 52. 61. 60. 52. 31. 12.
      13. 13. 13. 12. 13. 13. 14. 13. 13. 14. 13. 14. 15. 17. 18. 15.
      19. 18. 27. 47. 61. 61. 54. 33. 13. 12. 12. 12. 12. 12. 12. 13.
      12. 13. 12. 13. 15. 15. 15. 17. 16. 16. 17. 30. 47. 58. 59. 50.
      32. 12. 12. 12. 12. 12. 12. 12. 12. 11. 13. 13. 14. 15. 15. 14.
      16. 16. 16. 19. 33. 50. 61. 60. 48. 29. 12. 12. 12. 13. 13. 12.
      12. 12. 12. 14. 14. 13. 14. 14. 13. 14. 16. 15. 21. 38. 54. 61.
      58. 44. 26. 12. 12. 12. 12. 12. 12. 12. 12. 12. 14. 13. 11. 13.
      14. 14. 15. 16. 17. 27. 46. 58. 59. 53. 38. 22. 12. 12. 12. 11.
      11. 12. 12. 12. 12. 13. 12. 11. 14. 15. 15. 16. 14. 26. 41. 55.
      61. 59. 48. 30. 19. 13. 12. 12. 11. 11. 12. 12. 13. 12. 13. 12.
      12. 13. 13. 12. 15. 19. 40. 55. 60. 61. 56. 42. 22. 18. 12. 12.
      12. 11. 11. 12. 12. 12. 13. 13. 12. 12. 12. 12. 16. 23. 36. 53.
      60. 60. 56. 44. 30. 19. 18. 12. 12. 12. 12. 12. 12. 12. 12. 12.
      11. 11. 12. 13. 16. 26. 38. 52. 59. 58. 58. 51. 30. 18. 20. 17.
      11. 11. 12. 12. 12. 11. 12. 12. 11. 13. 12. 11. 14. 22. 37. 51.
      57. 58. 59. 50. 32. 23. 20. 15. 17. 11. 11. 11. 12. 12. 11. 11.
      12. 10. 14. 14. 14. 21. 35. 49. 57. 58. 58. 49. 34. 21. 16. 16.
      18. 16. 12. 11. 11. 12. 12. 11. 11. 11. 12. 13. 15. 19. 32. 47.
      56. 59. 58. 51. 35. 22. 19. 17. 15. 16. 16. 12. 11. 11. 11. 12.
      12. 11. 11. 13. 11. 15. 28. 42. 52. 56. 57. 52. 38. 22. 17. 17.
      17. 15. 13. 17. 12. 11. 11. 12. 12. 12. 12. 12. 12. 10. 19. 36.
      49. 57. 57. 53. 38. 22. 18. 21. 18. 16. 16. 13. 14. 12. 12. 12.
      12. 12. 12. 12. 12. 12. 15. 27. 42. 52. 59. 57. 49. 32. 12. 8. 13.
      11. 16. 24. 20. 16. 12. 12. 12. 12. 12. 12. 12. 13. 13. 19. 34.
      48. 54. 59. 59. 52. 46. 38. 42. 50. 52. 54. 50. 38. 25. 12. 12.
      12. 12. 12. 12. 12. 13. 14. 18. 35. 53. 58. 59. 62. 61. 60. 59.
      60. 60. 60. 62. 58. 49. 27. 11. 11. 11. 12. 12. 12. 12. 12. 12.
      21. 41. 54. 57. 60. 60. 60. 60. 60. 61. 59. 61. 61. 60. 48. 27.</_>
    <_>
      16. 14. 17. 16. 15. 15. 13. 13. 14. 31. 45. 57. 60. 56. 54. 50.
      40. 29. 18. 12. 11. 12. 9. 9. 11. 17. 14. 16. 16. 15. 15. 16. 24.
      48. 57. 59. 59. 57. 56. 58. 57. 57. 47. 32. 18. 10. 10. 10. 11.
      11. 17. 13. 14. 15. 15. 12. 18. 36. 52. 59. 59. 57. 56. 56. 59.
      59. 60. 58. 46. 28. 15. 11. 10. 9. 10. 16. 14. 13. 14. 15. 12. 19.
      40. 52. 57. 58. 58. 58. 55. 54. 54. 54. 58. 53. 38. 22. 12. 11. 8.
      10. 15. 14. 14. 14. 15. 14. 19. 36. 54. 40. 22. 10. 8. 15. 30. 47.
      53. 59. 55. 45. 27. 13. 11. 11. 9. 14. 14. 14. 13. 14. 15. 17. 26.
      23. 16. 13. 13. 13. 11. 15. 28. 50. 56. 55. 49. 31. 13. 11. 11.
      10. 14. 13. 14. 13. 13. 14. 14. 18. 17. 11. 11. 13. 13. 11. 15.
      28. 44. 54. 55. 50. 33. 13. 11. 9. 10. 17. 13. 15. 14. 13. 13. 12.
      13. 13. 9. 12. 12. 12. 10. 12. 23. 46. 56. 56. 50. 31. 12. 12. 11.
      9. 14. 13. 13. 14. 14. 14. 13. 12. 13. 11. 13. 11. 11. 12. 15. 29.
      48. 57. 57. 49. 30. 13. 11. 10. 10. 14. 13. 13. 13. 13. 13. 13.
      12. 13. 11. 12. 12. 12. 11. 17. 34. 54. 54. 56. 46. 25. 12. 10.
      11. 9. 14. 14. 14. 13. 13. 12. 12. 12. 12. 10. 12. 13. 12. 13. 25.
      47. 56. 54. 56. 38. 17. 12. 10. 10. 9. 14. 14. 14. 13. 12. 11. 11.
      12. 11. 13. 13. 10. 11. 23. 41. 56. 55. 56. 50. 27. 11. 11. 11.
      10. 10. 13. 13. 13. 12. 11. 11. 12. 12. 10. 14. 13. 10. 20. 40.
      55. 56. 58. 55. 35. 17. 11. 9. 10. 10. 10. 12. 12. 12. 11. 11. 12.
      12. 13. 12. 8. 10. 25. 41. 52. 59. 58. 57. 44. 19. 12. 14. 9. 9.
      10. 9. 12. 12. 12. 12. 12. 12. 12. 12. 13. 12. 22. 45. 57. 56. 57.
      54. 42. 25. 11. 11. 12. 10. 10. 9. 10. 13. 13. 12. 12. 12. 12. 11.
      11. 12. 29. 45. 54. 56. 58. 57. 44. 22. 9. 13. 13. 7. 12. 13. 8.
      11. 15. 10. 13. 13. 11. 12. 10. 13. 23. 45. 56. 56. 58. 54. 37.
      21. 14. 12. 12. 11. 11. 10. 9. 10. 10. 13. 10. 13. 12. 11. 11. 12.
      19. 45. 52. 57. 58. 53. 39. 20. 10. 11. 11. 12. 11. 10. 9. 9. 11.
      10. 12. 11. 12. 11. 12. 12. 16. 30. 51. 54. 58. 54. 37. 18. 10.
      13. 13. 13. 13. 11. 10. 10. 10. 10. 10. 10. 12. 11. 11. 12. 12.
      22. 42. 57. 57. 54. 42. 24. 13. 11. 12. 12. 11. 9. 10. 11. 11. 12.
      10. 9. 11. 13. 11. 10. 12. 13. 28. 50. 51. 56. 54. 36. 16. 9. 12.
      14. 13. 16. 15. 17. 15. 10. 11. 9. 9. 12. 14. 11. 11. 11. 14. 33.
      53. 59. 59. 57. 55. 57. 60. 60. 58. 56. 60. 58. 53. 37. 18. 12. 9.
      10. 11. 14. 12. 12. 11. 16. 37. 53. 54. 57. 57. 57. 58. 58. 57.
      59. 54. 59. 57. 55. 38. 16. 11. 10. 10. 10. 12. 11. 13. 12. 18.
      39. 53. 55. 60. 59. 57. 59. 58. 55. 58. 59. 59. 55. 54. 39. 17.
      11. 10. 10. 11. 12. 12. 12. 12. 17. 35. 55. 58. 58. 61. 59. 59.
      60. 58. 59. 57. 61. 59. 53. 34. 15. 12. 10. 10.</_>
    <_>
      32. 35. 33. 33. 30. 22. 21. 26. 24. 23. 25. 33. 44. 55. 66. 72.
      79. 57. 19. 18. 12. 34. 23. 18. 17. 35. 35. 36. 37. 33. 31. 32.
      31. 33. 32. 32. 32. 34. 35. 36. 36. 38. 36. 34. 33. 33. 29. 25.
      21. 21. 37. 34. 37. 38. 34. 34. 35. 30. 32. 36. 39. 40. 40. 40.
      39. 37. 27. 27. 27. 23. 25. 22. 23. 25. 21. 39. 37. 39. 40. 37.
      37. 35. 35. 50. 57. 64. 66. 66. 64. 61. 58. 53. 44. 31. 21. 25.
      27. 27. 25. 23. 38. 38. 38. 37. 39. 37. 36. 47. 67. 69. 69. 67.
      64. 63. 64. 65. 64. 57. 47. 29. 29. 25. 27. 21. 24. 37. 38. 37.
      34. 38. 36. 35. 53. 69. 67. 66. 66. 63. 60. 62. 66. 65. 67. 60.
      46. 28. 26. 27. 27. 21. 39. 39. 41. 38. 40. 39. 36. 50. 61. 50.
      41. 38. 35. 34. 42. 54. 61. 65. 61. 60. 31. 30. 24. 25. 23. 37.
      36. 42. 42. 41. 42. 37. 42. 35. 28. 29. 36. 36. 30. 32. 41. 63.
      61. 63. 61. 38. 30. 28. 26. 26. 38. 39. 40. 42. 43. 42. 39. 36.
      37. 32. 29. 31. 35. 35. 32. 31. 58. 61. 63. 65. 41. 34. 27. 27.
      26. 37. 38. 39. 41. 42. 41. 38. 36. 34. 35. 34. 32. 32. 32. 32.
      33. 63. 60. 63. 63. 39. 31. 28. 27. 26. 37. 37. 37. 39. 40. 40.
      38. 36. 35. 33. 31. 32. 33. 29. 31. 42. 64. 62. 65. 57. 34. 27.
      30. 27. 27. 35. 34. 35. 37. 39. 39. 37. 35. 36. 34. 31. 31. 32.
      29. 38. 54. 62. 66. 66. 47. 30. 26. 31. 27. 27. 31. 31. 32. 34.
      37. 38. 36. 33. 34. 39. 37. 30. 31. 40. 52. 64. 66. 69. 60. 36.
      30. 27. 29. 27. 26. 30. 30. 31. 34. 36. 36. 35. 33. 35. 36. 35.
      36. 43. 56. 65. 67. 70. 61. 45. 30. 33. 29. 27. 28. 27. 32. 31.
      32. 33. 35. 35. 34. 33. 35. 32. 37. 49. 58. 66. 69. 64. 59. 44.
      32. 29. 31. 29. 29. 27. 28. 32. 32. 32. 33. 33. 34. 33. 32. 32.
      38. 52. 61. 62. 67. 68. 58. 41. 29. 27. 29. 27. 29. 32. 26. 27.
      31. 33. 30. 34. 33. 33. 37. 30. 35. 55. 66. 65. 66. 66. 53. 37.
      27. 27. 24. 27. 27. 28. 29. 28. 26. 29. 30. 29. 32. 33. 32. 34.
      32. 51. 58. 65. 66. 62. 50. 36. 28. 26. 27. 22. 26. 26. 28. 28.
      27. 25. 29. 28. 29. 31. 33. 31. 32. 40. 60. 60. 66. 66. 52. 34.
      27. 29. 26. 26. 22. 25. 26. 27. 28. 26. 26. 29. 26. 28. 28. 31.
      31. 31. 51. 62. 63. 65. 59. 43. 31. 30. 31. 31. 29. 31. 32. 34.
      26. 28. 27. 27. 26. 24. 26. 24. 28. 29. 32. 58. 63. 64. 66. 63.
      58. 59. 60. 57. 60. 57. 63. 59. 55. 31. 30. 28. 26. 25. 24. 26.
      24. 27. 28. 34. 59. 63. 65. 66. 66. 64. 64. 63. 60. 61. 60. 68.
      64. 60. 31. 28. 26. 26. 25. 25. 27. 25. 26. 26. 31. 49. 59. 62.
      64. 64. 64. 63. 62. 64. 64. 63. 65. 61. 54. 33. 28. 25. 25. 24.
      25. 25. 24. 23. 21. 25. 37. 39. 42. 39. 37. 40. 41. 38. 38. 37.
      37. 35. 37. 33. 27. 26. 25. 23. 23. 24. 24. 24. 23. 21. 20. 20.
      22. 22. 22. 22. 20. 21. 22. 21. 19. 19. 18. 17. 18. 19. 21. 21.
      20.</_>
    <_>
      34. 36. 34. 34. 31. 27. 27. 27. 29. 31. 29. 35. 43. 49. 63. 72.
      77. 64. 32. 28. 22. 29. 22. 18. 20. 38. 37. 38. 38. 35. 34. 33.
      31. 33. 34. 30. 32. 33. 29. 28. 26. 23. 30. 31. 27. 27. 25. 25.
      20. 22. 39. 35. 39. 38. 36. 38. 35. 34. 33. 45. 51. 53. 56. 56.
      53. 47. 35. 32. 27. 25. 23. 26. 24. 27. 23. 41. 38. 41. 38. 39.
      40. 35. 43. 59. 63. 66. 68. 67. 62. 61. 64. 64. 49. 36. 28. 24.
      29. 24. 26. 24. 39. 40. 40. 36. 41. 39. 33. 52. 67. 71. 72. 68.
      68. 68. 66. 65. 64. 61. 60. 37. 28. 26. 28. 24. 24. 37. 40. 38.
      35. 41. 37. 34. 53. 69. 70. 67. 58. 56. 60. 61. 64. 66. 69. 69.
      52. 31. 25. 27. 28. 23. 38. 41. 40. 40. 43. 40. 40. 48. 58. 43.
      36. 36. 33. 27. 33. 52. 64. 66. 63. 66. 39. 31. 24. 27. 23. 38.
      40. 40. 42. 42. 41. 42. 39. 33. 29. 31. 33. 37. 36. 31. 34. 60.
      66. 67. 66. 44. 30. 29. 27. 26. 40. 39. 40. 42. 43. 42. 39. 37.
      34. 35. 35. 33. 33. 34. 33. 30. 59. 66. 64. 66. 44. 33. 28. 28.
      27. 38. 38. 38. 41. 42. 41. 39. 38. 39. 31. 32. 35. 32. 33. 34.
      29. 61. 63. 64. 68. 44. 33. 29. 27. 25. 38. 37. 38. 40. 41. 40.
      38. 36. 34. 35. 33. 30. 32. 32. 34. 39. 64. 65. 67. 64. 36. 29.
      31. 27. 27. 35. 35. 35. 38. 39. 38. 36. 34. 35. 36. 33. 32. 34.
      29. 36. 58. 64. 70. 68. 53. 28. 28. 31. 27. 28. 30. 30. 32. 35.
      37. 38. 36. 35. 36. 36. 36. 32. 31. 40. 55. 64. 65. 69. 61. 43.
      29. 30. 29. 27. 26. 30. 30. 31. 34. 37. 37. 35. 34. 33. 36. 34.
      33. 44. 60. 68. 66. 70. 62. 46. 33. 30. 30. 26. 29. 26. 33. 32.
      32. 34. 35. 35. 34. 33. 34. 34. 37. 50. 65. 66. 65. 70. 61. 46.
      34. 27. 28. 28. 26. 29. 27. 33. 32. 31. 32. 33. 34. 33. 33. 32.
      40. 56. 64. 64. 69. 69. 59. 40. 28. 28. 27. 27. 29. 28. 27. 26.
      32. 30. 30. 33. 31. 33. 32. 33. 37. 54. 65. 66. 69. 67. 52. 36.
      27. 26. 23. 24. 29. 26. 28. 27. 25. 29. 29. 30. 33. 32. 34. 29.
      32. 54. 62. 68. 67. 60. 47. 34. 27. 26. 26. 24. 22. 24. 29. 26.
      27. 25. 28. 27. 29. 28. 30. 34. 30. 42. 63. 63. 67. 65. 51. 35.
      28. 28. 25. 26. 26. 23. 22. 30. 25. 28. 26. 28. 25. 26. 25. 27.
      32. 30. 54. 65. 65. 66. 61. 47. 37. 34. 34. 32. 32. 34. 33. 31.
      28. 25. 28. 26. 27. 23. 25. 25. 27. 28. 28. 58. 64. 65. 68. 67.
      61. 60. 62. 60. 63. 63. 62. 63. 57. 31. 29. 28. 26. 27. 24. 24.
      25. 27. 27. 31. 60. 66. 65. 66. 67. 66. 63. 63. 63. 64. 65. 66.
      69. 65. 30. 29. 25. 25. 26. 26. 23. 23. 24. 25. 30. 51. 62. 63.
      63. 65. 67. 65. 64. 64. 63. 62. 62. 61. 58. 32. 29. 25. 24. 22.
      26. 23. 23. 22. 21. 22. 33. 33. 38. 37. 34. 36. 36. 33. 32. 30.
      30. 30. 29. 31. 24. 24. 23. 22. 23. 23. 24. 23. 22. 20. 18. 17.
      17. 18. 18. 17. 19. 21. 20. 18. 17. 17. 15. 16. 16. 17. 21. 21.
      21.</_>
    <_>
      10. 9. 10. 9. 10. 12. 10. 10. 8. 15. 14. 16. 20. 21. 20. 14. 17.
      13. 16. 16. 15. 15. 14. 14. 14. 10. 10. 11. 10. 10. 10. 10. 16.
      22. 35. 45. 54. 57. 57. 56. 50. 36. 23. 16. 13. 16. 16. 15. 16.
      14. 8. 10. 11. 10. 11. 10. 14. 30. 49. 54. 56. 56. 53. 55. 60. 58.
      57. 43. 29. 13. 14. 13. 13. 13. 14. 7. 9. 10. 9. 11. 10. 19. 43.
      54. 55. 57. 57. 55. 57. 58. 55. 59. 56. 45. 19. 13. 13. 15. 13.
      14. 8. 10. 10. 8. 9. 9. 20. 44. 56. 52. 50. 49. 49. 52. 57. 61.
      56. 60. 55. 30. 16. 13. 14. 14. 13. 9. 10. 10. 7. 8. 10. 19. 37.
      42. 32. 22. 12. 11. 17. 31. 50. 58. 59. 57. 40. 19. 13. 12. 14.
      14. 8. 9. 10. 9. 9. 11. 15. 25. 20. 16. 13. 11. 12. 12. 20. 43.
      54. 54. 54. 45. 20. 16. 15. 17. 14. 9. 9. 11. 9. 8. 9. 8. 11. 15.
      12. 10. 11. 15. 10. 12. 35. 53. 56. 56. 47. 17. 16. 14. 13. 13. 9.
      9. 8. 8. 9. 10. 10. 10. 12. 10. 10. 11. 14. 11. 14. 34. 53. 57.
      57. 44. 19. 15. 13. 14. 14. 9. 9. 8. 8. 9. 10. 10. 9. 8. 10. 12.
      10. 10. 12. 21. 42. 55. 56. 52. 38. 17. 15. 13. 14. 14. 10. 10. 9.
      9. 9. 10. 10. 10. 11. 9. 12. 11. 8. 11. 27. 49. 56. 57. 49. 30.
      15. 15. 13. 14. 14. 10. 10. 10. 9. 10. 11. 11. 10. 11. 8. 9. 9.
      11. 23. 41. 54. 54. 56. 46. 23. 11. 15. 13. 12. 14. 10. 10. 10. 9.
      10. 10. 10. 9. 10. 10. 9. 10. 19. 40. 55. 53. 56. 49. 35. 16. 11.
      14. 12. 11. 13. 10. 10. 10. 10. 10. 11. 10. 9. 11. 9. 11. 23. 37.
      50. 58. 54. 56. 36. 22. 13. 14. 13. 12. 13. 13. 11. 11. 10. 10.
      10. 11. 11. 10. 8. 12. 22. 41. 53. 55. 56. 53. 41. 22. 15. 13. 15.
      13. 13. 14. 14. 10. 10. 10. 10. 10. 10. 10. 9. 12. 30. 44. 54. 57.
      56. 52. 40. 23. 12. 15. 13. 13. 11. 13. 11. 14. 10. 9. 11. 9. 10.
      12. 9. 13. 30. 45. 55. 57. 57. 52. 37. 21. 13. 14. 13. 12. 12. 11.
      11. 15. 14. 11. 8. 10. 10. 9. 9. 13. 24. 44. 52. 57. 55. 47. 33.
      20. 13. 14. 14. 12. 11. 12. 12. 12. 14. 14. 11. 7. 10. 11. 8. 9.
      21. 39. 53. 57. 55. 47. 33. 19. 12. 13. 14. 13. 11. 11. 12. 13.
      13. 12. 13. 11. 8. 10. 11. 8. 13. 30. 50. 53. 56. 50. 33. 19. 13.
      13. 15. 11. 10. 11. 11. 11. 12. 12. 10. 12. 11. 10. 10. 10. 10.
      20. 40. 54. 52. 54. 43. 25. 12. 9. 8. 8. 9. 10. 13. 13. 9. 10. 13.
      13. 12. 10. 11. 10. 10. 12. 27. 47. 53. 56. 57. 53. 47. 45. 45.
      46. 47. 47. 46. 44. 34. 17. 11. 12. 11. 12. 9. 11. 10. 9. 12. 29.
      51. 54. 56. 57. 55. 55. 56. 56. 54. 55. 56. 57. 55. 41. 20. 11.
      13. 13. 12. 8. 11. 10. 9. 12. 30. 52. 54. 56. 58. 57. 56. 57. 58.
      56. 56. 54. 56. 57. 43. 21. 11. 12. 11. 13. 10. 10. 9. 11. 11. 31.
      50. 51. 54. 57. 56. 57. 57. 58. 61. 58. 57. 56. 54. 40. 18. 14.
      12. 12. 12.</_>
    <_>
      10. 11. 11. 10. 9. 10. 11. 11. 12. 10. 5. 4. 5. 5. 7. 12. 13. 22.
      28. 28. 39. 31. 16. 15. 15. 9. 9. 10. 9. 9. 10. 11. 11. 8. 11. 25.
      40. 46. 52. 53. 45. 32. 15. 10. 17. 13. 18. 14. 12. 13. 9. 9. 9.
      9. 9. 10. 10. 9. 35. 52. 60. 61. 63. 60. 57. 59. 61. 54. 35. 12.
      18. 16. 10. 17. 13. 10. 10. 9. 9. 10. 10. 10. 8. 52. 58. 64. 63.
      59. 61. 64. 62. 65. 66. 60. 30. 16. 11. 14. 12. 14. 10. 9. 9. 9.
      10. 10. 9. 8. 57. 58. 61. 59. 54. 54. 59. 60. 63. 63. 66. 62. 22.
      13. 17. 15. 14. 9. 9. 8. 8. 9. 10. 10. 8. 52. 48. 31. 14. 8. 6.
      15. 33. 59. 66. 64. 65. 41. 13. 12. 14. 14. 9. 9. 8. 8. 9. 10. 10.
      9. 25. 15. 13. 14. 9. 10. 13. 9. 47. 61. 65. 62. 53. 11. 18. 12.
      14. 11. 10. 10. 9. 9. 10. 10. 9. 12. 12. 11. 11. 13. 12. 11. 14.
      30. 59. 62. 64. 58. 9. 13. 14. 14. 10. 10. 9. 9. 9. 10. 10. 10.
      10. 10. 11. 11. 10. 12. 13. 12. 33. 63. 61. 63. 56. 11. 15. 14.
      12. 8. 8. 8. 8. 8. 9. 9. 9. 12. 9. 8. 10. 10. 10. 11. 11. 49. 62.
      62. 61. 44. 19. 7. 17. 14. 8. 8. 9. 9. 9. 9. 10. 10. 7. 15. 8. 5.
      13. 9. 10. 31. 61. 60. 62. 61. 32. 10. 16. 14. 15. 9. 10. 10. 10.
      10. 10. 10. 10. 11. 6. 9. 13. 7. 9. 31. 54. 61. 61. 63. 52. 11.
      16. 13. 14. 14. 9. 10. 10. 10. 9. 8. 9. 9. 8. 9. 11. 9. 12. 33.
      54. 61. 60. 67. 56. 20. 14. 15. 14. 12. 14. 10. 10. 10. 9. 8. 8.
      8. 9. 7. 13. 8. 14. 42. 60. 61. 64. 64. 58. 25. 14. 15. 12. 12.
      12. 14. 10. 11. 10. 9. 8. 8. 9. 10. 16. 6. 20. 50. 64. 63. 62. 61.
      53. 21. 17. 11. 14. 12. 10. 14. 14. 10. 10. 10. 9. 8. 8. 9. 11. 6.
      24. 52. 64. 62. 65. 63. 48. 21. 11. 11. 13. 10. 13. 13. 11. 15.
      11. 10. 8. 6. 13. 5. 5. 10. 16. 55. 62. 59. 66. 60. 38. 15. 14.
      15. 12. 10. 13. 12. 12. 13. 14. 11. 8. 13. 10. 8. 11. 12. 5. 46.
      57. 60. 66. 59. 33. 17. 12. 12. 13. 14. 12. 11. 13. 12. 12. 12. 9.
      7. 10. 9. 7. 10. 8. 20. 57. 59. 63. 64. 40. 12. 9. 13. 13. 11. 11.
      11. 12. 12. 11. 10. 12. 11. 9. 8. 10. 11. 10. 4. 38. 63. 65. 65.
      61. 49. 41. 41. 34. 33. 38. 42. 42. 40. 15. 13. 14. 12. 11. 7. 8.
      11. 9. 11. 7. 44. 61. 63. 62. 63. 66. 66. 65. 61. 60. 66. 61. 62.
      65. 18. 11. 11. 12. 9. 10. 8. 9. 9. 7. 6. 56. 59. 63. 64. 64. 66.
      64. 63. 66. 63. 67. 60. 61. 69. 21. 13. 11. 11. 10. 14. 10. 9. 13.
      8. 6. 52. 72. 70. 67. 65. 67. 67. 64. 63. 64. 71. 70. 64. 58. 21.
      13. 12. 11. 10. 9. 10. 8. 9. 12. 7. 18. 20. 15. 15. 14. 10. 10.
      14. 16. 17. 13. 10. 7. 11. 11. 11. 10. 11. 9. 10. 11. 10. 9. 10.
      11. 10. 11. 12. 12. 11. 11. 12. 13. 12. 12. 12. 12. 13. 13. 14.
      16. 12. 12.</_>
    <_>
      22. 26. 27. 28. 29. 30. 37. 44. 59. 65. 71. 73. 74. 73. 72. 73.
      69. 67. 66. 69. 65. 57. 47. 38. 37. 14. 16. 16. 17. 17. 17. 23.
      30. 51. 58. 63. 66. 67. 67. 67. 65. 62. 56. 49. 52. 50. 43. 31.
      23. 22. 13. 12. 11. 12. 12. 11. 16. 27. 43. 49. 53. 59. 60. 60.
      63. 58. 57. 49. 37. 36. 34. 29. 19. 16. 14. 11. 10. 9. 10. 11. 9.
      15. 31. 39. 44. 46. 52. 53. 53. 59. 55. 52. 45. 35. 23. 20. 17.
      14. 14. 14. 9. 8. 9. 9. 10. 9. 15. 36. 39. 42. 42. 46. 46. 47. 54.
      55. 53. 48. 41. 19. 15. 12. 15. 14. 13. 10. 9. 10. 9. 11. 10. 15.
      38. 41. 41. 40. 39. 40. 40. 46. 57. 60. 55. 50. 24. 14. 14. 16.
      12. 13. 9. 9. 10. 8. 10. 9. 11. 32. 35. 34. 33. 29. 30. 31. 36.
      56. 60. 58. 57. 34. 12. 13. 13. 11. 13. 9. 9. 10. 8. 11. 10. 9.
      29. 26. 24. 24. 18. 20. 21. 25. 53. 58. 60. 63. 45. 12. 13. 12.
      14. 12. 9. 8. 8. 9. 9. 9. 12. 17. 16. 16. 14. 15. 14. 12. 24. 48.
      59. 62. 59. 44. 13. 14. 14. 12. 12. 9. 8. 9. 9. 9. 8. 10. 12. 14.
      14. 11. 12. 13. 13. 25. 47. 59. 61. 56. 40. 12. 12. 12. 12. 11. 9.
      9. 9. 9. 9. 9. 9. 9. 10. 11. 10. 12. 16. 21. 33. 50. 59. 59. 50.
      34. 12. 13. 11. 13. 12. 9. 9. 9. 8. 8. 10. 10. 10. 8. 11. 13. 17.
      24. 32. 43. 54. 57. 54. 41. 26. 12. 14. 11. 14. 11. 9. 10. 9. 8.
      9. 10. 10. 10. 11. 16. 21. 26. 34. 42. 48. 53. 51. 45. 32. 19. 12.
      14. 10. 12. 12. 9. 10. 10. 10. 9. 9. 10. 10. 17. 22. 30. 36. 42.
      48. 50. 49. 44. 35. 24. 14. 12. 13. 10. 11. 13. 9. 9. 9. 10. 9. 9.
      12. 16. 26. 31. 39. 45. 47. 48. 46. 41. 34. 25. 18. 12. 12. 13.
      11. 12. 11. 9. 8. 8. 8. 8. 10. 16. 24. 35. 39. 46. 50. 48. 44. 38.
      31. 26. 18. 14. 11. 11. 12. 12. 13. 12. 9. 9. 10. 9. 11. 10. 24.
      36. 45. 49. 51. 47. 41. 35. 28. 21. 17. 14. 14. 12. 11. 13. 12.
      11. 12. 10. 11. 10. 9. 10. 15. 33. 44. 52. 54. 53. 46. 39. 32. 25.
      20. 19. 16. 16. 13. 11. 14. 13. 12. 12. 8. 9. 8. 9. 7. 21. 42. 50.
      58. 58. 55. 47. 39. 34. 30. 26. 26. 25. 24. 16. 11. 13. 12. 11.
      12. 8. 10. 10. 12. 9. 29. 51. 56. 59. 59. 56. 49. 43. 39. 37. 36.
      36. 36. 34. 21. 11. 12. 12. 11. 12. 8. 9. 9. 11. 9. 31. 54. 57.
      59. 59. 57. 52. 47. 45. 44. 43. 43. 44. 41. 26. 12. 12. 13. 13.
      12. 9. 8. 8. 8. 7. 26. 48. 50. 53. 53. 53. 51. 49. 48. 48. 48. 47.
      48. 45. 29. 14. 12. 12. 13. 12. 11. 9. 11. 10. 10. 20. 38. 39. 40.
      40. 41. 41. 41. 42. 42. 43. 42. 42. 40. 27. 15. 12. 11. 11. 11.
      10. 8. 11. 10. 10. 14. 27. 26. 29. 28. 28. 28. 29. 30. 30. 31. 31.
      30. 30. 21. 13. 12. 11. 10. 10. 8. 8. 9. 9. 7. 9. 14. 17. 16. 16.
      18. 18. 16. 17. 19. 19. 19. 17. 18. 14. 13. 10. 11. 9. 10.</_>
    <_>
      13. 8. 11. 12. 9. 13. 12. 8. 28. 87. 93. 90. 104. 109. 96. 106.
      107. 104. 106. 105. 100. 91. 32. 13. 11. 11. 8. 11. 10. 9. 12. 10.
      7. 11. 8. 1. 3. 4. 5. 8. 8. 6. 15. 24. 18. 30. 28. 17. 11. 14. 9.
      10. 11. 9. 10. 11. 9. 10. 10. 19. 38. 49. 57. 54. 55. 42. 35. 14.
      19. 18. 15. 13. 14. 16. 14. 9. 10. 11. 9. 11. 10. 9. 17. 42. 55.
      64. 58. 62. 57. 63. 67. 63. 57. 29. 14. 13. 13. 13. 13. 14. 9. 9.
      9. 9. 11. 8. 9. 24. 63. 62. 64. 62. 63. 65. 64. 59. 66. 68. 62.
      24. 10. 14. 9. 12. 13. 10. 9. 9. 9. 11. 8. 10. 25. 60. 59. 61. 57.
      45. 49. 58. 68. 63. 61. 65. 59. 18. 9. 15. 11. 12. 11. 9. 9. 9.
      10. 9. 10. 20. 53. 33. 16. 11. 8. 9. 15. 36. 65. 68. 63. 63. 26.
      17. 8. 14. 11. 10. 9. 9. 8. 9. 10. 9. 13. 15. 13. 14. 11. 11. 14.
      9. 7. 59. 65. 63. 67. 37. 12. 14. 12. 12. 9. 9. 10. 9. 8. 8. 9. 9.
      7. 13. 11. 9. 12. 13. 11. 8. 51. 63. 59. 68. 39. 11. 12. 12. 11.
      9. 10. 10. 9. 9. 9. 9. 10. 14. 7. 10. 11. 8. 10. 10. 12. 49. 61.
      65. 65. 35. 10. 15. 10. 12. 10. 10. 10. 10. 9. 9. 9. 10. 8. 12. 7.
      10. 12. 8. 15. 23. 58. 61. 61. 63. 25. 11. 11. 13. 12. 10. 10. 10.
      10. 10. 9. 9. 9. 9. 8. 11. 10. 12. 10. 17. 50. 62. 64. 60. 53. 17.
      12. 10. 14. 11. 10. 10. 10. 10. 10. 9. 9. 9. 9. 12. 8. 8. 8. 19.
      47. 61. 60. 65. 61. 29. 13. 11. 14. 11. 11. 10. 10. 10. 10. 10.
      10. 9. 8. 9. 6. 9. 10. 25. 52. 61. 62. 65. 58. 42. 12. 9. 13. 12.
      11. 11. 10. 10. 10. 10. 10. 10. 9. 8. 10. 8. 13. 38. 59. 61. 61.
      61. 56. 37. 16. 11. 9. 14. 9. 13. 12. 10. 10. 10. 10. 10. 10. 9.
      8. 7. 16. 44. 62. 61. 62. 63. 55. 28. 13. 10. 13. 13. 11. 12. 12.
      12. 11. 8. 12. 10. 7. 11. 11. 6. 16. 42. 59. 64. 60. 62. 47. 20.
      13. 11. 13. 11. 13. 9. 13. 11. 12. 10. 9. 8. 8. 8. 11. 11. 12. 41.
      62. 61. 60. 58. 40. 17. 14. 15. 12. 12. 12. 11. 13. 13. 14. 12. 8.
      13. 10. 12. 11. 9. 7. 23. 57. 55. 61. 63. 36. 16. 12. 10. 10. 11.
      12. 15. 12. 14. 10. 10. 12. 10. 11. 8. 10. 9. 9. 7. 44. 61. 62.
      61. 57. 32. 17. 16. 17. 17. 19. 18. 16. 16. 7. 13. 13. 12. 10. 8.
      9. 10. 11. 10. 5. 54. 57. 65. 61. 62. 64. 65. 64. 65. 63. 64. 65.
      63. 58. 13. 15. 9. 11. 8. 8. 14. 12. 10. 9. 9. 59. 60. 58. 58. 64.
      59. 63. 65. 57. 62. 59. 61. 63. 61. 7. 11. 11. 11. 8. 9. 11. 6. 6.
      8. 15. 54. 59. 62. 60. 66. 66. 64. 64. 67. 64. 63. 62. 62. 56. 17.
      11. 10. 10. 8. 10. 8. 6. 12. 9. 7. 21. 21. 23. 18. 23. 24. 20. 18.
      23. 15. 20. 17. 15. 15. 12. 9. 13. 10. 9. 9. 10. 11. 10. 10. 10.
      9. 10. 10. 9. 10. 12. 13. 13. 11. 10. 11. 12. 12. 11. 12. 12. 10.
      10.</_>
    <_>
      18. 17. 24. 22. 16. 21. 16. 14. 12. 13. 20. 17. 19. 21. 20. 16.
      16. 18. 12. 18. 18. 12. 17. 15. 17. 18. 22. 19. 20. 18. 19. 16.
      14. 19. 19. 23. 27. 27. 21. 20. 21. 18. 14. 15. 18. 14. 20. 16.
      15. 18. 14. 20. 17. 18. 19. 17. 13. 17. 19. 27. 29. 37. 40. 38.
      35. 31. 25. 23. 19. 14. 13. 16. 11. 19. 18. 14. 15. 20. 16. 16.
      13. 23. 38. 48. 58. 61. 65. 68. 70. 65. 59. 42. 37. 22. 14. 19.
      15. 14. 19. 18. 17. 14. 18. 14. 14. 10. 49. 73. 82. 87. 91. 93.
      96. 97. 96. 96. 92. 67. 37. 25. 11. 17. 15. 18. 17. 15. 15. 14.
      16. 16. 12. 65. 86. 87. 90. 95. 96. 103. 110. 120. 117. 116. 119.
      100. 20. 15. 17. 16. 16. 18. 13. 15. 14. 16. 18. 15. 46. 62. 70.
      74. 72. 71. 78. 86. 121. 120. 123. 119. 122. 71. 23. 18. 15. 20.
      19. 17. 15. 17. 12. 14. 18. 18. 32. 41. 42. 35. 35. 34. 37. 102.
      120. 120. 120. 122. 67. 45. 20. 19. 16. 19. 20. 19. 14. 16. 15.
      13. 17. 16. 20. 20. 19. 18. 18. 38. 78. 106. 120. 118. 95. 67. 45.
      25. 19. 16. 21. 14. 16. 22. 16. 13. 14. 14. 23. 30. 28. 28. 36.
      46. 63. 88. 101. 107. 103. 76. 57. 40. 25. 20. 24. 22. 61. 21. 12.
      15. 19. 14. 16. 61. 58. 63. 64. 69. 80. 90. 94. 89. 88. 77. 64.
      45. 33. 24. 18. 18. 25. 40. 19. 21. 15. 13. 14. 28. 83. 88. 94.
      95. 95. 98. 102. 102. 96. 91. 63. 44. 31. 22. 22. 22. 20. 24. 44.
      22. 16. 16. 17. 13. 24. 67. 87. 95. 102. 110. 113. 113. 113. 109.
      93. 66. 38. 23. 23. 15. 18. 21. 27. 19. 20. 17. 15. 16. 15. 19.
      31. 54. 67. 79. 87. 97. 115. 124. 115. 115. 109. 35. 18. 15. 19.
      21. 16. 27. 13. 20. 17. 15. 16. 16. 17. 15. 22. 32. 38. 36. 47.
      87. 122. 122. 122. 117. 98. 27. 22. 18. 14. 22. 22. 18. 18. 15.
      18. 18. 13. 15. 14. 16. 16. 18. 15. 18. 54. 102. 119. 120. 122.
      87. 52. 22. 20. 20. 16. 22. 20. 17. 13. 29. 25. 17. 19. 17. 17.
      18. 21. 27. 41. 65. 93. 112. 120. 110. 76. 51. 34. 18. 18. 15. 20.
      20. 17. 21. 59. 58. 45. 42. 34. 38. 40. 45. 54. 69. 85. 98. 105.
      106. 93. 66. 46. 31. 20. 19. 17. 18. 11. 13. 21. 84. 103. 87. 77.
      76. 70. 72. 75. 80. 87. 93. 96. 96. 88. 73. 54. 39. 27. 20. 18.
      17. 16. 17. 15. 23. 66. 90. 108. 115. 102. 98. 96. 93. 90. 89. 87.
      84. 81. 69. 53. 43. 32. 23. 20. 17. 17. 16. 14. 13. 17. 37. 68.
      86. 93. 98. 97. 93. 88. 84. 81. 76. 67. 59. 50. 35. 31. 25. 20.
      20. 17. 18. 18. 15. 12. 18. 12. 23. 46. 62. 63. 66. 66. 64. 61.
      58. 53. 46. 41. 37. 28. 25. 21. 19. 20. 17. 19. 19. 20. 21. 21.
      18. 22. 24. 26. 36. 39. 42. 44. 42. 39. 36. 35. 34. 33. 30. 27.
      24. 24. 22. 20. 21. 21. 27. 29. 27. 27. 26. 30. 32. 34. 35. 36.
      37. 38. 39. 38. 36. 33. 32. 34. 31. 29. 30. 28. 25. 27. 24. 35.
      34. 34. 35. 36. 36. 36. 37. 40. 42. 40. 43. 43. 40. 39. 39. 38.
      36. 35. 37. 32. 30. 37. 34. 29.</_>
    <_>
      6. 6. 8. 5. 3. 7. 6. 4. 8. 4. 3. 6. 6. 5. 5. 5. 6. 6. 6. 5. 3. 4.
      6. 5. 6. 6. 6. 8. 6. 5. 6. 4. 5. 4. 7. 9. 7. 3. 4. 6. 5. 4. 3. 4.
      5. 4. 5. 5. 4. 6. 6. 6. 7. 6. 7. 5. 4. 11. 17. 20. 23. 25. 26. 27.
      21. 12. 8. 5. 3. 3. 5. 5. 5. 4. 4. 7. 6. 6. 5. 7. 5. 7. 21. 27.
      26. 26. 27. 25. 25. 26. 25. 19. 12. 5. 3. 4. 5. 4. 5. 6. 6. 6. 6.
      5. 7. 5. 9. 25. 26. 25. 26. 28. 27. 27. 27. 26. 27. 21. 10. 3. 4.
      4. 4. 6. 6. 6. 5. 7. 7. 7. 6. 8. 19. 20. 15. 11. 9. 12. 21. 27.
      27. 29. 25. 15. 6. 5. 4. 3. 5. 6. 7. 6. 7. 7. 6. 6. 6. 10. 3. 5.
      8. 7. 4. 9. 19. 26. 27. 27. 18. 8. 6. 4. 3. 6. 8. 10. 6. 7. 5. 5.
      7. 6. 5. 10. 5. 5. 6. 4. 5. 14. 25. 25. 29. 20. 8. 5. 4. 4. 7. 5.
      15. 9. 7. 6. 7. 4. 8. 6. 5. 5. 5. 8. 5. 4. 15. 26. 26. 29. 19. 7.
      6. 6. 5. 6. 6. 17. 10. 7. 6. 7. 5. 8. 6. 7. 7. 5. 5. 5. 7. 17. 25.
      26. 25. 16. 7. 5. 6. 6. 7. 8. 22. 11. 7. 5. 7. 5. 8. 6. 6. 6. 3.
      5. 12. 21. 27. 26. 28. 20. 9. 4. 5. 7. 7. 6. 8. 27. 12. 8. 6. 6.
      5. 7. 6. 12. 23. 27. 24. 20. 23. 27. 25. 18. 10. 4. 4. 5. 6. 7. 6.
      8. 31. 12. 8. 6. 6. 6. 7. 5. 13. 22. 25. 25. 26. 28. 26. 17. 8. 5.
      5. 6. 6. 5. 6. 6. 8. 33. 11. 9. 7. 6. 6. 6. 5. 14. 23. 27. 27. 25.
      25. 27. 24. 19. 14. 7. 4. 5. 6. 6. 6. 12. 32. 9. 8. 7. 6. 6. 6. 5.
      6. 8. 8. 13. 18. 22. 27. 27. 29. 26. 14. 4. 5. 7. 6. 6. 7. 31. 7.
      7. 7. 6. 6. 6. 5. 5. 6. 5. 6. 5. 5. 15. 22. 21. 28. 23. 11. 7. 6.
      5. 8. 9. 17. 9. 7. 4. 5. 7. 4. 6. 5. 7. 3. 7. 5. 3. 6. 21. 25. 27.
      23. 13. 6. 7. 7. 5. 8. 14. 8. 7. 5. 6. 7. 4. 4. 5. 6. 3. 7. 7. 6.
      6. 18. 25. 27. 24. 15. 7. 4. 5. 7. 7. 10. 6. 6. 6. 6. 6. 4. 5. 4.
      7. 5. 7. 5. 3. 6. 17. 23. 26. 25. 16. 7. 3. 4. 6. 6. 7. 6. 6. 5.
      5. 6. 8. 12. 4. 6. 5. 6. 6. 7. 13. 24. 22. 27. 24. 13. 5. 5. 6. 3.
      6. 6. 6. 5. 5. 5. 7. 15. 21. 17. 14. 11. 11. 15. 17. 21. 24. 26.
      26. 19. 9. 4. 6. 6. 3. 5. 5. 7. 5. 6. 5. 8. 18. 26. 26. 24. 23.
      21. 24. 24. 25. 23. 28. 20. 12. 6. 4. 4. 5. 6. 4. 5. 7. 5. 6. 6.
      6. 16. 21. 21. 22. 26. 25. 26. 24. 26. 22. 18. 11. 6. 5. 5. 3. 4.
      6. 4. 5. 7. 4. 6. 6. 4. 11. 13. 23. 21. 24. 21. 23. 20. 18. 10. 5.
      4. 4. 4. 5. 5. 5. 4. 4. 5. 6. 6. 6. 6. 6. 6. 6. 5. 5. 7. 7. 4. 4.
      5. 5. 4. 5. 6. 5. 5. 5. 5. 5. 4.</_>
    <_>
      8. 8. 8. 6. 9. 10. 4. 7. 4. 7. 4. 3. 4. 2. 4. 6. 9. 9. 8. 7. 10.
      7. 8. 7. 9. 7. 9. 10. 10. 6. 3. 7. 10. 22. 27. 29. 29. 25. 16. 10.
      7. 5. 10. 8. 8. 9. 8. 7. 10. 9. 9. 8. 8. 9. 6. 8. 38. 48. 56. 59.
      61. 60. 61. 59. 46. 33. 19. 7. 4. 9. 3. 7. 9. 6. 8. 8. 9. 8. 8. 4.
      8. 50. 58. 55. 55. 56. 52. 53. 58. 58. 56. 50. 22. 9. 8. 5. 9. 10.
      6. 9. 6. 8. 8. 9. 9. 14. 54. 56. 49. 45. 49. 54. 55. 55. 54. 55.
      61. 46. 24. 2. 11. 9. 5. 9. 8. 9. 10. 8. 6. 4. 6. 28. 25. 18. 13.
      8. 13. 23. 39. 55. 55. 54. 57. 42. 4. 8. 7. 6. 8. 7. 6. 9. 10. 9.
      8. 6. 7. 4. 4. 10. 6. 5. 4. 19. 49. 56. 51. 59. 51. 12. 5. 10. 11.
      8. 8. 12. 11. 10. 7. 8. 9. 5. 9. 9. 9. 5. 12. 5. 7. 41. 59. 52.
      60. 46. 9. 7. 12. 6. 9. 12. 7. 9. 9. 7. 10. 6. 8. 8. 5. 9. 9. 9.
      2. 16. 47. 55. 52. 65. 37. 4. 10. 11. 10. 10. 12. 6. 10. 11. 9. 7.
      8. 6. 7. 8. 9. 2. 3. 15. 36. 57. 58. 58. 49. 20. 6. 10. 10. 9. 13.
      11. 8. 10. 11. 10. 6. 9. 5. 11. 31. 42. 41. 43. 50. 55. 57. 51.
      49. 31. 8. 7. 7. 10. 11. 14. 17. 14. 7. 9. 10. 8. 7. 4. 18. 53.
      59. 56. 55. 55. 53. 50. 44. 19. 10. 3. 9. 10. 10. 10. 11. 17. 15.
      6. 9. 7. 10. 7. 5. 16. 52. 56. 58. 57. 54. 54. 53. 45. 29. 17. 10.
      8. 11. 7. 9. 14. 17. 12. 9. 11. 6. 9. 8. 6. 8. 27. 35. 44. 45. 45.
      53. 56. 52. 56. 44. 27. 6. 7. 10. 13. 14. 14. 10. 11. 11. 7. 8. 9.
      7. 5. 4. 3. 2. 3. 12. 28. 42. 55. 51. 52. 43. 18. 8. 14. 13. 8. 8.
      11. 13. 8. 10. 8. 8. 7. 8. 7. 10. 9. 8. 8. 6. 22. 53. 52. 55. 54.
      33. 6. 6. 9. 13. 11. 12. 9. 11. 12. 8. 7. 8. 7. 8. 8. 5. 7. 11. 4.
      13. 47. 56. 50. 59. 36. 4. 8. 14. 10. 14. 10. 8. 9. 8. 4. 7. 10.
      5. 4. 9. 10. 7. 6. 3. 17. 49. 52. 52. 61. 37. 7. 9. 14. 11. 11. 8.
      7. 10. 9. 6. 15. 18. 8. 2. 5. 6. 3. 6. 15. 31. 53. 55. 55. 56. 29.
      2. 4. 6. 4. 5. 11. 9. 8. 4. 7. 30. 47. 43. 32. 29. 28. 26. 30. 40.
      49. 56. 53. 51. 49. 32. 22. 29. 31. 32. 32. 8. 8. 8. 5. 12. 37.
      58. 58. 57. 54. 57. 56. 54. 56. 56. 56. 58. 57. 59. 56. 58. 64.
      64. 66. 66. 10. 18. 28. 33. 40. 54. 62. 60. 60. 56. 60. 61. 58.
      59. 59. 58. 59. 59. 62. 61. 61. 62. 60. 62. 62. 52. 58. 61. 62.
      63. 63. 61. 60. 64. 59. 61. 61. 59. 62. 62. 62. 61. 60. 62. 62.
      61. 62. 62. 64. 62. 63. 64. 62. 62. 64. 62. 60. 64. 60. 59. 63.
      63. 61. 62. 61. 61. 63. 61. 62. 62. 61. 63. 62. 60. 62. 61. 60.
      61. 62. 62. 61. 61. 62. 61. 61. 62. 63. 63. 62. 61. 61. 62. 62.
      62. 62. 62. 62. 62. 62. 62.</_>
    <_>
      8. 8. 9. 9. 17. 38. 52. 58. 64. 63. 58. 46. 35. 25. 13. 7. 6. 8.
      10. 8. 9. 6. 9. 7. 8. 11. 10. 6. 7. 30. 52. 55. 53. 52. 51. 53.
      55. 55. 48. 28. 8. 6. 7. 9. 8. 10. 8. 10. 8. 8. 6. 10. 6. 3. 34.
      55. 58. 58. 57. 53. 54. 53. 51. 54. 47. 29. 10. 6. 8. 7. 9. 7. 9.
      7. 8. 8. 9. 8. 5. 33. 43. 37. 28. 27. 32. 47. 56. 51. 50. 50. 37.
      17. 7. 6. 5. 8. 6. 8. 8. 8. 12. 8. 10. 5. 16. 15. 11. 3. 5. 9. 25.
      45. 48. 49. 52. 44. 22. 7. 6. 6. 8. 8. 9. 10. 8. 12. 6. 12. 7. 4.
      2. 7. 9. 5. 4. 13. 38. 51. 50. 51. 46. 26. 7. 7. 8. 9. 7. 6. 7. 8.
      16. 8. 9. 10. 10. 10. 9. 6. 7. 6. 6. 29. 49. 49. 51. 53. 29. 6. 6.
      8. 9. 7. 6. 7. 6. 17. 11. 9. 8. 7. 9. 7. 9. 6. 9. 7. 29. 53. 51.
      49. 51. 29. 5. 5. 7. 9. 9. 10. 13. 6. 17. 10. 8. 4. 8. 6. 4. 3. 2.
      5. 16. 35. 48. 52. 52. 44. 23. 8. 7. 9. 7. 9. 10. 9. 5. 5. 7. 12.
      10. 9. 7. 15. 22. 21. 22. 30. 44. 51. 51. 48. 39. 17. 9. 10. 10.
      6. 7. 11. 14. 8. 11. 11. 10. 7. 6. 12. 39. 53. 53. 52. 48. 49. 50.
      49. 40. 24. 8. 4. 7. 8. 8. 10. 10. 11. 8. 11. 10. 9. 9. 7. 12. 41.
      53. 49. 53. 53. 51. 45. 36. 26. 13. 8. 5. 7. 8. 11. 13. 10. 9. 7.
      9. 10. 11. 11. 6. 10. 41. 55. 50. 49. 46. 47. 41. 26. 13. 5. 7. 7.
      10. 8. 6. 7. 8. 13. 9. 10. 9. 9. 9. 8. 10. 33. 44. 53. 57. 55. 54.
      53. 44. 31. 18. 7. 6. 10. 9. 6. 6. 9. 14. 13. 9. 6. 7. 10. 12. 7.
      7. 7. 12. 30. 42. 49. 53. 52. 47. 39. 21. 9. 8. 10. 9. 12. 13. 13.
      11. 29. 16. 7. 2. 7. 6. 7. 10. 8. 10. 14. 31. 48. 50. 49. 51. 36.
      15. 5. 3. 2. 7. 11. 11. 8. 39. 66. 66. 49. 37. 41. 42. 49. 45. 39.
      36. 41. 48. 52. 53. 52. 48. 36. 19. 8. 5. 6. 8. 9. 7. 54. 66. 65.
      64. 64. 67. 64. 68. 76. 70. 63. 60. 59. 57. 55. 54. 55. 56. 55.
      50. 44. 38. 37. 37. 42. 61. 62. 58. 60. 60. 60. 58. 61. 56. 57.
      59. 62. 62. 60. 59. 59. 59. 59. 61. 68. 75. 76. 71. 66. 63. 63.
      63. 62. 60. 56. 57. 59. 60. 59. 59. 60. 60. 59. 58. 59. 60. 57.
      57. 57. 59. 62. 63. 62. 60. 65. 58. 58. 60. 60. 59. 60. 61. 58.
      58. 57. 57. 58. 59. 60. 60. 61. 56. 58. 60. 61. 60. 61. 62. 63.
      60. 61. 58. 60. 60. 61. 59. 61. 60. 59. 59. 59. 60. 61. 61. 59.
      58. 61. 60. 59. 60. 63. 63. 60. 57. 57. 59. 57. 59. 58. 60. 57.
      60. 63. 61. 60. 59. 57. 58. 59. 61. 61. 58. 59. 60. 60. 59. 59.
      60. 60. 61. 57. 58. 60. 57. 62. 60. 60. 57. 58. 60. 62. 62. 61.
      60. 60. 60. 60. 61. 61. 61. 60. 59. 58. 59. 61. 58. 60. 60. 59.
      59. 60. 60. 59. 59. 60. 60. 60. 60. 60. 61. 61. 61. 60. 60. 61.
      60. 59. 60. 61. 61.</_>
    <_>
      5. 5. 6. 6. 8. 4. 2. 14. 24. 25. 27. 28. 25. 23. 22. 21. 11. 6. 6.
      6. 6. 4. 8. 5. 5. 7. 6. 6. 6. 7. 5. 7. 20. 24. 25. 28. 28. 28. 29.
      29. 26. 24. 14. 6. 3. 7. 7. 9. 4. 6. 7. 7. 6. 5. 6. 5. 8. 21. 27.
      28. 28. 26. 26. 29. 30. 28. 29. 23. 15. 4. 6. 6. 7. 6. 5. 7. 5. 6.
      5. 6. 5. 6. 14. 14. 14. 12. 11. 14. 18. 23. 28. 26. 28. 24. 9. 5.
      3. 5. 8. 7. 8. 5. 6. 6. 6. 5. 4. 8. 4. 3. 2. 3. 5. 7. 15. 27. 26.
      29. 27. 11. 8. 6. 4. 5. 7. 10. 7. 7. 6. 6. 7. 5. 6. 8. 7. 6. 7. 6.
      3. 9. 24. 28. 28. 28. 12. 7. 7. 5. 5. 5. 11. 7. 8. 7. 6. 7. 6. 6.
      5. 7. 6. 7. 7. 3. 10. 25. 29. 27. 28. 12. 4. 5. 6. 8. 7. 10. 7. 9.
      8. 6. 7. 5. 5. 4. 7. 5. 5. 6. 5. 12. 27. 30. 24. 26. 11. 4. 6. 7.
      7. 6. 15. 10. 6. 5. 6. 6. 6. 5. 4. 4. 5. 7. 7. 12. 23. 26. 27. 27.
      18. 7. 5. 6. 6. 7. 8. 11. 9. 6. 5. 6. 6. 5. 4. 9. 19. 21. 21. 24.
      26. 29. 28. 26. 21. 11. 5. 6. 6. 5. 8. 7. 6. 7. 7. 6. 6. 6. 5. 3.
      10. 26. 27. 24. 28. 29. 27. 25. 19. 11. 4. 5. 8. 6. 4. 7. 6. 3. 7.
      9. 8. 7. 7. 6. 4. 13. 26. 27. 25. 27. 29. 28. 25. 20. 13. 6. 5. 6.
      5. 5. 7. 8. 2. 7. 9. 8. 7. 7. 6. 4. 12. 19. 23. 25. 25. 26. 30.
      27. 27. 24. 17. 8. 2. 4. 7. 8. 7. 4. 7. 9. 8. 6. 6. 5. 4. 8. 7. 9.
      14. 12. 14. 22. 24. 26. 28. 26. 16. 6. 5. 8. 6. 9. 7. 8. 8. 7. 6.
      5. 5. 5. 7. 5. 2. 5. 5. 4. 12. 19. 23. 25. 28. 23. 11. 6. 6. 5. 6.
      10. 9. 7. 7. 6. 5. 5. 6. 6. 9. 4. 5. 8. 2. 4. 13. 28. 25. 27. 24.
      12. 3. 4. 7. 10. 8. 9. 7. 4. 6. 7. 7. 6. 8. 5. 7. 5. 7. 7. 4. 8.
      25. 27. 24. 27. 9. 5. 6. 7. 6. 6. 6. 6. 6. 7. 6. 4. 4. 6. 6. 8. 6.
      5. 5. 5. 13. 23. 26. 25. 29. 11. 5. 6. 7. 7. 6. 5. 5. 7. 7. 6. 5.
      6. 6. 5. 7. 6. 5. 4. 6. 15. 27. 27. 24. 26. 10. 5. 5. 7. 6. 9. 7.
      6. 5. 5. 8. 12. 15. 9. 5. 2. 2. 5. 9. 15. 25. 28. 28. 24. 21. 7.
      4. 5. 7. 5. 9. 7. 6. 4. 4. 13. 22. 23. 19. 18. 16. 17. 20. 21. 24.
      28. 24. 27. 25. 17. 6. 5. 6. 7. 6. 6. 6. 6. 4. 4. 16. 26. 26. 25.
      29. 30. 31. 31. 28. 27. 27. 29. 25. 17. 7. 5. 8. 6. 5. 7. 6. 5. 6.
      5. 5. 14. 24. 25. 25. 28. 24. 23. 25. 26. 29. 28. 27. 17. 8. 1. 5.
      9. 5. 5. 7. 8. 5. 6. 7. 4. 11. 21. 23. 27. 30. 24. 24. 28. 29. 27.
      19. 10. 6. 6. 5. 7. 6. 3. 8. 6. 6. 6. 8. 5. 4. 7. 9. 12. 15. 17.
      15. 15. 15. 12. 9. 6. 4. 4. 6. 7. 7. 6. 6. 6. 6.</_>
    <_>
      25. 23. 24. 23. 21. 21. 24. 26. 23. 25. 22. 20. 24. 28. 30. 34.
      38. 47. 53. 55. 50. 43. 39. 33. 30. 23. 24. 25. 24. 23. 23. 25.
      26. 25. 25. 23. 24. 28. 31. 38. 46. 54. 63. 67. 66. 60. 52. 46.
      38. 31. 23. 27. 26. 23. 23. 25. 26. 26. 25. 25. 25. 28. 33. 38.
      49. 61. 68. 76. 78. 76. 70. 62. 53. 42. 29. 26. 29. 27. 23. 24.
      27. 26. 26. 25. 26. 29. 33. 39. 48. 61. 73. 80. 87. 89. 87. 82.
      72. 58. 43. 29. 28. 28. 26. 24. 26. 28. 27. 26. 26. 29. 35. 40.
      47. 59. 72. 81. 88. 95. 97. 96. 91. 77. 59. 41. 33. 28. 24. 24.
      27. 27. 26. 27. 26. 28. 32. 40. 47. 54. 66. 78. 84. 93. 99. 102.
      102. 94. 78. 59. 42. 32. 33. 23. 25. 30. 26. 24. 29. 32. 33. 36.
      46. 56. 62. 71. 84. 90. 99. 105. 108. 106. 95. 76. 59. 45. 34. 41.
      27. 28. 33. 25. 23. 33. 39. 40. 42. 53. 64. 69. 77. 90. 98. 102.
      108. 109. 105. 88. 66. 51. 41. 22. 41. 23. 32. 34. 31. 37. 33. 42.
      46. 54. 62. 65. 70. 81. 93. 100. 101. 109. 106. 98. 82. 60. 55.
      36. 23. 48. 32. 33. 42. 39. 37. 42. 48. 60. 61. 62. 65. 73. 84.
      92. 95. 104. 102. 106. 92. 74. 67. 50. 23. 38. 74. 44. 30. 40. 43.
      43. 53. 58. 65. 63. 62. 66. 75. 85. 91. 93. 101. 100. 101. 89. 73.
      58. 33. 22. 43. 96. 46. 30. 37. 48. 55. 60. 66. 64. 63. 66. 72.
      78. 84. 89. 94. 98. 102. 95. 90. 74. 49. 28. 31. 47. 100. 47. 35.
      47. 61. 65. 66. 70. 70. 71. 75. 79. 81. 83. 88. 93. 97. 101. 98.
      90. 71. 56. 40. 31. 42. 104. 53. 41. 56. 71. 72. 78. 77. 81. 80.
      80. 81. 83. 84. 88. 91. 96. 101. 102. 87. 71. 59. 37. 30. 47. 97.
      52. 52. 66. 79. 80. 85. 87. 87. 85. 83. 83. 84. 86. 90. 92. 98.
      104. 102. 88. 76. 55. 37. 37. 38. 73. 39. 66. 79. 86. 87. 82. 92.
      91. 90. 89. 86. 85. 87. 91. 94. 103. 106. 101. 95. 80. 57. 55. 43.
      33. 47. 46. 67. 75. 77. 89. 90. 90. 92. 89. 87. 88. 89. 92. 96.
      100. 103. 101. 97. 86. 72. 59. 46. 35. 40. 33. 47. 67. 72. 77. 87.
      86. 86. 84. 84. 85. 88. 92. 95. 99. 101. 98. 92. 84. 74. 64. 55.
      45. 35. 38. 34. 55. 64. 62. 69. 77. 77. 77. 75. 78. 82. 89. 96.
      101. 103. 102. 98. 87. 74. 64. 57. 53. 48. 40. 33. 38. 53. 51. 49.
      57. 63. 65. 63. 63. 67. 75. 84. 94. 101. 102. 99. 93. 80. 64. 52.
      46. 46. 45. 41. 32. 28. 34. 34. 41. 46. 47. 49. 45. 46. 51. 59.
      69. 82. 91. 93. 90. 80. 67. 52. 39. 32. 32. 34. 33. 31. 23. 23.
      27. 37. 36. 32. 35. 32. 32. 35. 41. 52. 65. 75. 78. 77. 72. 61.
      47. 34. 26. 25. 26. 26. 26. 28. 26. 27. 31. 30. 28. 30. 29. 28.
      28. 31. 40. 52. 60. 63. 64. 63. 52. 41. 32. 27. 26. 27. 26. 26.
      29. 28. 26. 26. 29. 32. 31. 31. 30. 27. 28. 35. 44. 50. 53. 54.
      47. 37. 28. 25. 25. 28. 29. 27. 27. 29. 29. 30. 32. 32. 31. 32.
      33. 33. 33. 33. 34. 35. 39. 41. 39. 36. 32. 30. 28. 26. 25. 25.
      24. 24.</_>
    <_>
      21. 22. 20. 26. 22. 21. 24. 26. 32. 42. 54. 68. 76. 75. 68. 56.
      44. 29. 26. 21. 24. 23. 23. 23. 25. 23. 26. 22. 23. 20. 25. 26.
      26. 38. 54. 69. 83. 90. 89. 80. 67. 50. 34. 28. 21. 24. 26. 28.
      31. 29. 27. 24. 21. 23. 23. 25. 28. 33. 43. 63. 80. 91. 96. 95.
      86. 72. 55. 39. 30. 21. 23. 24. 24. 29. 40. 35. 25. 23. 24. 24.
      24. 27. 37. 51. 73. 88. 92. 93. 93. 88. 75. 55. 40. 30. 22. 26.
      30. 31. 45. 58. 38. 25. 26. 23. 23. 30. 35. 44. 61. 81. 92. 91.
      89. 90. 89. 79. 61. 43. 30. 21. 26. 34. 40. 64. 83. 49. 24. 26.
      26. 26. 33. 43. 56. 68. 84. 91. 88. 86. 89. 89. 81. 68. 50. 34.
      24. 27. 32. 38. 70. 108. 69. 28. 28. 31. 30. 35. 47. 64. 77. 86.
      88. 86. 86. 90. 90. 83. 71. 53. 38. 29. 30. 34. 39. 78. 125. 73.
      29. 29. 29. 30. 43. 58. 72. 81. 85. 82. 81. 83. 87. 88. 81. 73.
      54. 37. 28. 28. 31. 38. 83. 132. 92. 19. 36. 34. 36. 50. 66. 77.
      81. 79. 76. 75. 78. 85. 88. 84. 73. 59. 41. 32. 32. 33. 34. 89.
      142. 80. 29. 36. 36. 47. 60. 76. 81. 78. 73. 68. 69. 74. 83. 87.
      85. 77. 63. 44. 34. 33. 32. 31. 78. 139. 56. 36. 34. 38. 55. 67.
      81. 79. 73. 65. 59. 62. 70. 81. 86. 85. 79. 65. 46. 36. 36. 36.
      35. 72. 123. 40. 40. 39. 48. 64. 74. 84. 79. 69. 59. 53. 58. 69.
      80. 86. 86. 78. 65. 47. 35. 35. 37. 38. 66. 105. 41. 41. 46. 58.
      72. 82. 86. 78. 66. 55. 49. 55. 67. 79. 86. 87. 83. 73. 55. 40.
      36. 37. 38. 53. 85. 48. 39. 48. 63. 79. 87. 86. 78. 66. 57. 51.
      56. 67. 79. 87. 90. 89. 82. 66. 49. 41. 38. 37. 39. 61. 49. 40.
      51. 68. 86. 89. 86. 80. 69. 62. 59. 63. 71. 81. 89. 90. 88. 83.
      69. 53. 44. 42. 39. 31. 41. 42. 38. 52. 70. 88. 84. 82. 80. 71.
      68. 67. 71. 77. 84. 89. 89. 89. 86. 73. 57. 49. 48. 46. 32. 30.
      32. 41. 56. 72. 82. 83. 81. 79. 75. 74. 74. 78. 84. 88. 90. 89.
      92. 88. 81. 71. 58. 55. 52. 40. 36. 29. 36. 50. 65. 77. 81. 80.
      79. 79. 79. 80. 83. 87. 90. 90. 90. 91. 90. 87. 79. 69. 63. 57.
      43. 39. 29. 33. 43. 57. 68. 74. 76. 76. 78. 80. 83. 87. 90. 92.
      91. 90. 89. 91. 90. 85. 76. 69. 61. 47. 42. 30. 32. 39. 49. 57.
      62. 65. 67. 69. 72. 77. 83. 88. 91. 91. 90. 89. 90. 89. 86. 79.
      71. 64. 51. 46. 28. 30. 34. 40. 44. 48. 52. 55. 57. 60. 65. 73.
      81. 87. 89. 89. 89. 91. 89. 86. 81. 73. 66. 57. 49. 23. 25. 28.
      31. 33. 35. 39. 43. 47. 48. 52. 59. 70. 79. 85. 87. 89. 91. 89.
      87. 82. 74. 67. 59. 52. 23. 23. 24. 26. 27. 27. 30. 34. 38. 38.
      40. 47. 57. 69. 78. 84. 86. 89. 87. 85. 80. 70. 62. 56. 53. 26.
      25. 24. 24. 24. 24. 25. 28. 32. 32. 33. 38. 48. 61. 73. 81. 86.
      88. 85. 81. 75. 64. 57. 52. 46. 25. 24. 22. 21. 22. 22. 23. 23.
      26. 28. 30. 33. 42. 54. 67. 77. 84. 86. 85. 79. 70. 60. 51. 44.
      38.</_>
    <_>
      20. 21. 19. 20. 22. 20. 21. 22. 21. 23. 27. 35. 45. 57. 72. 86.
      94. 99. 102. 104. 99. 90. 76. 61. 45. 18. 20. 19. 21. 22. 20. 21.
      23. 24. 27. 32. 42. 55. 68. 82. 94. 98. 102. 105. 105. 99. 87. 72.
      56. 39. 19. 20. 19. 23. 24. 19. 20. 23. 26. 30. 38. 51. 66. 79.
      91. 100. 103. 107. 107. 105. 96. 82. 67. 50. 39. 19. 20. 19. 24.
      26. 21. 21. 24. 27. 34. 45. 60. 75. 87. 96. 102. 106. 109. 108.
      103. 92. 77. 62. 46. 36. 20. 18. 17. 23. 27. 24. 25. 27. 31. 42.
      55. 70. 84. 94. 100. 105. 108. 110. 106. 99. 86. 71. 56. 41. 30.
      23. 21. 17. 21. 26. 25. 27. 29. 37. 50. 65. 78. 90. 98. 103. 106.
      109. 108. 102. 93. 79. 64. 50. 35. 23. 28. 25. 20. 21. 25. 26. 30.
      32. 47. 60. 73. 83. 92. 98. 102. 104. 106. 104. 97. 87. 72. 56.
      42. 27. 14. 28. 26. 21. 22. 26. 29. 35. 38. 56. 68. 80. 87. 94.
      99. 100. 101. 102. 100. 92. 82. 66. 51. 37. 22. 9. 27. 26. 28. 20.
      25. 31. 39. 53. 65. 77. 84. 87. 93. 96. 97. 101. 103. 97. 90. 76.
      59. 46. 32. 14. 15. 35. 26. 26. 22. 29. 37. 48. 62. 75. 80. 83.
      87. 92. 95. 96. 100. 101. 94. 83. 70. 55. 37. 22. 15. 30. 40. 26.
      27. 26. 35. 47. 60. 72. 79. 80. 82. 85. 90. 92. 96. 102. 101. 94.
      80. 66. 51. 31. 20. 26. 40. 42. 28. 31. 33. 43. 58. 71. 76. 77.
      79. 81. 83. 86. 90. 97. 104. 98. 90. 76. 60. 43. 28. 27. 36. 43.
      51. 31. 33. 41. 54. 68. 77. 78. 77. 77. 77. 79. 84. 93. 101. 104.
      97. 86. 73. 56. 40. 34. 35. 36. 32. 58. 34. 36. 50. 66. 74. 78.
      78. 75. 71. 70. 75. 85. 100. 106. 104. 98. 85. 71. 57. 44. 40. 38.
      28. 27. 50. 37. 48. 63. 76. 80. 78. 76. 71. 67. 70. 79. 91. 103.
      108. 104. 96. 85. 72. 58. 48. 40. 32. 26. 46. 36. 41. 64. 75. 83.
      85. 80. 75. 70. 68. 75. 87. 95. 102. 104. 101. 96. 90. 77. 64. 53.
      39. 30. 33. 62. 35. 50. 74. 90. 92. 89. 86. 80. 74. 74. 82. 94.
      102. 106. 105. 102. 99. 88. 77. 60. 51. 41. 32. 42. 61. 44. 59.
      82. 95. 95. 92. 89. 85. 81. 83. 91. 99. 104. 107. 107. 104. 95.
      86. 74. 58. 56. 53. 34. 28. 64. 48. 65. 87. 98. 97. 94. 92. 90.
      88. 92. 98. 101. 103. 105. 104. 101. 93. 77. 70. 65. 56. 37. 24.
      35. 66. 43. 60. 80. 90. 91. 89. 89. 89. 92. 96. 101. 101. 101.
      103. 100. 94. 85. 72. 63. 57. 49. 34. 25. 32. 48. 34. 46. 60. 68.
      70. 71. 73. 76. 86. 92. 98. 100. 99. 99. 91. 80. 68. 61. 52. 46.
      43. 39. 30. 24. 35. 24. 30. 36. 40. 42. 43. 47. 54. 73. 82. 94.
      98. 98. 93. 80. 65. 53. 44. 37. 37. 34. 28. 23. 22. 20. 20. 22.
      22. 23. 24. 23. 27. 37. 58. 71. 87. 94. 91. 83. 68. 54. 41. 35.
      26. 23. 23. 24. 21. 15. 17. 22. 22. 21. 22. 22. 18. 21. 31. 42.
      58. 76. 83. 78. 68. 55. 42. 31. 29. 25. 23. 20. 20. 21. 18. 11.
      24. 24. 23. 23. 24. 22. 22. 25. 31. 46. 61. 67. 62. 54. 41. 23.
      18. 18. 21. 22. 21. 21. 23. 24. 21.</_>
    <_>
      20. 23. 23. 23. 24. 24. 24. 24. 24. 26. 26. 33. 41. 54. 59. 65.
      64. 58. 51. 39. 30. 25. 22. 22. 21. 22. 23. 23. 23. 25. 24. 23.
      23. 25. 27. 33. 46. 60. 74. 83. 89. 88. 77. 65. 48. 33. 27. 22.
      22. 22. 24. 24. 22. 23. 26. 26. 23. 23. 26. 29. 43. 63. 83. 95.
      105. 109. 104. 90. 75. 55. 36. 28. 24. 22. 22. 27. 24. 22. 23. 27.
      26. 24. 24. 29. 35. 57. 80. 100. 108. 115. 114. 107. 93. 80. 59.
      38. 29. 25. 24. 24. 29. 26. 23. 24. 26. 25. 24. 26. 32. 45. 71.
      94. 112. 116. 118. 115. 108. 98. 84. 61. 39. 30. 27. 27. 31. 30.
      28. 25. 26. 27. 25. 26. 31. 37. 58. 84. 102. 116. 118. 117. 116.
      110. 104. 87. 59. 38. 30. 28. 29. 35. 26. 26. 26. 28. 28. 26. 30.
      38. 49. 77. 97. 106. 111. 113. 110. 112. 110. 107. 88. 56. 36. 29.
      24. 26. 32. 20. 21. 23. 27. 28. 27. 33. 43. 63. 93. 107. 108. 106.
      108. 103. 108. 111. 111. 90. 55. 37. 28. 20. 21. 29. 39. 18. 21.
      33. 30. 37. 38. 56. 78. 106. 108. 107. 98. 102. 103. 108. 112.
      117. 86. 57. 39. 30. 24. 20. 36. 55. 21. 29. 35. 33. 39. 49. 71.
      93. 109. 104. 98. 91. 94. 100. 110. 118. 114. 87. 59. 38. 32. 27.
      21. 48. 59. 18. 35. 35. 35. 43. 64. 87. 103. 105. 93. 83. 80. 83.
      96. 110. 124. 111. 88. 61. 38. 32. 23. 19. 53. 49. 17. 36. 35. 41.
      54. 81. 98. 102. 95. 80. 68. 71. 76. 92. 108. 122. 106. 88. 65.
      43. 30. 17. 20. 63. 53. 31. 38. 40. 56. 76. 99. 103. 98. 85. 70.
      56. 63. 73. 93. 109. 117. 104. 89. 70. 50. 32. 16. 30. 71. 71. 44.
      41. 49. 72. 94. 109. 103. 92. 77. 63. 51. 61. 76. 97. 114. 115.
      107. 94. 77. 59. 39. 23. 39. 69. 83. 43. 46. 63. 86. 102. 111.
      103. 91. 77. 68. 63. 71. 85. 101. 117. 116. 111. 102. 87. 68. 52.
      39. 47. 63. 85. 35. 52. 77. 97. 104. 112. 107. 97. 85. 80. 80. 85.
      94. 103. 117. 114. 112. 108. 97. 77. 66. 55. 54. 53. 72. 39. 50.
      82. 99. 109. 110. 109. 99. 94. 95. 98. 97. 99. 108. 114. 111. 113.
      113. 103. 94. 79. 67. 55. 40. 58. 38. 54. 82. 97. 108. 110. 110.
      108. 105. 106. 108. 105. 105. 111. 114. 113. 113. 111. 108. 100.
      87. 68. 54. 33. 40. 32. 47. 69. 86. 98. 99. 97. 99. 100. 104. 106.
      105. 107. 112. 115. 111. 111. 107. 105. 94. 81. 60. 47. 40. 29.
      26. 36. 48. 61. 70. 69. 68. 67. 71. 76. 81. 86. 96. 106. 112. 109.
      110. 105. 95. 77. 62. 48. 43. 40. 25. 27. 31. 34. 36. 36. 35. 39.
      36. 40. 43. 48. 59. 76. 94. 107. 108. 108. 102. 81. 59. 40. 36.
      36. 28. 26. 26. 26. 27. 27. 23. 21. 23. 23. 25. 24. 27. 41. 62.
      85. 102. 109. 106. 96. 69. 46. 28. 26. 26. 23. 25. 24. 23. 25. 28.
      25. 22. 21. 22. 23. 21. 24. 35. 53. 73. 90. 101. 99. 86. 61. 38.
      26. 24. 23. 22. 22. 24. 24. 26. 26. 25. 25. 24. 23. 25. 24. 26.
      34. 45. 59. 74. 83. 83. 70. 50. 28. 23. 22. 23. 22. 24. 23. 21.
      22. 27. 25. 22. 24. 25. 26. 25. 25. 29. 33. 40. 51. 58. 60. 50.
      38. 24. 22. 22. 21. 21.</_>
    <_>
      17. 20. 25. 25. 27. 31. 40. 53. 66. 73. 74. 74. 71. 62. 51. 41.
      32. 27. 20. 18. 20. 21. 24. 29. 32. 21. 22. 26. 26. 28. 35. 46.
      61. 74. 82. 84. 82. 79. 70. 59. 47. 35. 29. 22. 19. 19. 23. 30.
      37. 45. 24. 24. 26. 26. 30. 39. 53. 70. 83. 92. 93. 90. 86. 78.
      66. 53. 39. 31. 25. 21. 18. 24. 38. 49. 57. 24. 24. 27. 27. 33.
      44. 59. 75. 88. 97. 97. 93. 89. 81. 69. 56. 44. 33. 27. 23. 18.
      26. 47. 61. 70. 23. 24. 27. 30. 37. 49. 63. 79. 90. 98. 98. 94.
      91. 85. 74. 61. 48. 37. 30. 26. 20. 30. 54. 72. 80. 24. 25. 29.
      33. 43. 55. 67. 82. 90. 96. 94. 92. 91. 87. 79. 68. 52. 41. 33.
      28. 23. 32. 57. 78. 86. 28. 27. 31. 36. 46. 59. 71. 85. 89. 93.
      90. 89. 90. 88. 81. 73. 58. 46. 35. 28. 25. 32. 55. 79. 95. 30.
      29. 31. 36. 48. 61. 74. 87. 89. 91. 87. 87. 89. 87. 82. 74. 63.
      51. 38. 29. 26. 32. 54. 78. 100. 33. 28. 37. 42. 49. 66. 79. 87.
      91. 87. 85. 84. 86. 88. 85. 77. 66. 56. 44. 34. 26. 31. 54. 78.
      106. 33. 32. 39. 47. 56. 71. 82. 87. 87. 82. 79. 79. 82. 87. 87.
      83. 69. 59. 48. 38. 27. 25. 46. 72. 105. 34. 39. 42. 51. 64. 76.
      85. 86. 83. 75. 70. 72. 78. 85. 89. 88. 78. 65. 53. 43. 27. 20.
      38. 65. 102. 32. 44. 45. 53. 68. 80. 87. 86. 82. 70. 63. 67. 75.
      83. 88. 89. 79. 67. 57. 47. 32. 21. 32. 52. 93. 27. 46. 49. 55.
      72. 85. 89. 84. 79. 64. 57. 63. 74. 83. 87. 89. 79. 71. 63. 55.
      45. 35. 36. 43. 82. 26. 44. 53. 60. 76. 88. 88. 82. 73. 60. 54.
      63. 75. 84. 89. 89. 85. 79. 69. 61. 55. 50. 45. 42. 76. 32. 44.
      55. 64. 79. 89. 84. 79. 70. 59. 56. 65. 78. 86. 90. 91. 89. 83.
      73. 63. 58. 54. 46. 36. 68. 39. 44. 56. 66. 80. 87. 80. 77. 69.
      61. 60. 68. 79. 88. 92. 92. 91. 87. 79. 71. 65. 58. 44. 30. 58.
      43. 42. 53. 62. 74. 83. 77. 76. 71. 65. 64. 72. 84. 89. 89. 88.
      90. 90. 84. 77. 70. 60. 43. 20. 45. 39. 39. 49. 56. 67. 75. 72.
      73. 75. 70. 69. 75. 82. 85. 87. 88. 89. 93. 89. 81. 74. 69. 56.
      35. 43. 35. 36. 45. 50. 58. 66. 65. 68. 71. 70. 71. 75. 78. 81.
      84. 88. 89. 92. 88. 81. 76. 73. 67. 54. 54. 30. 32. 39. 44. 50.
      56. 57. 60. 61. 62. 64. 69. 72. 75. 80. 84. 86. 85. 83. 82. 78.
      72. 68. 59. 55. 26. 28. 33. 38. 43. 47. 48. 49. 52. 51. 53. 57.
      62. 68. 73. 77. 79. 79. 80. 85. 83. 73. 62. 50. 49. 24. 25. 28.
      32. 36. 38. 39. 39. 42. 40. 39. 42. 49. 58. 67. 73. 74. 78. 80.
      82. 80. 72. 60. 43. 33. 22. 23. 24. 26. 28. 30. 31. 30. 31. 30.
      30. 31. 37. 46. 57. 65. 70. 74. 75. 75. 71. 66. 56. 41. 28. 20.
      21. 20. 21. 22. 23. 25. 25. 26. 26. 26. 26. 29. 36. 47. 54. 64.
      67. 69. 71. 67. 58. 49. 39. 31. 20. 24. 22. 21. 22. 22. 23. 22.
      21. 21. 22. 23. 24. 28. 36. 44. 51. 59. 64. 63. 63. 52. 44. 35.
      28.</_>
    <_>
      18. 18. 19. 19. 17. 21. 22. 17. 18. 24. 21. 19. 22. 22. 27. 39.
      60. 72. 72. 69. 53. 37. 22. 18. 18. 22. 20. 20. 21. 20. 21. 21.
      20. 21. 23. 19. 18. 17. 25. 45. 72. 98. 97. 95. 86. 70. 39. 24.
      16. 19. 23. 24. 21. 18. 19. 21. 21. 19. 22. 23. 20. 20. 24. 43.
      72. 102. 108. 102. 103. 96. 72. 36. 24. 21. 20. 29. 28. 22. 19.
      22. 23. 22. 23. 24. 23. 22. 26. 45. 70. 96. 109. 103. 100. 101.
      100. 64. 32. 20. 22. 21. 45. 36. 25. 25. 28. 22. 18. 22. 23. 21.
      30. 42. 72. 91. 104. 103. 100. 100. 101. 97. 60. 31. 21. 18. 15.
      45. 30. 16. 14. 21. 24. 23. 23. 20. 27. 48. 71. 96. 98. 97. 94.
      93. 99. 106. 90. 56. 27. 24. 18. 13. 85. 54. 25. 17. 21. 25. 25.
      24. 31. 51. 76. 96. 100. 88. 79. 83. 93. 105. 111. 87. 51. 24. 21.
      15. 24. 117. 62. 21. 18. 21. 16. 19. 29. 52. 81. 97. 104. 87. 72.
      61. 72. 94. 107. 105. 84. 45. 26. 17. 9. 34. 95. 27. 15. 21. 22.
      25. 32. 49. 81. 101. 104. 84. 65. 42. 47. 71. 97. 111. 106. 75.
      42. 23. 13. 9. 38. 49. 17. 20. 26. 31. 40. 58. 81. 97. 102. 85.
      55. 35. 31. 48. 77. 111. 112. 101. 72. 40. 19. 14. 17. 42. 24. 16.
      23. 29. 46. 64. 83. 101. 100. 89. 60. 34. 21. 33. 62. 94. 114.
      107. 92. 68. 42. 23. 15. 15. 37. 21. 17. 24. 40. 70. 90. 100. 101.
      92. 71. 46. 35. 32. 47. 76. 105. 113. 110. 99. 77. 54. 38. 26. 15.
      33. 23. 20. 38. 67. 94. 104. 104. 95. 75. 56. 45. 45. 53. 67. 92.
      110. 106. 109. 106. 91. 74. 61. 46. 30. 30. 30. 33. 62. 93. 109.
      110. 106. 97. 92. 82. 79. 76. 82. 89. 101. 102. 103. 104. 106.
      102. 92. 80. 59. 36. 23. 34. 49. 84. 105. 113. 112. 111. 108. 112.
      110. 110. 108. 108. 112. 113. 108. 111. 110. 110. 105. 93. 79. 56.
      30. 12. 35. 63. 102. 112. 111. 109. 109. 112. 117. 116. 114. 115.
      110. 112. 110. 109. 108. 111. 111. 97. 78. 67. 52. 32. 27. 44. 71.
      99. 108. 104. 100. 99. 99. 96. 94. 95. 97. 100. 102. 106. 109.
      110. 104. 99. 73. 53. 44. 37. 28. 25. 49. 65. 83. 89. 86. 81. 75.
      70. 56. 55. 55. 60. 70. 83. 97. 106. 110. 104. 85. 53. 36. 30. 25.
      23. 13. 38. 39. 39. 37. 36. 36. 37. 37. 35. 34. 34. 40. 56. 78.
      99. 111. 111. 105. 70. 36. 24. 22. 20. 22. 18. 23. 20. 17. 14. 12.
      13. 17. 21. 21. 21. 24. 34. 54. 80. 101. 112. 110. 97. 56. 31. 22.
      22. 21. 23. 23. 22. 20. 19. 19. 17. 15. 17. 20. 17. 19. 24. 37.
      60. 84. 101. 108. 105. 82. 44. 28. 19. 21. 22. 20. 21. 25. 21. 18.
      19. 20. 19. 19. 21. 18. 20. 26. 40. 61. 81. 93. 98. 96. 65. 36.
      26. 18. 20. 23. 19. 22. 23. 21. 21. 24. 26. 25. 22. 20. 20. 21.
      27. 40. 56. 70. 79. 84. 72. 47. 31. 23. 20. 20. 23. 21. 19. 22.
      21. 22. 24. 25. 24. 22. 21. 21. 21. 25. 34. 42. 49. 54. 58. 45.
      29. 24. 18. 20. 20. 19. 20. 20. 19. 20. 22. 23. 23. 22. 22. 21.
      20. 20. 23. 27. 30. 35. 39. 38. 28. 22. 20. 18. 22. 19. 20. 20.
      19.</_>
    <_>
      17. 18. 20. 19. 19. 19. 18. 21. 20. 22. 23. 23. 24. 29. 39. 50.
      63. 71. 75. 72. 65. 52. 37. 27. 23. 18. 18. 19. 18. 19. 21. 20.
      23. 24. 22. 22. 26. 32. 41. 58. 76. 88. 91. 92. 88. 74. 54. 40.
      33. 23. 20. 19. 21. 20. 20. 23. 22. 24. 23. 23. 26. 34. 47. 62.
      81. 98. 102. 103. 99. 92. 73. 51. 40. 30. 12. 21. 19. 21. 21. 20.
      22. 22. 23. 23. 29. 34. 44. 63. 84. 97. 104. 100. 105. 98. 87. 69.
      53. 41. 24. 12. 31. 25. 26. 24. 21. 23. 25. 27. 29. 36. 46. 60.
      81. 97. 103. 102. 97. 102. 95. 84. 69. 54. 36. 15. 26. 49. 36. 30.
      26. 22. 23. 27. 32. 36. 45. 61. 80. 95. 99. 96. 94. 96. 97. 93.
      83. 69. 47. 23. 9. 38. 57. 37. 28. 25. 23. 25. 31. 38. 50. 62. 78.
      91. 95. 90. 87. 89. 95. 95. 93. 80. 65. 41. 17. 16. 35. 58. 36.
      27. 29. 30. 35. 43. 51. 65. 80. 91. 91. 85. 81. 84. 90. 90. 91.
      91. 73. 58. 37. 16. 26. 41. 61. 34. 23. 30. 39. 44. 52. 70. 86.
      90. 87. 79. 74. 73. 78. 87. 92. 93. 88. 75. 55. 36. 29. 33. 49.
      49. 28. 26. 37. 45. 56. 71. 86. 88. 84. 75. 66. 63. 67. 78. 88.
      95. 96. 90. 77. 57. 36. 26. 26. 42. 42. 29. 37. 52. 61. 75. 88.
      91. 83. 71. 58. 52. 54. 65. 81. 92. 95. 92. 83. 70. 53. 35. 25.
      24. 41. 36. 41. 56. 69. 79. 90. 92. 85. 73. 59. 49. 49. 56. 71.
      87. 95. 95. 91. 81. 69. 56. 42. 32. 30. 41. 33. 57. 75. 83. 90.
      95. 90. 81. 67. 56. 52. 58. 68. 81. 93. 96. 96. 93. 86. 78. 68.
      55. 44. 40. 55. 52. 76. 88. 91. 97. 96. 88. 78. 70. 64. 64. 72.
      82. 91. 98. 100. 98. 96. 90. 82. 75. 66. 58. 56. 62. 76. 88. 92.
      95. 98. 96. 90. 81. 80. 81. 82. 86. 94. 99. 100. 101. 101. 99. 92.
      84. 78. 72. 69. 69. 74. 84. 88. 91. 97. 96. 93. 96. 91. 91. 96.
      97. 97. 101. 101. 99. 99. 97. 97. 93. 85. 78. 71. 67. 68. 69. 85.
      91. 95. 97. 99. 99. 99. 100. 104. 103. 102. 102. 102. 101. 99. 98.
      99. 98. 92. 84. 74. 65. 57. 52. 49. 84. 90. 95. 98. 99. 98. 96.
      97. 99. 100. 100. 100. 99. 98. 98. 97. 98. 95. 89. 80. 68. 56. 46.
      40. 34. 73. 78. 80. 81. 82. 82. 83. 86. 86. 89. 93. 94. 95. 96.
      97. 98. 97. 92. 83. 72. 58. 46. 36. 30. 27. 60. 61. 58. 55. 52.
      51. 54. 59. 65. 71. 78. 84. 89. 94. 97. 98. 94. 86. 73. 59. 46.
      35. 28. 24. 24. 38. 39. 37. 33. 31. 30. 33. 38. 48. 56. 66. 75.
      85. 92. 95. 95. 88. 77. 62. 47. 34. 26. 21. 20. 20. 20. 21. 19.
      18. 19. 22. 28. 35. 42. 50. 61. 73. 83. 90. 91. 89. 81. 70. 54.
      40. 30. 22. 19. 18. 19. 20. 19. 16. 16. 17. 19. 25. 33. 40. 49.
      62. 73. 82. 87. 85. 81. 73. 62. 47. 36. 27. 21. 19. 19. 19. 20.
      21. 21. 23. 25. 25. 28. 33. 38. 48. 61. 72. 79. 83. 80. 74. 66.
      54. 40. 30. 23. 19. 19. 20. 20. 23. 24. 25. 25. 26. 27. 28. 30.
      35. 47. 58. 65. 71. 73. 70. 66. 56. 45. 35. 28. 22. 20. 20. 20.
      20.</_>
    <_>
      19. 17. 16. 16. 14. 14. 17. 18. 17. 19. 19. 18. 19. 19. 20. 22.
      28. 39. 48. 63. 74. 77. 76. 62. 34. 18. 20. 20. 18. 18. 21. 20.
      18. 17. 19. 19. 21. 22. 21. 22. 26. 40. 57. 69. 82. 88. 88. 80.
      59. 33. 21. 24. 25. 25. 25. 23. 19. 19. 20. 19. 18. 19. 20. 20.
      25. 34. 52. 72. 86. 93. 94. 91. 76. 49. 34. 25. 27. 26. 25. 23.
      18. 17. 19. 20. 19. 18. 19. 19. 20. 31. 46. 66. 83. 93. 94. 93.
      88. 71. 44. 29. 49. 46. 38. 29. 22. 18. 16. 16. 18. 20. 21. 22.
      23. 29. 44. 62. 81. 89. 93. 91. 89. 83. 65. 42. 25. 80. 69. 60.
      51. 36. 22. 17. 18. 20. 23. 24. 24. 29. 42. 62. 80. 88. 89. 90.
      89. 86. 77. 58. 37. 20. 103. 94. 87. 70. 42. 24. 22. 23. 25. 28.
      28. 28. 39. 58. 76. 87. 87. 87. 89. 89. 86. 76. 54. 34. 20. 129.
      132. 121. 78. 33. 22. 26. 20. 26. 31. 34. 38. 52. 71. 81. 84. 81.
      82. 86. 88. 84. 74. 52. 32. 19. 156. 158. 110. 56. 34. 25. 23. 20.
      30. 36. 43. 52. 67. 78. 79. 76. 76. 81. 83. 87. 83. 64. 52. 26.
      31. 177. 136. 78. 44. 30. 19. 22. 33. 36. 43. 55. 68. 78. 79. 73.
      69. 71. 79. 84. 83. 79. 64. 40. 17. 48. 163. 111. 65. 44. 30. 22.
      25. 36. 47. 55. 67. 78. 81. 72. 64. 62. 66. 77. 86. 82. 75. 58.
      26. 16. 61. 140. 100. 69. 43. 26. 28. 35. 44. 55. 65. 75. 79. 73.
      61. 56. 58. 66. 79. 89. 86. 72. 49. 22. 30. 65. 134. 94. 62. 38.
      28. 34. 42. 56. 64. 74. 80. 75. 64. 54. 53. 59. 72. 86. 89. 86.
      69. 45. 30. 45. 63. 120. 78. 46. 31. 32. 43. 53. 69. 79. 84. 79.
      66. 53. 49. 55. 64. 80. 90. 88. 83. 68. 49. 44. 50. 73. 95. 57.
      33. 29. 39. 58. 73. 85. 90. 86. 73. 57. 50. 53. 64. 74. 88. 89.
      87. 83. 72. 56. 53. 53. 96. 74. 40. 28. 40. 54. 73. 87. 89. 88.
      80. 66. 56. 56. 63. 74. 83. 93. 85. 88. 87. 77. 60. 56. 56. 110.
      51. 31. 36. 55. 72. 87. 91. 90. 84. 73. 63. 62. 68. 76. 86. 93.
      94. 92. 92. 89. 78. 66. 57. 51. 71. 36. 37. 52. 71. 82. 90. 90.
      86. 81. 75. 71. 73. 79. 87. 92. 96. 94. 95. 95. 89. 79. 66. 48.
      32. 31. 36. 51. 67. 80. 87. 90. 91. 87. 84. 83. 83. 85. 90. 95.
      96. 95. 94. 95. 91. 82. 71. 61. 42. 22. 37. 49. 65. 73. 80. 87.
      90. 93. 91. 91. 90. 90. 91. 93. 95. 95. 94. 96. 93. 86. 74. 61.
      51. 38. 25. 34. 60. 73. 77. 84. 92. 94. 96. 94. 95. 92. 91. 92.
      93. 91. 92. 95. 95. 89. 80. 66. 47. 31. 24. 21. 26. 65. 76. 82.
      89. 95. 95. 95. 95. 91. 88. 87. 89. 89. 87. 89. 93. 92. 82. 69.
      52. 31. 16. 14. 18. 17. 66. 72. 80. 82. 85. 85. 81. 81. 76. 75.
      76. 77. 78. 80. 84. 89. 88. 76. 58. 39. 22. 16. 19. 22. 17. 63.
      65. 72. 71. 70. 70. 62. 59. 58. 59. 61. 63. 67. 74. 81. 86. 77.
      66. 47. 28. 17. 19. 21. 19. 19. 56. 59. 60. 58. 54. 49. 46. 44.
      45. 47. 51. 55. 64. 71. 81. 79. 72. 56. 37. 26. 21. 21. 21. 19.
      19.</_>
    <_>
      5. 6. 6. 7. 6. 6. 6. 7. 3. 9. 4. 4. 7. 5. 8. 10. 5. 7. 6. 6. 7. 5.
      6. 6. 7. 6. 6. 6. 6. 6. 6. 6. 6. 4. 6. 6. 7. 6. 6. 7. 4. 5. 6. 3.
      3. 6. 6. 6. 7. 6. 7. 6. 5. 6. 7. 6. 5. 4. 6. 3. 7. 6. 5. 14. 20.
      19. 21. 19. 8. 4. 6. 6. 6. 7. 6. 6. 6. 6. 6. 6. 6. 5. 4. 5. 4. 7.
      4. 9. 29. 39. 43. 42. 35. 14. 6. 6. 6. 6. 7. 7. 6. 6. 6. 7. 6. 5.
      5. 5. 4. 5. 6. 5. 21. 42. 47. 49. 49. 41. 13. 5. 5. 5. 6. 7. 6. 6.
      6. 7. 7. 6. 5. 5. 6. 5. 6. 4. 10. 32. 49. 48. 47. 48. 42. 12. 5.
      6. 6. 5. 6. 6. 8. 7. 7. 6. 6. 5. 5. 6. 6. 5. 8. 24. 42. 49. 50.
      48. 48. 43. 11. 6. 6. 7. 5. 6. 8. 10. 8. 6. 6. 6. 5. 5. 5. 4. 4.
      16. 41. 49. 45. 49. 48. 48. 44. 11. 6. 6. 6. 5. 7. 9. 9. 9. 6. 4.
      7. 6. 2. 8. 6. 11. 32. 42. 47. 42. 46. 47. 48. 42. 12. 5. 5. 6. 6.
      7. 9. 16. 8. 7. 6. 5. 7. 7. 6. 6. 27. 44. 48. 40. 26. 45. 47. 48.
      43. 13. 6. 4. 6. 7. 9. 11. 20. 12. 8. 6. 6. 7. 6. 6. 21. 42. 48.
      40. 25. 15. 44. 47. 47. 43. 14. 7. 4. 6. 6. 9. 14. 16. 15. 8. 4.
      9. 6. 4. 16. 39. 47. 44. 25. 12. 15. 44. 47. 46. 42. 14. 7. 5. 6.
      6. 8. 12. 17. 14. 7. 3. 7. 7. 14. 34. 46. 44. 35. 15. 6. 14. 45.
      46. 47. 43. 13. 7. 5. 7. 7. 9. 12. 26. 13. 9. 7. 4. 13. 31. 45.
      44. 36. 18. 7. 4. 11. 47. 44. 48. 43. 13. 6. 5. 7. 7. 9. 15. 26.
      12. 9. 9. 11. 28. 43. 45. 40. 23. 7. 4. 7. 14. 45. 44. 46. 43. 15.
      9. 7. 8. 7. 9. 12. 17. 10. 7. 9. 23. 43. 48. 44. 34. 13. 12. 11.
      14. 21. 41. 48. 45. 45. 20. 15. 12. 10. 8. 9. 12. 14. 8. 4. 13.
      29. 41. 42. 39. 33. 32. 31. 31. 33. 37. 42. 45. 48. 45. 38. 35.
      32. 20. 9. 9. 11. 1. 1. 0. 0. 1. 1. 2. 1. 1. 0. 0. 0. 0. 1. 1. 2.
      2. 2. 0. 0. 4. 1. 0. 2. 0. 0. 1. 2. 1. 0. 0. 0. 0. 1. 1. 1. 2. 1.
      0. 0. 0. 0. 0. 0. 0. 2. 2. 0. 4. 0. 1. 0. 0. 0. 2. 3. 2. 1. 1. 1.
      1. 1. 1. 1. 2. 2. 0. 2. 1. 0. 1. 1. 0. 0. 1. 2. 2. 1. 1. 0. 0. 0.
      0. 1. 0. 0. 0. 0. 0. 0. 0. 0. 0. 0. 0. 1. 1. 1. 0. 0. 0. 0. 0. 0.
      0. 0. 0. 0. 0. 0. 1. 1. 1. 0. 0. 0. 1. 1. 1. 0. 0. 0. 0. 0. 0. 1.
      0. 0. 0. 1. 1. 0. 0. 0. 0. 0. 0. 0. 0. 0. 0. 1. 0. 0. 0. 0. 0. 1.
      0. 0. 0. 0. 0. 0. 0. 0. 0. 1. 1. 1. 0. 0. 0. 0. 0. 0. 0. 0. 0. 1.
      0. 0. 1. 0. 0. 0. 0. 0. 0. 0. 0. 0. 0. 0. 0. 0. 0. 0. 0. 0. 0. 0.
      0. 0. 0. 0. 0. 0. 0. 0.</_>
    <_>
      21. 22. 23. 30. 47. 66. 84. 96. 101. 101. 102. 103. 98. 91. 86.
      80. 64. 47. 35. 22. 22. 24. 34. 44. 58. 25. 22. 21. 32. 55. 80.
      97. 105. 101. 99. 96. 92. 86. 79. 73. 65. 54. 40. 29. 22. 24. 31.
      44. 58. 77. 24. 23. 26. 39. 63. 88. 102. 105. 99. 95. 88. 79. 69.
      63. 57. 50. 40. 30. 21. 21. 25. 39. 57. 79. 101. 25. 25. 30. 44.
      67. 91. 101. 100. 92. 83. 75. 63. 52. 46. 41. 39. 29. 23. 18. 22.
      30. 49. 73. 103. 130. 32. 28. 31. 45. 69. 94. 104. 99. 81. 65. 54.
      46. 38. 32. 27. 28. 24. 23. 22. 29. 40. 63. 90. 124. 150. 36. 31.
      34. 49. 72. 94. 102. 96. 74. 51. 39. 34. 32. 29. 22. 23. 26. 28.
      28. 34. 49. 73. 101. 133. 150. 40. 32. 36. 52. 74. 94. 101. 93.
      73. 51. 42. 37. 36. 34. 28. 29. 32. 32. 32. 35. 56. 82. 112. 142.
      154. 49. 34. 31. 49. 76. 99. 104. 94. 73. 57. 51. 45. 41. 40. 36.
      40. 36. 34. 32. 34. 62. 91. 125. 155. 164. 54. 41. 30. 47. 78.
      101. 104. 92. 78. 66. 61. 53. 45. 43. 40. 40. 37. 35. 29. 35. 67.
      100. 141. 165. 170. 62. 31. 34. 57. 80. 97. 100. 96. 92. 86. 85.
      78. 68. 63. 56. 51. 46. 39. 30. 41. 75. 111. 149. 168. 174. 84.
      29. 36. 56. 76. 93. 96. 94. 94. 94. 99. 95. 87. 83. 75. 67. 58.
      46. 35. 49. 79. 118. 152. 168. 173. 85. 28. 34. 49. 70. 95. 101.
      97. 98. 99. 103. 101. 94. 90. 84. 76. 66. 51. 41. 56. 78. 115.
      147. 164. 170. 66. 29. 38. 47. 65. 85. 96. 95. 97. 96. 98. 100.
      96. 92. 89. 82. 69. 52. 47. 62. 79. 111. 140. 159. 171. 52. 30.
      38. 43. 51. 61. 71. 77. 80. 82. 88. 95. 96. 95. 95. 88. 74. 56.
      54. 68. 82. 105. 133. 156. 175. 40. 22. 31. 33. 33. 40. 44. 52.
      61. 69. 80. 93. 97. 99. 99. 90. 78. 60. 61. 69. 80. 96. 128. 161.
      177. 31. 17. 31. 29. 20. 27. 25. 31. 42. 56. 72. 88. 95. 100. 102.
      91. 76. 60. 63. 68. 74. 88. 128. 171. 177. 29. 17. 24. 26. 22. 24.
      23. 31. 36. 50. 65. 81. 92. 97. 100. 97. 78. 63. 59. 58. 59. 80.
      132. 166. 169. 29. 21. 26. 28. 27. 28. 29. 35. 36. 47. 63. 83. 94.
      98. 101. 98. 85. 69. 59. 51. 50. 76. 125. 155. 159. 27. 26. 29.
      32. 32. 32. 35. 40. 41. 48. 64. 84. 93. 97. 101. 97. 84. 68. 54.
      45. 43. 72. 114. 139. 148. 24. 30. 33. 39. 41. 38. 43. 47. 51. 55.
      70. 86. 90. 94. 99. 92. 77. 59. 45. 42. 41. 65. 96. 118. 138. 25.
      33. 38. 49. 57. 56. 60. 60. 62. 68. 80. 91. 92. 95. 97. 86. 73.
      51. 39. 39. 38. 52. 71. 93. 115. 29. 34. 41. 59. 73. 77. 81. 77.
      74. 82. 91. 98. 97. 96. 93. 79. 67. 44. 33. 33. 31. 38. 50. 70.
      85. 28. 31. 43. 63. 78. 86. 92. 90. 88. 92. 96. 100. 97. 91. 82.
      68. 54. 35. 30. 26. 26. 28. 34. 48. 60. 24. 27. 44. 64. 75. 84.
      93. 96. 97. 97. 95. 96. 92. 82. 69. 57. 42. 30. 30. 23. 23. 23.
      24. 31. 39. 25. 27. 36. 51. 70. 82. 88. 95. 98. 95. 91. 87. 79.
      68. 54. 40. 29. 22. 25. 23. 23. 21. 23. 26. 29.</_>
    <_>
      58. 69. 80. 87. 93. 97. 100. 102. 99. 99. 97. 95. 94. 94. 91. 87.
      79. 68. 63. 56. 44. 40. 39. 39. 35. 63. 73. 84. 96. 106. 111. 113.
      115. 114. 113. 110. 108. 107. 107. 104. 101. 91. 80. 75. 65. 49.
      42. 41. 42. 38. 69. 76. 88. 103. 115. 120. 120. 122. 120. 118.
      116. 115. 114. 113. 111. 108. 101. 91. 85. 73. 55. 45. 43. 44. 41.
      70. 79. 91. 104. 116. 121. 121. 121. 119. 118. 118. 117. 118. 116.
      114. 111. 105. 95. 88. 75. 61. 51. 46. 46. 45. 66. 79. 92. 102.
      114. 122. 123. 122. 119. 117. 116. 115. 115. 114. 112. 111. 104.
      93. 84. 73. 63. 56. 49. 49. 52. 65. 78. 91. 100. 112. 121. 124.
      122. 119. 114. 108. 104. 101. 100. 100. 101. 96. 86. 77. 68. 61.
      57. 53. 55. 59. 65. 75. 86. 97. 111. 120. 122. 120. 118. 110. 100.
      91. 85. 82. 82. 83. 80. 73. 67. 60. 55. 55. 58. 67. 70. 65. 72.
      82. 96. 112. 122. 122. 121. 114. 105. 92. 81. 72. 66. 64. 65. 66.
      64. 61. 55. 51. 53. 63. 78. 82. 63. 75. 77. 94. 110. 123. 124.
      119. 113. 101. 88. 79. 69. 62. 59. 59. 57. 59. 58. 53. 52. 55. 68.
      91. 100. 47. 67. 77. 92. 107. 122. 125. 119. 112. 103. 93. 85. 76.
      69. 65. 62. 60. 60. 58. 53. 56. 62. 76. 97. 119. 42. 60. 74. 87.
      99. 116. 123. 120. 114. 108. 102. 96. 89. 84. 79. 75. 69. 65. 60.
      58. 60. 64. 80. 107. 138. 49. 57. 72. 84. 95. 109. 119. 122. 117.
      114. 111. 108. 104. 101. 97. 92. 84. 75. 69. 67. 62. 59. 78. 115.
      152. 52. 54. 71. 81. 88. 101. 112. 119. 117. 117. 118. 117. 115.
      113. 111. 107. 100. 90. 82. 76. 67. 61. 80. 118. 159. 50. 47. 64.
      67. 71. 86. 100. 107. 109. 110. 115. 119. 119. 118. 118. 117. 111.
      104. 97. 86. 75. 68. 85. 118. 153. 57. 43. 54. 54. 57. 69. 80. 86.
      90. 91. 98. 105. 108. 111. 116. 119. 117. 112. 108. 98. 83. 69.
      83. 117. 160. 69. 42. 51. 54. 57. 61. 63. 66. 70. 70. 77. 87. 93.
      100. 110. 117. 119. 114. 113. 108. 87. 63. 75. 115. 167. 76. 45.
      44. 58. 54. 51. 55. 55. 58. 59. 62. 70. 79. 88. 99. 111. 118. 119.
      113. 109. 96. 68. 70. 108. 157. 92. 46. 33. 51. 57. 54. 54. 56.
      56. 56. 58. 64. 72. 81. 93. 106. 115. 118. 115. 112. 99. 71. 70.
      99. 128. 64. 43. 43. 55. 59. 58. 60. 65. 63. 62. 62. 65. 73. 81.
      93. 104. 115. 117. 116. 111. 96. 73. 70. 87. 104. 50. 53. 57. 56.
      57. 66. 73. 78. 80. 80. 79. 81. 86. 92. 101. 109. 114. 115. 114.
      106. 89. 70. 66. 74. 71. 40. 45. 49. 48. 53. 68. 83. 96. 99. 99.
